# 174
-1.639806851744651794e-02
-1.142613172531127930e+00
-1.076217174530029297e+00
-6.346518993377685547e-01
1.376253366470336914e-02
1.820451319217681885e-01
7.435166239738464355e-01
7.420146465301513672e-01
9.158322960138320923e-02
1.802317053079605103e-01
8.628323674201965332e-01
-4.632594287395477295e-01
-3.459007263183593750e+00
2.898578345775604248e-01
5.715373754501342773e-01
7.384591102600097656e-01
2.870365977287292480e-02
1.925609260797500610e-01
-7.439962029457092285e-01
-1.008979696780443192e-02
-2.666838765144348145e-01
-8.250644803047180176e-01
-4.898949563503265381e-01
2.261120527982711792e-01
2.983250617980957031e-01
8.119437694549560547e-01
4.673286378383636475e-01
-2.845431327819824219e+00
7.911080121994018555e-01
1.634927541017532349e-01
-1.672205328941345215e-01
-8.589631319046020508e-01
3.692208603024482727e-02
-2.784432768821716309e-01
-6.766039729118347168e-01
-7.621139287948608398e-01
6.183803677558898926e-01
5.430172681808471680e-01
-1.854185461997985840e-01
1.164537191390991211e+00
-9.198938310146331787e-02
-7.457434535026550293e-01
-4.769360721111297607e-01
-7.173523306846618652e-02
2.447216659784317017e-01
8.221814036369323730e-01
2.167482823133468628e-01
2.825282514095306396e-01
-1.205575764179229736e-01
2.100336104631423950e-01
-8.771322667598724365e-03
-6.954396516084671021e-02
1.056367009878158569e-01
1.065316260792315006e-03
-1.254850924015045166e-01
5.300810188055038452e-02
-1.531401425600051880e-01
-7.536413520574569702e-02
-7.666762471199035645e-01
-1.373686790466308594e-01
7.705076336860656738e-01
-2.579646408557891846e-01
-6.853587627410888672e-01
-8.027935028076171875e-01
3.113080561161041260e-01
6.613947153091430664e-01
-6.126575171947479248e-02
-2.546270132064819336e+00
3.775918185710906982e-01
-6.940287351608276367e-02
-1.074013952165842056e-02
-4.991326928138732910e-01
-3.773477510549128056e-04
4.995055496692657471e-01
-8.268765807151794434e-01
-1.677429974079132080e-01
5.580985546112060547e-01
-3.066259026527404785e-01
4.106727838516235352e-01
-6.937631964683532715e-01
-2.838657200336456299e-01
-9.557809829711914062e-01
6.525648832321166992e-01
2.933564901351928711e+00
-3.280297517776489258e-01
7.856706976890563965e-01
1.101042389869689941e+00
5.946704149246215820e-01
-8.645673990249633789e-01
3.311564028263092041e-01
-2.113658785820007324e-01
2.413085699081420898e+00
-6.523529440164566040e-02
-1.811987347900867462e-02
2.256513386964797974e-01
-5.023808479309082031e-01
-2.427146583795547485e-01
-3.663627803325653076e-01
1.387651562690734863e-01
1.807787299156188965e+00
-7.776753306388854980e-01
2.116817682981491089e-01
4.510275721549987793e-01
7.154371738433837891e-01
-8.561138510704040527e-01
2.838110685348510742e+00
5.532466769218444824e-01
-3.536847978830337524e-02
5.377790927886962891e-01
-3.411616086959838867e-01
-6.565604805946350098e-01
-1.215047389268875122e-01
-8.722300082445144653e-02
-2.578525543212890625e+00
4.747873246669769287e-01
-6.530002355575561523e-01
-6.240772008895874023e-01
-9.235964156687259674e-03
-2.131127566099166870e-01
1.076907068490982056e-01
-1.101674139499664307e-02
7.556627988815307617e-01
2.663059532642364502e-01
-2.425441890954971313e-01
7.144263386726379395e-01
3.001867532730102539e-01
8.098018765449523926e-01
-7.948719859123229980e-01
-7.761713862419128418e-01
3.038901567459106445e+00
4.724014103412628174e-01
-3.988166749477386475e-01
-7.804220914840698242e-01
-8.182311654090881348e-01
-1.034230589866638184e+00
-1.367511451244354248e-01
-5.593062043190002441e-01
-1.031509876251220703e+00
1.041316390037536621e-01
5.061322450637817383e-01
-3.175894975662231445e+00
6.583195328712463379e-01
-6.721550226211547852e-01
6.164532303810119629e-01
5.330526456236839294e-02
4.386848807334899902e-01
-5.322064757347106934e-01
-1.506586968898773193e-01
-1.808960914611816406e+00
8.405933976173400879e-01
1.184320598840713501e-01
6.314180493354797363e-01
-8.877280950546264648e-01
6.800287365913391113e-01
-3.401098400354385376e-02
-4.549908936023712158e-01
-2.336683422327041626e-01
7.993726134300231934e-01
4.015812277793884277e-01
6.798668503761291504e-01
5.755479931831359863e-01
7.193045020103454590e-01
7.760287523269653320e-01
3.494878709316253662e-01
-8.020194172859191895e-01
-7.043228149414062500e-01
-8.314200639724731445e-01
-1.064826130867004395e+00
-3.693069219589233398e-01
5.358504652976989746e-01
7.379142045974731445e-01
-6.846563220024108887e-01
-1.166803598403930664e+00
-2.409454286098480225e-01
