# 174 174
-7.249819580465555191e-03 1.566628739237785339e-02 1.207243558019399643e-02 -9.051513671875000000e-02 5.477443337440490723e-02 -9.821384213864803314e-03 6.969975773245096207e-03 -6.352267414331436157e-02 -1.254044026136398315e-01 -2.805687300860881805e-02 2.014161832630634308e-02 1.857664610724896193e-04 -4.981417674571275711e-03 2.376150153577327728e-02 2.220425568521022797e-02 -1.637926250696182251e-01 -4.905033484101295471e-02 5.420259665697813034e-03 -1.290260553359985352e-01 1.150320656597614288e-02 7.001903653144836426e-02 -1.170829683542251587e-01 -1.321515887975692749e-01 -2.329278737306594849e-01 5.461656451225280762e-01 2.114593535661697388e-01 3.497947454452514648e-01 4.265153035521507263e-02 2.292682379484176636e-01 6.748395413160324097e-02 1.179183647036552429e-02 -6.815899908542633057e-02 1.209374591708183289e-01 -1.907914727926254272e-01 8.847028017044067383e-02 1.331973075866699219e-01 -4.746628180146217346e-02 -5.690832063555717468e-02 -3.582673147320747375e-02 5.918933451175689697e-02 1.502514928579330444e-01 2.761786282062530518e-01 2.189051546156406403e-02 -8.305356651544570923e-02 6.525526046752929688e-01 2.119614481925964355e-01 -1.813491433858871460e-02 8.362355828285217285e-02 -1.078850477933883667e-01 -6.733301281929016113e-01 3.810773044824600220e-02 4.350354894995689392e-02 -4.445711895823478699e-02 -4.686344042420387268e-02 -1.385302096605300903e-01 -4.464747607707977295e-01 -6.701800972223281860e-02 -1.061122957617044449e-02 2.713586762547492981e-02 -8.763934671878814697e-02 -2.674598991870880127e-01 -5.608755722641944885e-02 -1.050181463360786438e-01 -2.761837653815746307e-02 -5.236831307411193848e-01 -1.240802705287933350e-01 -2.489415556192398071e-02 7.542783766984939575e-02 6.125195696949958801e-02 -2.206700108945369720e-02 -1.283412128686904907e-01 2.595511451363563538e-02 -7.113929837942123413e-03 8.181788772344589233e-02 -1.402602791786193848e-01 2.429301850497722626e-02 -9.156639687716960907e-03 -1.330254971981048584e-01 5.335476994514465332e-01 -8.510753512382507324e-02 -8.098788559436798096e-02 -1.969781965017318726e-01 -1.908145993947982788e-01 7.255023717880249023e-02 1.065756659954786301e-02 7.711952924728393555e-02 -7.513814419507980347e-02 2.709249965846538544e-02 -2.049286812543869019e-01 2.811668217182159424e-01 4.338696971535682678e-02 -9.766158461570739746e-02 1.297162324190139771e-01 1.842746734619140625e-01 6.469312310218811035e-02 -1.280778367072343826e-02 -1.124417483806610107e-01 -2.260380238294601440e-01 1.388262063264846802e-01 -1.520716100931167603e-01 -1.643111854791641235e-01 7.114744931459426880e-02 -1.647596955299377441e-01 -1.093201246112585068e-02 9.455671533942222595e-03 -2.323476597666740417e-02 7.712237834930419922e-01 -1.307710558176040649e-01 -8.716577291488647461e-02 2.954342365264892578e-01 -7.173508405685424805e-02 -4.197475314140319824e-02 1.252060383558273315e-01 -2.386322431266307831e-02 9.478165209293365479e-02 -4.718275740742683411e-02 4.594155773520469666e-02 5.057436823844909668e-01 2.419506758451461792e-02 -1.648017615079879761e-01 -7.412378489971160889e-02 1.899198144674301147e-01 7.858043164014816284e-02 4.505753517150878906e-02 1.452302932739257812e-01 8.342783451080322266e-01 8.181617408990859985e-02 -4.036886394023895264e-01 -1.568761914968490601e-01 -6.890579592436552048e-03 3.301192224025726318e-01 -1.289250999689102173e-01 9.524461627006530762e-02 -1.298242062330245972e-01 -3.387053031474351883e-03 -2.392772212624549866e-02 -7.361242081969976425e-03 -7.099656760692596436e-02 1.091664135456085205e-01 5.523925423622131348e-01 6.818988919258117676e-02 6.973823904991149902e-02 -2.241466492414474487e-01 4.129805862903594971e-01 -9.979476034641265869e-02 -2.612800896167755127e-02 -1.125561445951461792e-02 -6.531861424446105957e-02 -2.988227307796478271e-01 -7.059676945209503174e-02 1.373093761503696442e-02 3.007799945771694183e-02 -4.095028154551982880e-03 -8.012841641902923584e-02 1.954994648694992065e-01 -9.286178648471832275e-02 1.807478815317153931e-01 5.343000963330268860e-02 -2.560191042721271515e-02 -4.042134806513786316e-02 2.545135915279388428e-01 -2.897814265452325344e-04 -5.386615172028541565e-02 9.740750491619110107e-02 2.356564104557037354e-01 -8.253086358308792114e-02 -1.193344444036483765e-01 3.038221970200538635e-02 -6.476362049579620361e-02 9.382969141006469727e-02 2.422315925359725952e-01 1.184071972966194153e-02 -2.582111768424510956e-02 6.025573983788490295e-02
-1.313132047653198242e-02 -1.805656552314758301e-01 -2.064107507467269897e-01 1.630286425352096558e-01 3.041147291660308838e-01 1.933973580598831177e-01 -8.182288147509098053e-03 1.661544851958751678e-02 -1.127381697297096252e-01 8.526076376438140869e-02 2.978184223175048828e-01 -1.740942150354385376e-01 -7.577195763587951660e-02 5.992589145898818970e-02 1.657738536596298218e-01 -4.851286858320236206e-02 -4.104953631758689880e-02 1.551818847656250000e-01 8.232690393924713135e-03 -1.157092824578285217e-01 -1.276632845401763916e-01 6.103114411234855652e-02 5.604068934917449951e-02 -1.567032784223556519e-01 5.332398787140846252e-02 -6.256329361349344254e-03 2.890101671218872070e-01 -2.944281324744224548e-02 -2.959312312304973602e-02 -1.396781802177429199e-01 -1.323582082986831665e-01 1.461914042010903358e-03 -7.870905846357345581e-02 6.117112189531326294e-02 1.403077244758605957e-01 1.326516363769769669e-02 -2.170187607407569885e-02 -1.682431846857070923e-01 -8.092852681875228882e-02 9.007553011178970337e-02 -1.148054122924804688e+00 2.415936440229415894e-01 6.355154514312744141e-02 3.900228440761566162e-02 3.727754354476928711e-01 3.862742334604263306e-02 7.530527561902999878e-02 3.259948194026947021e-01 -2.736930549144744873e-01 -3.641088306903839111e-01 -1.015337929129600525e-01 1.133619174361228943e-01 -1.641569845378398895e-02 1.539729684591293335e-01 5.056742578744888306e-02 -1.156041678041219711e-02 -5.739327520132064819e-02 -2.817217707633972168e-01 -1.130437403917312622e-01 1.250601559877395630e-01 -1.313586384057998657e-01 -1.641572220250964165e-03 -5.147535726428031921e-02 -5.544134974479675293e-01 9.665630012750625610e-02 -5.402958393096923828e-02 -8.754282258450984955e-03 -1.338870674371719360e-01 -6.050930619239807129e-01 -2.596473395824432373e-01 -3.750561475753784180e-01 -8.412677049636840820e-02 -2.038621306419372559e-01 2.280982909724116325e-03 -3.763479739427566528e-02 -1.059971824288368225e-01 -5.931466072797775269e-02 9.030424803495407104e-02 -2.684926390647888184e-01 -5.610547214746475220e-02 3.058146312832832336e-02 -2.426259666681289673e-01 -1.795049607753753662e-01 2.793977856636047363e-01 -2.644994258880615234e-01 1.161326989531517029e-01 3.620688337832689285e-03 -4.023509472608566284e-02 2.502892911434173584e-02 -4.294131398200988770e-01 9.672723710536956787e-02 4.179761931300163269e-02 -1.351850181818008423e-01 -1.011777147650718689e-01 1.981165707111358643e-01 2.268330454826354980e-01 1.725049018859863281e-01 8.926860243082046509e-02 -5.259541049599647522e-02 -4.010682553052902222e-02 -6.128534674644470215e-02 -3.668344318866729736e-01 4.409047067165374756e-01 8.800932765007019043e-01 1.370048820972442627e-01 1.733064502477645874e-01 -3.640667498111724854e-01 2.223358675837516785e-02 2.853964269161224365e-01 1.801278889179229736e-01 9.573746472597122192e-02 -4.107618704438209534e-02 1.111669093370437622e-01 -7.495216280221939087e-02 8.659575134515762329e-02 1.342757046222686768e-01 5.690313130617141724e-02 -2.844063341617584229e-01 1.084985852241516113e+00 2.849554121494293213e-01 -3.855931013822555542e-02 -2.051807343959808350e-01 7.401942461729049683e-02 9.252471476793289185e-02 7.130949944257736206e-02 6.460219621658325195e-02 1.483730971813201904e-01 1.479630023241043091e-01 5.260354653000831604e-02 1.428165435791015625e-01 -4.495295584201812744e-01 -2.581462860107421875e-01 1.365982443094253540e-01 -2.687421739101409912e-01 -3.122029304504394531e-01 1.500661671161651611e-01 1.163433305919170380e-03 2.224791422486305237e-02 -1.155578374862670898e+00 4.762531444430351257e-02 -1.098515093326568604e-01 -1.175459697842597961e-01 -6.325769703835248947e-03 -2.442864328622817993e-01 -6.526950001716613770e-02 -1.865970641374588013e-01 -1.399807453155517578e+00 -3.589695990085601807e-01 -2.686854302883148193e-01 -9.149769693613052368e-02 -2.009527236223220825e-01 -4.302079975605010986e-02 -2.748610675334930420e-01 -1.778149008750915527e-01 2.880835831165313721e-01 9.701985865831375122e-02 2.626952901482582092e-02 7.673175539821386337e-03 -1.293911695480346680e+00 1.177186295390129089e-01 5.210889503359794617e-02 -3.590726852416992188e-01 1.773173063993453979e-01 2.147430777549743652e-01 -5.466983467340469360e-02 6.234318763017654419e-02 -8.750764280557632446e-02 -1.059102639555931091e-02 -7.586696743965148926e-01 -4.431483149528503418e-02 2.307555973529815674e-01 -1.944967210292816162e-01 -2.373922467231750488e-01 -1.944451183080673218e-01
1.161932647228240967e-01 2.759413048624992371e-02 4.816985875368118286e-02 2.804915793240070343e-02 7.768666255287826061e-04 -1.475334763526916504e-01 -3.021009452641010284e-02 -1.500023156404495239e-01 6.884884089231491089e-02 4.127640277147293091e-02 -2.613943070173263550e-02 1.228700056672096252e-01 1.225783862173557281e-02 2.511898055672645569e-02 -4.460794106125831604e-02 -1.018392071127891541e-01 -4.997297376394271851e-02 -5.944181978702545166e-02 9.543681889772415161e-02 -3.514396771788597107e-02 7.176270335912704468e-02 4.342767223715782166e-02 1.689590811729431152e-01 -2.920024991035461426e-01 -8.112846016883850098e-01 -9.684255719184875488e-02 1.243720129132270813e-01 -2.335657924413681030e-02 -1.102377325296401978e-01 -1.003775820136070251e-01 4.265743307769298553e-03 8.847793191671371460e-02 -5.379433929920196533e-02 -3.579730167984962463e-02 8.362929522991180420e-02 1.221313253045082092e-01 1.262077689170837402e-01 -7.782273739576339722e-02 2.438523322343826294e-01 -4.198208451271057129e-01 -2.771219313144683838e-01 1.649054884910583496e-01 -3.254764154553413391e-02 8.739090524613857269e-03 -5.212207436561584473e-01 -6.345103681087493896e-02 1.218691989779472351e-01 -1.782066673040390015e-01 -9.373681992292404175e-02 -6.117487326264381409e-02 -5.045516788959503174e-02 -2.188829891383647919e-02 -7.496090978384017944e-02 5.441927164793014526e-02 2.080445550382137299e-02 -8.659486472606658936e-02 -1.322629768401384354e-02 1.780967228114604950e-02 2.838668823242187500e-01 -7.768741250038146973e-02 -1.943391561508178711e-02 7.139442116022109985e-02 1.999641582369804382e-02 -1.728589460253715515e-02 -2.242169976234436035e-01 -1.359158605337142944e-01 8.050253987312316895e-02 -9.308569878339767456e-02 -1.619212329387664795e-01 2.409557551145553589e-01 -1.477227807044982910e-01 -8.126299083232879639e-02 4.474452883005142212e-02 1.292296648025512695e-01 -1.482529845088720322e-02 1.750648915767669678e-01 -5.676233768463134766e-02 5.606769397854804993e-02 -8.817442059516906738e-01 9.117197245359420776e-02 -1.706188917160034180e-01 4.645182490348815918e-01 -5.817617848515510559e-02 -1.668036580085754395e-01 -4.184358194470405579e-02 -1.002227813005447388e-01 -8.718442916870117188e-02 -2.582158334553241730e-02 3.698884546756744385e-01 -1.915379762649536133e-01 7.522668689489364624e-02 -8.538844436407089233e-02 -2.293877676129341125e-02 -1.178861707448959351e-01 2.769525721669197083e-02 8.143788576126098633e-02 1.995371282100677490e-01 2.069970965385437012e-01 -1.866123080253601074e-01 4.539194982498884201e-03 1.598162055015563965e-01 -1.832832843065261841e-01 1.518863812088966370e-02 -1.064065992832183838e-01 1.037070527672767639e-01 2.524326182901859283e-02 -9.221086651086807251e-02 -2.180790901184082031e-02 -1.026317179203033447e-01 -2.508780956268310547e-01 -1.118557807058095932e-02 -6.314611993730068207e-03 5.162415280938148499e-02 -8.770576864480972290e-02 -1.399777084589004517e-01 9.130239486694335938e-02 8.321047574281692505e-02 -2.118982523679733276e-01 1.658840477466583252e-01 3.309811353683471680e-01 5.216421186923980713e-02 -2.500106096267700195e-01 -6.933850795030593872e-02 8.513759076595306396e-02 -2.522062323987483978e-02 -1.054786443710327148e+00 -4.354112595319747925e-02 9.116128087043762207e-02 5.481543764472007751e-02 1.437191814184188843e-01 -6.862097978591918945e-02 5.758976936340332031e-02 1.793453693389892578e-01 3.068823181092739105e-02 1.057155057787895203e-01 2.029214426875114441e-02 -2.824544906616210938e-02 -1.884196186438202858e-03 -1.647815704345703125e-01 -6.053087860345840454e-02 -1.177026927471160889e-01 -1.403823643922805786e-01 2.995297908782958984e-01 -1.228204891085624695e-01 1.166888400912284851e-01 3.272697329521179199e-02 -9.410156309604644775e-02 -8.192255347967147827e-02 1.165482401847839355e-01 -1.431386023759841919e-01 -3.016863949596881866e-02 9.876497089862823486e-03 9.710087627172470093e-02 -1.077471822500228882e-01 -5.529425293207168579e-02 -2.155807614326477051e-02 -1.016920804977416992e-01 -6.728810071945190430e-02 -2.295750565826892853e-02 -5.191464722156524658e-02 -4.403305053710937500e-01 -7.748205214738845825e-02 -2.054429799318313599e-01 -7.816643267869949341e-02 4.570715501904487610e-02 -1.317028328776359558e-02 -4.046513512730598450e-02 2.602049708366394043e-02 1.241230741143226624e-01 1.596763171255588531e-02 -3.619258757680654526e-03 5.842148512601852417e-02 6.370685249567031860e-02 8.000484108924865723e-02
1.104345638304948807e-02 8.775074034929275513e-02 -9.314604103565216064e-02 1.878864318132400513e-02 4.151931703090667725e-01 2.838678285479545593e-02 -4.109984263777732849e-02 -1.302447468042373657e-01 4.204134270548820496e-02 2.002636902034282684e-02 5.220640450716018677e-02 -2.996258623898029327e-02 2.110294066369533539e-03 -2.281835675239562988e-02 -4.130215384066104889e-03 -1.114796474575996399e-02 3.239934518933296204e-02 -4.571367427706718445e-02 4.139321669936180115e-02 6.103574484586715698e-02 3.519151210784912109e-01 -5.241929367184638977e-02 1.366015523672103882e-01 3.527921438217163086e-02 -7.493588328361511230e-01 9.389967471361160278e-02 -9.101828932762145996e-02 6.032351776957511902e-02 -1.279693394899368286e-01 -2.152122110128402710e-01 -4.882624000310897827e-02 -2.547987177968025208e-02 -6.404675543308258057e-02 9.931100159883499146e-02 8.616892993450164795e-02 2.088378071784973145e-01 4.185273125767707825e-02 -6.668856739997863770e-02 -1.571889221668243408e-02 -1.486030220985412598e-01 -8.859643936157226562e-01 2.307399213314056396e-01 8.494311571121215820e-02 -5.103189498186111450e-02 -2.033965826034545898e+00 -8.627019822597503662e-02 4.964665696024894714e-02 -1.808004230260848999e-01 8.099561557173728943e-03 -2.679595947265625000e-01 -7.046876102685928345e-02 -2.412425130605697632e-01 -3.148193061351776123e-01 1.533162663690745831e-03 3.085066974163055420e-01 -3.119461834430694580e-01 -2.964923977851867676e-01 -2.949850261211395264e-01 -2.452193945646286011e-02 1.845290064811706543e-01 -3.248928785324096680e-01 -9.318027645349502563e-02 -2.201508497819304466e-03 -8.976665325462818146e-03 -3.131669461727142334e-01 -1.183155700564384460e-01 -2.450971119105815887e-02 6.369587033987045288e-02 -5.009096860885620117e-01 1.190593317151069641e-01 -1.870373189449310303e-01 3.866281732916831970e-02 -8.005569875240325928e-02 -6.221599876880645752e-02 -7.324876636266708374e-02 2.508423626422882080e-01 -1.970193982124328613e-01 2.026198804378509521e-01 -6.086367368698120117e-01 -3.080955520272254944e-02 -1.112687960267066956e-01 3.892666995525360107e-01 -1.529524177312850952e-01 -1.688436232507228851e-02 1.192721277475357056e-01 -1.118625774979591370e-01 -1.355406790971755981e-01 -3.456208109855651855e-02 -2.849300950765609741e-02 -8.596005290746688843e-02 1.451035439968109131e-01 1.509416401386260986e-01 -4.732688888907432556e-02 -3.887150809168815613e-02 1.681351512670516968e-01 2.091669104993343353e-02 7.310380786657333374e-02 3.644338995218276978e-02 1.413893979042768478e-02 2.759189307689666748e-01 2.968097329139709473e-01 -1.165686130523681641e+00 3.612526357173919678e-01 1.679343879222869873e-01 2.953126654028892517e-02 1.865610294044017792e-02 -2.090831100940704346e-02 1.134249940514564514e-01 4.094162210822105408e-02 -1.636498980224132538e-02 3.250112012028694153e-02 1.859966516494750977e-01 5.684039592742919922e-01 -2.622265741229057312e-02 3.489349409937858582e-02 1.854822039604187012e-01 4.413400962948799133e-02 1.219930276274681091e-01 3.209726810455322266e-01 5.070820078253746033e-02 2.194561809301376343e-01 3.196234703063964844e-01 -3.650915110483765602e-03 3.936842456459999084e-02 1.885552853345870972e-01 -1.173657849431037903e-01 -2.836568057537078857e-01 -4.415122866630554199e-01 -1.837239973247051239e-02 6.257127970457077026e-02 -1.258419454097747803e-01 1.636126637458801270e-01 2.410236299037933350e-01 3.262933343648910522e-02 -7.921285927295684814e-02 -4.645366594195365906e-02 1.910341344773769379e-02 -1.225017905235290527e-01 -4.551334381103515625e-01 -1.051270514726638794e-01 7.128518819808959961e-02 -5.685107409954071045e-02 3.359213098883628845e-02 2.958056330680847168e-01 1.740444265305995941e-02 -7.005400061607360840e-01 -6.542476266622543335e-02 1.205433998256921768e-02 -5.773524194955825806e-02 -2.661515586078166962e-02 -1.159177049994468689e-01 -1.516001820564270020e-01 -2.155860327184200287e-02 4.217416048049926758e-02 -2.629332430660724640e-02 2.521063201129436493e-02 -1.502593904733657837e-01 -5.773416161537170410e-02 -6.731231212615966797e-01 -1.626852005720138550e-01 -3.946402668952941895e-02 1.519877165555953979e-01 -1.958070844411849976e-01 2.972649037837982178e-01 2.345160543918609619e-01 1.584630459547042847e-02 5.962151568382978439e-03 -4.009459167718887329e-02 -2.524916231632232666e-01 -5.907237902283668518e-02 -8.803429454565048218e-02 2.934619784355163574e-01 -1.325105726718902588e-01 6.826801598072052002e-02
-7.530729472637176514e-02 -1.338965538889169693e-02 -1.797486841678619385e-02 1.362471375614404678e-02 -3.129588812589645386e-02 1.310281455516815186e-01 6.169244274497032166e-02 6.354554742574691772e-02 1.785558313131332397e-01 -2.072550356388092041e-02 8.097300305962562561e-03 -1.124980524182319641e-01 -1.834037452936172485e-01 -1.788835786283016205e-02 6.838091462850570679e-02 -1.783498227596282959e-01 5.501709505915641785e-02 -8.617775887250900269e-02 1.995699666440486908e-02 -1.011109575629234314e-01 2.122804149985313416e-02 6.560931913554668427e-03 -8.102256804704666138e-02 8.511077165603637695e-01 6.114910542964935303e-02 -4.879442974925041199e-02 -1.463652700185775757e-01 3.139123693108558655e-02 -3.191700577735900879e-02 9.315306320786476135e-03 6.529948115348815918e-02 1.703536882996559143e-02 -3.898898139595985413e-02 4.281774535775184631e-02 7.674508541822433472e-02 1.928769052028656006e-01 1.529617160558700562e-01 4.320307634770870209e-03 4.691256582736968994e-02 -6.884694099426269531e-02 -9.118352900259196758e-04 1.609555780887603760e-01 -1.115441787987947464e-02 -7.631187140941619873e-02 2.043399065732955933e-01 -1.086176261305809021e-01 -9.909418970346450806e-02 6.160294637084007263e-02 1.619682610034942627e-01 7.969640493392944336e-01 1.069970354437828064e-01 -3.612599521875381470e-02 -1.858812407590448856e-03 3.494076058268547058e-02 4.101342521607875824e-03 1.537173241376876831e-01 5.715916305780410767e-02 2.600002102553844452e-02 1.139855533838272095e-01 2.574669942259788513e-02 9.586914628744125366e-02 -1.118145976215600967e-02 -7.019507139921188354e-02 -7.686212658882141113e-02 8.315545320510864258e-02 4.316667094826698303e-02 -4.243278130888938904e-02 -6.982183456420898438e-02 -3.136380389332771301e-02 4.604248795658349991e-03 6.409771740436553955e-02 -2.042229846119880676e-02 5.769224837422370911e-02 -3.627869859337806702e-02 5.563648045063018799e-02 -6.347633153200149536e-02 1.641887612640857697e-02 -5.812287796288728714e-03 -3.641431033611297607e-02 5.011337995529174805e-02 1.633641310036182404e-02 6.251554936170578003e-03 -8.584542199969291687e-03 1.364240944385528564e-01 -1.820666901767253876e-02 1.873417198657989502e-02 2.556805685162544250e-02 -1.948645338416099548e-02 -2.853787131607532501e-02 2.804126776754856110e-02 1.062317844480276108e-02 1.220879033207893372e-01 -2.163648977875709534e-02 7.229233533143997192e-02 -2.863465249538421631e-02 1.846921443939208984e-02 -7.053934782743453979e-02 3.749523684382438660e-02 7.426244765520095825e-02 1.900573261082172394e-03 1.546387970447540283e-01 1.159135550260543823e-01 9.450472146272659302e-02 6.690305471420288086e-02 3.133285790681838989e-02 -7.032655179500579834e-03 -1.792089343070983887e-01 -1.280161142349243164e-01 6.163355335593223572e-02 1.656339690089225769e-02 3.167001530528068542e-02 4.882851615548133850e-03 1.073135882616043091e-01 -2.701540477573871613e-03 4.403060674667358398e-02 -6.811916828155517578e-02 -6.984491646289825439e-02 2.446657717227935791e-01 -4.288674332201480865e-03 -8.089293539524078369e-02 -2.864318899810314178e-02 5.735860392451286316e-02 4.309022799134254456e-02 2.049858681857585907e-02 8.612743765115737915e-02 -1.479611545801162720e-01 -1.857177168130874634e-01 1.180609092116355896e-01 5.710713937878608704e-02 2.366489544510841370e-02 -1.495067924261093140e-01 -7.920725643634796143e-02 -1.954488269984722137e-02 3.287736093625426292e-03 -2.828515134751796722e-02 3.774854540824890137e-01 1.126036867499351501e-01 -4.371324926614761353e-02 3.485043998807668686e-03 -1.091438978910446167e-01 -3.853452950716018677e-02 -3.999231755733489990e-02 2.886812575161457062e-02 -3.021216578781604767e-02 -2.004042416810989380e-01 2.227367833256721497e-02 -7.174654304981231689e-02 -9.980911388993263245e-03 7.504020817577838898e-03 4.720490053296089172e-02 4.637448582798242569e-03 2.303588949143886566e-02 -5.413837730884552002e-03 -1.204471811652183533e-01 2.231724560260772705e-02 -2.277436852455139160e-02 2.453394532203674316e-01 4.533789306879043579e-02 2.940960973501205444e-02 7.675965130329132080e-02 6.191513687372207642e-02 -1.718047447502613068e-02 8.229191601276397705e-02 1.295451307669281960e-03 4.388938471674919128e-02 -1.550919469445943832e-02 9.421373717486858368e-03 2.033870294690132141e-02 7.960223592817783356e-03 1.329714246094226837e-02 3.963924944400787354e-02 -2.928631752729415894e-02 4.197955597192049026e-03 -1.141525991261005402e-02
-6.478597875684499741e-03 1.029349048621952534e-03 1.336692720651626587e-01 1.216833293437957764e-02 2.358251623809337616e-02 2.794800139963626862e-02 2.090768665075302124e-01 -6.237981468439102173e-02 -3.677815943956375122e-02 -3.378466144204139709e-02 -2.008583396673202515e-02 -6.627938128076493740e-04 -2.026306232437491417e-03 7.542348466813564301e-03 -1.047444436699151993e-02 -3.488948047161102295e-01 6.634927820414304733e-03 7.090433686971664429e-02 1.553975697606801987e-02 -1.096113678067922592e-02 1.491591781377792358e-01 3.586265444755554199e-02 -8.212529122829437256e-02 -4.190371036529541016e-01 2.928360402584075928e-01 -7.678586989641189575e-03 7.525705546140670776e-02 -1.490324619226157665e-03 -1.897392794489860535e-02 -3.484839573502540588e-02 5.268629174679517746e-03 -1.526834256947040558e-02 1.824647001922130585e-02 4.769727587699890137e-02 2.053322345018386841e-01 5.068646669387817383e-01 1.588268205523490906e-02 -6.826798617839813232e-02 1.871584206819534302e-01 -1.572116166353225708e-01 4.518368542194366455e-01 3.793801963329315186e-01 -7.131485268473625183e-03 -4.587217234075069427e-03 -1.094663381576538086e+00 4.832974448800086975e-02 -4.766194615513086319e-03 4.253414925187826157e-03 1.029108539223670959e-01 -7.752158045768737793e-01 2.527997829020023346e-02 -1.029830984771251678e-02 -5.109084770083427429e-02 -7.108983118087053299e-03 -1.477790772914886475e-01 3.071852922439575195e-01 4.199427552521228790e-03 3.620757535099983215e-02 9.986225515604019165e-02 2.061583334580063820e-03 -4.066246151924133301e-01 -2.139309886842966080e-03 5.179411265999078751e-03 -3.220921382308006287e-02 -1.175996184349060059e+00 -2.614020407199859619e-01 -3.607640275731682777e-03 -1.724457484669983387e-03 1.915736049413681030e-01 -2.015408277511596680e-01 -1.731335185468196869e-03 -5.694959778338670731e-03 -1.731521636247634888e-02 -1.815330982208251953e-02 4.552233591675758362e-02 -9.221143275499343872e-02 2.359270155429840088e-01 -2.770739980041980743e-02 9.147576242685317993e-02 -3.229514509439468384e-02 3.281281143426895142e-02 -4.174665808677673340e-01 -4.066112339496612549e-01 5.400616209954023361e-03 -3.377378452569246292e-03 2.055465131998062134e-01 6.079965387471020222e-04 2.405228838324546814e-02 -8.871917426586151123e-02 5.763707682490348816e-03 4.358768835663795471e-02 -2.525370800867676735e-03 -4.474541172385215759e-03 1.651264540851116180e-02 -9.267933666706085205e-03 -5.627074744552373886e-03 -2.485069818794727325e-02 3.582224249839782715e-01 1.090922877192497253e-01 3.156043123453855515e-03 4.135122895240783691e-01 -9.042006134986877441e-01 9.302709251642227173e-02 1.974263042211532593e-02 -9.560929983854293823e-02 3.638606052845716476e-03 6.348060816526412964e-02 -1.861583814024925232e-02 -5.486917868256568909e-02 -1.205602101981639862e-02 -8.762011304497718811e-03 4.616812616586685181e-02 -4.417405463755130768e-03 -5.941573530435562134e-03 2.055878043174743652e-01 2.313083969056606293e-02 -4.889839887619018555e-02 7.062262892723083496e-01 -2.111729234457015991e-01 -3.648881241679191589e-02 -3.899173811078071594e-03 -2.018542438745498657e-01 2.927149645984172821e-03 -9.592643007636070251e-03 -6.534042954444885254e-02 2.380028069019317627e-01 -2.985820472240447998e-01 1.550019681453704834e-01 4.121766239404678345e-02 2.668323693796992302e-03 1.718238592147827148e-01 3.458477929234504700e-02 7.281255722045898438e-02 -3.216492012143135071e-02 3.835826367139816284e-02 -4.711672372650355101e-04 -5.129094421863555908e-02 -5.953126586973667145e-03 2.866954207420349121e-01 8.372677117586135864e-02 -2.654904033988714218e-03 -1.954308524727821350e-02 3.744035661220550537e-01 -1.917000859975814819e-01 9.685135446488857269e-03 -4.070104286074638367e-02 -1.734889447689056396e-01 -7.549493107944726944e-03 -5.682871490716934204e-02 -5.840200558304786682e-02 -1.982125639915466309e-02 3.280484816059470177e-04 8.163126558065414429e-02 -5.051680803298950195e-01 1.483325567096471786e-02 6.172177381813526154e-04 -2.131804265081882477e-02 7.009679824113845825e-02 5.564491823315620422e-02 -6.139915809035301208e-02 1.114171929657459259e-02 2.493023574352264404e-01 -6.393701583147048950e-02 1.319872736930847168e-01 3.545070290565490723e-01 -1.939689391292631626e-03 -1.447460800409317017e-02 1.080091297626495361e-01 -1.137155666947364807e-01 -2.180187962949275970e-02 2.590273320674896240e-02 4.552932828664779663e-02 8.877598494291305542e-02 -4.442531149834394455e-03
5.339800938963890076e-02 -3.035539202392101288e-02 2.592933736741542816e-02 -9.622158855199813843e-02 6.919705867767333984e-02 1.122809275984764099e-01 -5.953305587172508240e-02 -4.176585748791694641e-02 -1.071687862277030945e-01 -5.546033754944801331e-02 -2.392629161477088928e-02 -2.426236169412732124e-03 3.358248621225357056e-02 4.036160185933113098e-02 -3.937270026654005051e-03 -1.235404983162879944e-01 4.853355884552001953e-02 3.595383465290069580e-02 -2.171258628368377686e-01 7.795898616313934326e-02 -3.504767641425132751e-02 -1.418987810611724854e-01 -8.547846227884292603e-02 -3.878020942211151123e-01 1.747823715209960938e+00 1.145510971546173096e-01 2.121053040027618408e-01 1.030508056282997131e-01 3.039489388465881348e-01 1.363525241613388062e-01 -8.920321613550186157e-02 -5.882810428738594055e-02 3.110401518642902374e-02 -2.165220081806182861e-01 1.429000943899154663e-01 2.832329571247100830e-01 2.587884962558746338e-01 -2.520390972495079041e-02 -1.985089480876922607e-02 8.871470391750335693e-02 1.605619639158248901e-01 1.668927818536758423e-01 4.282217100262641907e-02 2.397867478430271149e-02 5.756341814994812012e-01 2.483415603637695312e-01 -4.494585562497377396e-03 1.033501923084259033e-01 -1.093358248472213745e-01 -6.505435109138488770e-01 -4.310701042413711548e-03 -2.075039409101009369e-02 -9.770697355270385742e-02 2.779170172289013863e-04 -1.237569972872734070e-01 -4.231186211109161377e-01 6.197629962116479874e-03 -5.870118737220764160e-02 -2.632568776607513428e-02 -1.277827322483062744e-01 -2.566090226173400879e-01 -1.987613923847675323e-02 -1.761825829744338989e-01 -9.295321255922317505e-02 -4.814565181732177734e-01 -1.124436929821968079e-01 1.234258408658206463e-03 2.190586552023887634e-02 1.475854367017745972e-01 1.139009464532136917e-02 -3.190362453460693359e-02 5.447800457477569580e-02 1.260826736688613892e-01 -4.241954907774925232e-02 -1.431184411048889160e-01 -7.625718414783477783e-02 -6.822288781404495239e-02 -9.755052626132965088e-02 1.319479107856750488e+00 -6.491720676422119141e-03 -4.242416098713874817e-02 -5.160728096961975098e-01 -1.631127446889877319e-01 9.194011986255645752e-02 4.088029731065034866e-03 8.704534173011779785e-02 5.498619750142097473e-02 6.438548862934112549e-02 -4.946089386940002441e-01 1.707776635885238647e-01 -3.631968423724174500e-02 -9.400034323334693909e-03 -1.382930725812911987e-01 2.989861071109771729e-01 4.405687376856803894e-02 -1.685363650321960449e-01 -1.310141086578369141e-01 -2.571790218353271484e-01 -1.035885699093341827e-02 -8.624261617660522461e-02 -1.714153215289115906e-02 6.156349182128906250e-01 -8.059746772050857544e-02 -3.500073030591011047e-02 -4.556375369429588318e-02 -8.424190431833267212e-02 7.088890671730041504e-01 -9.148354642093181610e-03 -4.569609090685844421e-02 2.380910664796829224e-01 -1.283105313777923584e-01 1.123492699116468430e-02 6.090606376528739929e-02 6.242030486464500427e-02 7.948119193315505981e-02 -2.106536552309989929e-02 -4.974259808659553528e-02 6.940057873725891113e-01 -1.051633581519126892e-01 -2.905834317207336426e-01 -1.226120721548795700e-02 1.355347931385040283e-01 3.106923587620258331e-02 1.361808776855468750e-01 6.602920591831207275e-02 1.584877729415893555e+00 -9.671381674706935883e-03 -8.364968001842498779e-02 -1.724507957696914673e-01 -9.642554074525833130e-02 1.824406683444976807e-01 -4.598947614431381226e-02 1.066345572471618652e-01 -7.493885606527328491e-02 -7.756956387311220169e-03 5.602449644356966019e-03 6.866530328989028931e-02 2.337722480297088623e-02 1.499662250280380249e-01 3.472805321216583252e-01 7.888893783092498779e-02 9.963858127593994141e-02 2.411007694900035858e-02 2.529309093952178955e-01 3.580896882340312004e-03 -4.741481691598892212e-02 -5.076009407639503479e-02 -5.306909326463937759e-03 -2.997489571571350098e-01 -1.118164435029029846e-01 -2.380924765020608902e-03 1.092225126922130585e-02 -2.506919950246810913e-02 -1.514784395694732666e-01 -3.987781703472137451e-02 8.770542591810226440e-02 1.556317061185836792e-01 1.653121039271354675e-02 -6.966629624366760254e-02 2.476749382913112640e-02 4.231348633766174316e-01 5.653169751167297363e-02 1.345639862120151520e-02 1.204144582152366638e-01 1.730306446552276611e-02 -2.256835997104644775e-02 -1.777371019124984741e-01 -3.401080891489982605e-02 -2.376918345689773560e-01 6.602098792791366577e-02 1.984264254570007324e-01 5.141639849171042442e-04 5.166951566934585571e-02 -6.497131194919347763e-03
2.921882644295692444e-02 -4.259311258792877197e-01 3.836931288242340088e-02 -5.993250291794538498e-03 2.695421315729618073e-02 -6.583914160728454590e-02 5.624347366392612457e-03 -1.396954208612442017e-01 1.405425369739532471e-01 2.256474271416664124e-02 -7.054618746042251587e-02 -6.913370452821254730e-03 1.731887161731719971e-01 -4.064195230603218079e-02 -6.775849312543869019e-02 -7.950799465179443359e-01 -1.634772717952728271e-01 -7.417690940201282501e-03 4.414742812514305115e-02 4.106628894805908203e-02 2.700210548937320709e-02 7.441125810146331787e-02 -3.402848169207572937e-02 -2.033730745315551758e-01 -2.945338189601898193e-01 -7.034711539745330811e-02 4.885623231530189514e-02 6.581116467714309692e-02 -6.847357749938964844e-02 -5.973574519157409668e-02 -4.140494018793106079e-02 -3.805155633017420769e-03 -2.614196948707103729e-02 8.483684808015823364e-02 8.095583915710449219e-01 7.522376179695129395e-01 -9.662130475044250488e-01 4.716810304671525955e-03 -4.237741231918334961e-02 -1.700889468193054199e-01 -3.546901047229766846e-02 7.816573977470397949e-01 4.488302022218704224e-02 1.147218346595764160e-01 -7.299055159091949463e-02 -5.050486326217651367e-02 1.343643218278884888e-01 -8.070399612188339233e-02 -1.874853074550628662e-01 -1.352100260555744171e-02 -7.200380414724349976e-02 1.264025270938873291e-01 2.730176597833633423e-02 2.884716377593576908e-04 -4.402276873588562012e-02 -2.002020627260208130e-01 -4.793038591742515564e-02 1.053616870194673538e-02 9.299586415290832520e-01 1.446967129595577717e-03 -6.456921696662902832e-01 6.042362749576568604e-02 6.891377270221710205e-02 9.157384186983108521e-02 -1.059070453047752380e-01 -8.960022330284118652e-01 4.409039393067359924e-03 -1.696013286709785461e-02 -1.791759952902793884e-02 5.189594998955726624e-02 2.464137524366378784e-01 2.594404853880405426e-02 -5.466696619987487793e-02 -4.865800589323043823e-02 1.150398328900337219e-01 7.083749771118164062e-02 -8.855974674224853516e-02 9.614196460461243987e-05 -3.366769850254058838e-01 3.144069761037826538e-02 -1.265437901020050049e-01 5.282783508300781250e-01 -7.466213703155517578e-01 -3.591652810573577881e-01 4.145396873354911804e-02 -8.546740561723709106e-02 -3.787259459495544434e-01 -4.910127818584442139e-02 5.654090642929077148e-01 -7.799495756626129150e-02 4.034579545259475708e-02 -5.033110976219177246e-01 -5.768623575568199158e-02 -1.944639533758163452e-01 8.555849641561508179e-02 -3.760201856493949890e-02 1.696367263793945312e-01 3.857768140733242035e-03 -4.012635722756385803e-02 -4.649692475795745850e-01 7.934036850929260254e-01 -4.914520774036645889e-03 8.692645467817783356e-03 -1.007003933191299438e-01 4.340019449591636658e-02 -1.213466674089431763e-01 -7.043801993131637573e-02 6.409081071615219116e-02 4.773104935884475708e-02 5.698418617248535156e-01 2.517632581293582916e-02 8.709710836410522461e-02 -7.337538897991180420e-02 1.219415962696075439e-01 7.705566938966512680e-03 3.714261949062347412e-02 -8.427710272371768951e-03 -2.411121279001235962e-01 1.081042457371950150e-02 2.004826813936233521e-01 6.517639011144638062e-02 -7.943850755691528320e-01 -1.308011859655380249e-01 5.209083668887615204e-03 -4.377129301428794861e-02 -1.054559126496315002e-01 -5.385888814926147461e-01 7.925484180450439453e-01 8.474874496459960938e-02 -1.034273952245712280e-01 1.557811442762613297e-02 7.438919972628355026e-03 3.949311003088951111e-02 5.959140509366989136e-02 4.463519901037216187e-02 -2.017230838537216187e-01 5.317813754081726074e-01 8.625595569610595703e-01 -4.005463793873786926e-02 -6.187675148248672485e-02 1.985846012830734253e-01 -5.599946528673171997e-02 8.683187961578369141e-01 -7.556918263435363770e-01 1.474006921052932739e-01 -8.628648705780506134e-03 -3.722315654158592224e-02 1.489022374153137207e-01 4.109764695167541504e-01 2.262894809246063232e-02 -9.407863765954971313e-02 -9.486964344978332520e-02 4.030495416373014450e-03 -6.065449118614196777e-01 -1.286819279193878174e-01 1.045607849955558777e-01 2.638154104351997375e-02 -1.322347298264503479e-02 -8.208358660340309143e-03 -6.462219357490539551e-02 -1.013761684298515320e-01 -1.048299744725227356e-01 -6.654104590415954590e-02 -1.264013163745403290e-02 5.523952245712280273e-01 2.118054926395416260e-01 1.144310459494590759e-01 8.478160947561264038e-03 -3.715778514742851257e-02 -3.994725272059440613e-02 -1.030601859092712402e-01 9.750907868146896362e-02 3.410881012678146362e-02 1.890756934881210327e-01
-6.591714918613433838e-02 2.595794945955276489e-02 1.270973980426788330e-01 3.851941972970962524e-02 4.106055945158004761e-02 1.668277010321617126e-02 -1.901037693023681641e-01 -7.894718647003173828e-02 1.809855923056602478e-02 -1.449371874332427979e-01 4.217174276709556580e-02 2.741836756467819214e-02 -8.438896387815475464e-02 -2.558514848351478577e-02 -2.985202334821224213e-02 1.445651799440383911e-01 7.051201909780502319e-02 1.174960061907768250e-01 2.588726207613945007e-02 -9.162057936191558838e-02 -1.132572721689939499e-02 1.748049072921276093e-02 2.731467783451080322e-02 -7.049663364887237549e-02 -3.053182736039161682e-02 -3.032269701361656189e-02 4.070359747856855392e-03 -6.862512230873107910e-02 -7.313882559537887573e-02 -5.510747432708740234e-02 -5.618273094296455383e-02 1.767531633377075195e-01 -1.279180198907852173e-01 1.065930631011724472e-02 2.625383064150810242e-02 8.578581735491752625e-03 -2.093998640775680542e-01 -2.098459564149379730e-02 -1.962116919457912445e-02 4.597745090723037720e-02 -2.745609916746616364e-02 -5.672382563352584839e-02 -3.082897327840328217e-02 -2.001741528511047363e-02 -1.649356633424758911e-02 -5.538235977292060852e-02 2.008257806301116943e-02 6.050043925642967224e-02 -2.368315011262893677e-01 -3.440787643194198608e-02 -1.188026666641235352e-01 1.030171960592269897e-01 -1.682390868663787842e-01 1.910848543047904968e-02 1.786236763000488281e-01 3.685036674141883850e-02 -1.297513991594314575e-01 -1.500109285116195679e-01 2.015700340270996094e-01 3.354184329509735107e-02 1.361820697784423828e-01 4.117706324905157089e-03 5.371268093585968018e-02 1.123120114207267761e-01 -8.159071207046508789e-02 7.394080609083175659e-02 -3.729110816493630409e-03 -8.608129620552062988e-02 3.344712406396865845e-02 -8.575665205717086792e-02 -2.595023065805435181e-02 -2.201909385621547699e-02 9.270218014717102051e-02 -1.136672496795654297e-02 -4.447523504495620728e-02 -4.891347512602806091e-02 -2.025331705808639526e-01 4.698992520570755005e-02 4.610599949955940247e-03 6.471065431833267212e-02 7.273267954587936401e-02 -5.043391883373260498e-02 1.684915274381637573e-01 -3.820633888244628906e-02 -1.475325785577297211e-02 -1.584023833274841309e-01 -1.520757912658154964e-03 -3.717396035790443420e-02 -3.116680681705474854e-02 -2.736684978008270264e-01 -1.198101602494716644e-02 1.580116748809814453e-01 2.285950817167758942e-02 -1.782776117324829102e-01 1.641979813575744629e-01 3.934800252318382263e-02 9.438167512416839600e-02 -5.979001149535179138e-02 3.061907179653644562e-02 2.043339163064956665e-01 1.606278419494628906e-01 -8.575604856014251709e-02 -9.998601861298084259e-03 -3.612290695309638977e-02 1.603927463293075562e-01 -8.638599887490272522e-03 -2.244587987661361694e-02 1.193699017167091370e-01 -2.158165872097015381e-01 -2.141600996255874634e-01 -3.236308926716446877e-03 -4.518987610936164856e-02 9.356582909822463989e-02 -3.653341904282569885e-02 -2.228635400533676147e-01 9.989245980978012085e-02 1.486931294202804565e-01 2.491882145404815674e-01 -1.608463749289512634e-02 2.440553456544876099e-01 -2.288237446919083595e-03 -4.492617249488830566e-01 6.079601123929023743e-02 7.754045724868774414e-02 -8.209504187107086182e-02 -8.167800307273864746e-02 -4.579658433794975281e-02 3.655360937118530273e-01 -2.517716027796268463e-02 6.944116204977035522e-02 -9.027166664600372314e-02 1.605529040098190308e-01 6.771472841501235962e-02 -5.357951298356056213e-02 1.340058147907257080e-01 -2.011521719396114349e-02 7.448767870664596558e-02 -8.998493105173110962e-02 -7.109828293323516846e-02 9.096716530621051788e-03 -3.102955594658851624e-02 -3.697827924042940140e-03 3.136901929974555969e-02 -4.705358445644378662e-01 4.706489853560924530e-03 6.129061803221702576e-03 8.149235695600509644e-02 -3.338307514786720276e-02 2.700358629226684570e-01 -1.518436521291732788e-01 -2.362955547869205475e-02 2.824084833264350891e-02 8.771058171987533569e-02 -2.049233913421630859e-01 -1.496401429176330566e-01 3.836743906140327454e-02 -7.372768223285675049e-02 -2.440271824598312378e-01 -4.158794507384300232e-02 -9.391007572412490845e-02 -2.460646331310272217e-01 -1.999537646770477295e-01 -3.649809164926409721e-03 4.572897776961326599e-02 -1.106753423810005188e-01 4.008243605494499207e-02 3.860813379287719727e-02 7.506130635738372803e-02 -3.234733268618583679e-02 -1.627240143716335297e-02 6.560747046023607254e-03 1.058432012796401978e-01 4.790520295500755310e-02 -2.008482515811920166e-01
-1.818901486694812775e-02 1.107145696878433228e-01 -4.114439338445663452e-02 2.182985097169876099e-01 -6.339836400002241135e-03 -2.323082983493804932e-01 -8.838734775781631470e-02 6.325338035821914673e-02 -1.381746679544448853e-01 1.159308105707168579e-01 -2.484236843883991241e-03 2.018580138683319092e-01 3.014441393315792084e-02 -1.185219734907150269e-01 -3.015043735504150391e-01 1.235519349575042725e-01 -3.170377016067504883e-02 -9.043431282043457031e-02 1.286769658327102661e-01 2.195038646459579468e-01 1.195015478879213333e-02 1.559875309467315674e-01 1.498905848711729050e-02 2.865333668887615204e-02 -7.695957273244857788e-02 -9.797815978527069092e-02 1.570207066833972931e-02 2.870915690436959267e-03 -1.514739543199539185e-01 -1.461160480976104736e-01 2.355831302702426910e-02 1.663371734321117401e-02 -6.654969602823257446e-02 5.036091431975364685e-02 -1.180122606456279755e-02 4.090252891182899475e-02 -4.615776613354682922e-02 -6.770097464323043823e-02 -7.456159591674804688e-02 -1.692947186529636383e-02 2.639342099428176880e-02 -2.264840304851531982e-01 1.807027459144592285e-01 -3.652029437944293022e-03 1.671029180288314819e-01 -5.296639725565910339e-02 7.156321406364440918e-02 -1.980747580528259277e-01 -1.804157197475433350e-01 -2.204974591732025146e-01 -2.195452526211738586e-02 -6.122707203030586243e-02 5.824303999543190002e-02 4.614486545324325562e-02 -5.189279094338417053e-02 -5.712206289172172546e-02 -3.948367759585380554e-02 -5.590990930795669556e-02 -1.898610144853591919e-01 1.806675642728805542e-02 1.277357935905456543e-01 2.068907618522644043e-01 2.666015028953552246e-01 5.178494378924369812e-02 -4.512845352292060852e-02 2.300011664628982544e-01 -4.343846440315246582e-02 -3.257698938250541687e-02 9.120310842990875244e-02 8.539348095655441284e-02 -1.156494673341512680e-02 3.412470519542694092e-01 -1.211893111467361450e-01 -2.371557243168354034e-02 2.269226498901844025e-02 1.195726394653320312e-01 -1.385947763919830322e-01 1.310464926064014435e-02 6.978725641965866089e-02 6.168820708990097046e-02 -2.221416980028152466e-01 -1.315528899431228638e-01 1.647249213419854641e-03 1.139711514115333557e-01 4.575736820697784424e-02 4.317813552916049957e-03 -6.104754656553268433e-02 -1.252268701791763306e-01 -1.791160181164741516e-02 5.885799974203109741e-02 -4.043033346533775330e-02 1.616563200950622559e-01 -1.466060895472764969e-02 5.216142628341913223e-03 3.289491683244705200e-02 1.499627828598022461e-01 -3.620287403464317322e-02 5.577235296368598938e-02 -2.711060643196105957e-01 2.660331130027770996e-01 1.393043100833892822e-01 -1.056420207023620605e-01 -1.214485056698322296e-02 3.473435714840888977e-02 -3.114624880254268646e-03 1.929220929741859436e-02 1.226650997996330261e-01 1.342961788177490234e-01 -1.122604310512542725e-01 -1.905089318752288818e-01 1.074421554803848267e-01 1.730332523584365845e-02 3.799094632267951965e-02 -5.089392652735114098e-04 -1.049362570047378540e-01 6.455691903829574585e-02 -1.621105521917343140e-02 7.030928730964660645e-01 -2.121970616281032562e-02 -7.319148629903793335e-02 -5.321007687598466873e-03 1.273687332868576050e-01 2.525682933628559113e-02 -5.279039591550827026e-02 -7.262048870325088501e-02 -1.127089932560920715e-02 -2.154096066951751709e-01 -4.997141286730766296e-02 2.606314979493618011e-02 6.646757014095783234e-03 4.175341129302978516e-02 -5.432929843664169312e-03 -2.374016039539128542e-04 7.155757397413253784e-02 -7.639469951391220093e-02 -3.534515574574470520e-02 -6.988941133022308350e-02 -1.981906443834304810e-01 1.281051896512508392e-02 -5.664930865168571472e-02 -6.143010780215263367e-02 -2.085295319557189941e-01 -2.036146521568298340e-01 2.543230652809143066e-01 -7.071601692587137222e-03 3.155426681041717529e-02 -3.438324900344014168e-03 -1.553788501769304276e-02 -5.574316252022981644e-03 -2.355973981320858002e-02 -2.705864422023296356e-02 -1.354180648922920227e-02 -1.153952442109584808e-02 1.734782904386520386e-01 -1.344217453151941299e-03 -2.276979945600032806e-02 2.802766859531402588e-03 -1.295143067836761475e-01 2.142122946679592133e-02 2.413306385278701782e-02 1.610007733106613159e-01 2.505873329937458038e-02 2.808333840221166611e-03 9.796177037060260773e-03 -1.116457395255565643e-02 1.249987855553627014e-01 8.767358958721160889e-02 -6.992107629776000977e-02 4.040401894599199295e-03 -1.689192205667495728e-01 -8.682740479707717896e-02 2.183806896209716797e-02 -2.450446225702762604e-02 6.430760025978088379e-02
-8.207365125417709351e-02 -6.898423656821250916e-03 1.726048067212104797e-02 4.830826539546251297e-03 -5.767406523227691650e-02 1.190087646245956421e-01 6.123507395386695862e-03 4.802914708852767944e-02 5.323312361724674702e-04 -2.894814126193523407e-02 -9.028780274093151093e-03 -1.048871800303459167e-01 -3.369361907243728638e-02 3.899453906342387199e-03 9.031707048416137695e-02 -1.484184861183166504e-01 4.199449717998504639e-02 -5.875438824295997620e-02 1.387815456837415695e-02 -1.070332005620002747e-01 2.705952152609825134e-02 -9.726110845804214478e-03 -6.821397226303815842e-03 8.005794286727905273e-01 2.968535944819450378e-02 -3.406094759702682495e-02 -1.522549092769622803e-01 -3.102219104766845703e-02 -2.695985883474349976e-02 9.496698528528213501e-02 6.930013746023178101e-02 -3.859578073024749756e-02 -1.179474592208862305e-01 1.723099499940872192e-02 1.826740205287933350e-01 2.641109749674797058e-02 1.623369455337524414e-01 1.387117058038711548e-02 1.753466948866844177e-02 -4.210446029901504517e-02 -1.725534821162000299e-04 1.365938186645507812e-01 -2.459520287811756134e-02 -2.700776979327201843e-02 1.931889504194259644e-01 -9.497580677270889282e-02 -9.568118304014205933e-02 4.770517349243164062e-02 9.153816790785640478e-05 7.579722404479980469e-01 1.095247119665145874e-01 -6.848395615816116333e-02 6.631256546825170517e-03 2.237011678516864777e-02 -8.181897550821304321e-02 1.495208293199539185e-01 1.157690510153770447e-01 5.885366816073656082e-03 7.431934028863906860e-02 -1.111197751015424728e-02 5.911483988165855408e-02 3.725319169461727142e-03 -6.773530691862106323e-02 -7.366211712360382080e-02 2.513821423053741455e-01 -1.229551807045936584e-01 -3.641421347856521606e-02 3.093653917312622070e-02 -3.407705202698707581e-02 -1.296842284500598907e-02 7.624968886375427246e-02 -2.896502986550331116e-02 1.193518638610839844e-01 -4.735949635505676270e-02 4.997768253087997437e-02 -3.226767480373382568e-02 3.116986155509948730e-02 -3.111779503524303436e-02 -2.769590914249420166e-02 3.414285182952880859e-02 1.766565591096878052e-01 -1.590456068515777588e-02 -1.659479439258575439e-01 1.188341081142425537e-01 -5.421424284577369690e-03 3.008381463587284088e-02 3.432462736964225769e-02 -4.907866008579730988e-03 -1.574187772348523140e-03 3.400320932269096375e-02 2.080731652677059174e-02 1.155707314610481262e-01 4.563662782311439514e-02 2.765916846692562103e-02 -4.923485964536666870e-02 3.813387453556060791e-02 -4.180561751127243042e-02 1.461136341094970703e-02 6.954110413789749146e-02 4.156553000211715698e-02 7.052423059940338135e-02 1.095030456781387329e-01 9.095283597707748413e-02 1.147268339991569519e-01 -3.876291587948799133e-02 4.507335647940635681e-02 -2.006682753562927246e-01 -6.934516131877899170e-02 5.582011118531227112e-02 1.155542768537998199e-02 1.708227768540382385e-02 5.201167613267898560e-02 7.944644242525100708e-02 8.377959951758384705e-03 5.894809961318969727e-02 4.020431637763977051e-02 -1.098208278417587280e-01 2.285135686397552490e-01 1.253893226385116577e-02 -1.029242947697639465e-01 -4.302869737148284912e-02 -6.651552766561508179e-02 4.160406440496444702e-02 6.951921433210372925e-02 9.238441288471221924e-02 -1.363011449575424194e-01 -2.912745252251625061e-02 7.719489280134439468e-03 4.597486555576324463e-02 2.437607012689113617e-02 -1.559123545885086060e-01 -4.895280674099922180e-02 -1.829819194972515106e-02 9.800508851185441017e-04 -1.930269226431846619e-02 3.835017979145050049e-01 -3.994507342576980591e-02 -5.295517668128013611e-02 7.865683175623416901e-03 -1.286111325025558472e-01 -1.390141546726226807e-01 -1.936209201812744141e-02 1.368162781000137329e-01 -1.471755951642990112e-01 -3.467668592929840088e-02 4.002856439910829067e-04 -8.200316876173019409e-02 -3.801675885915756226e-02 3.785892948508262634e-02 4.118499904870986938e-02 -2.058577165007591248e-02 2.119767293334007263e-02 -1.238127704709768295e-02 -9.180773049592971802e-02 -1.439691148698329926e-02 -2.939840033650398254e-02 1.279421746730804443e-01 -2.355941385030746460e-02 5.985712260007858276e-02 8.165624737739562988e-02 6.044775247573852539e-02 3.878635540604591370e-02 6.746114045381546021e-02 3.044605068862438202e-02 4.002087371191009879e-05 -2.212391607463359833e-02 1.430496573448181152e-02 2.210726030170917511e-02 1.270616520196199417e-02 4.441185668110847473e-02 3.550750389695167542e-02 -4.880987852811813354e-02 -1.434622984379529953e-02 -1.286816317588090897e-02
-4.466190934181213379e-03 -1.436136756092309952e-02 -1.168118044734001160e-02 -2.227378636598587036e-02 5.141342431306838989e-02 1.221868991851806641e-01 1.949240453541278839e-02 1.481992378830909729e-02 -1.200606226921081543e-01 2.031445689499378204e-02 -5.474334117025136948e-03 -4.892905801534652710e-02 1.065810583531856537e-02 1.544200815260410309e-02 -5.735520273447036743e-02 -1.967633813619613647e-01 3.874943405389785767e-02 -5.702200159430503845e-02 -4.748631641268730164e-02 1.592835597693920135e-02 7.939651608467102051e-02 -2.761534787714481354e-02 -1.300479751080274582e-02 -2.667918987572193146e-02 1.771943569183349609e-01 1.386581808328628540e-01 3.526566550135612488e-03 -1.035686396062374115e-02 6.933077238500118256e-03 5.976629257202148438e-02 2.164725214242935181e-02 2.166808582842350006e-02 6.044889986515045166e-02 -4.047971963882446289e-02 1.551241576671600342e-01 2.211662083864212036e-01 3.904670849442481995e-02 -6.133256852626800537e-02 1.415553875267505646e-02 -2.931910008192062378e-02 -1.229174882173538208e-01 2.054750025272369385e-01 2.617166191339492798e-02 -1.929600164294242859e-02 1.551814377307891846e-02 1.047527268528938293e-01 -1.233856193721294403e-02 6.496673915535211563e-03 1.975512132048606873e-02 1.075757518410682678e-01 5.146052222698926926e-03 -3.797250986099243164e-02 7.351172715425491333e-02 7.046408951282501221e-02 -5.290256440639495850e-02 1.095205023884773254e-01 2.219695830717682838e-03 3.197332099080085754e-02 5.197826027870178223e-02 3.117942949756979942e-03 -1.439696550369262695e-01 -3.264060243964195251e-02 -1.241149827837944031e-01 -4.439979791641235352e-02 5.622468888759613037e-03 -2.028190195560455322e-01 -2.387565374374389648e-02 7.809094153344631195e-03 -6.950044035911560059e-01 -4.851793404668569565e-03 2.165274508297443390e-02 1.269231885671615601e-01 -7.565652951598167419e-03 -1.553127355873584747e-02 6.949281692504882812e-02 -5.293986573815345764e-02 1.674731262028217316e-02 -8.270434336736798286e-04 2.003232389688491821e-01 -4.650980979204177856e-02 9.924672544002532959e-02 8.192443847656250000e-02 -2.893099747598171234e-02 1.540490426123142242e-02 -1.717300154268741608e-02 -6.244149524718523026e-03 1.160121336579322815e-02 -1.621802709996700287e-02 -7.784336060285568237e-02 -2.441046759486198425e-03 -2.198733761906623840e-02 4.448721185326576233e-02 4.691210016608238220e-02 1.566294953227043152e-02 -8.028139173984527588e-02 -8.375404775142669678e-02 -1.157924234867095947e-01 1.042838916182518005e-01 1.108338162302970886e-01 -1.690660975873470306e-02 -2.933377586305141449e-02 -7.756074517965316772e-02 -9.855438470840454102e-01 1.393164508044719696e-02 -2.292695082724094391e-02 -1.217345148324966431e-02 9.364335983991622925e-02 -1.129173561930656433e-01 -6.068411096930503845e-02 1.456318330019712448e-02 -8.361015468835830688e-02 -6.402666121721267700e-02 3.988678008317947388e-02 1.061255298554897308e-02 -2.044915966689586639e-02 2.179813943803310394e-02 -5.116702616214752197e-02 -1.845815330743789673e-01 5.043315887451171875e-02 1.259125117212533951e-02 -5.455613508820533752e-02 -1.022241935133934021e-01 -2.261510491371154785e-02 -1.820726692676544189e-02 -9.522285312414169312e-03 -1.433140039443969727e-01 -7.831394672393798828e-02 7.683012634515762329e-02 6.261236034333705902e-03 2.404562570154666901e-02 2.180628478527069092e-01 -8.681429550051689148e-03 -9.563795477151870728e-02 4.477515444159507751e-02 -1.354482490569353104e-02 -1.305554062128067017e-02 2.248869091272354126e-01 7.596197538077831268e-03 -1.871177405118942261e-01 7.667807489633560181e-02 3.056378848850727081e-02 -1.710823923349380493e-02 1.759071350097656250e-01 -2.101494520902633667e-01 8.346403390169143677e-02 -3.594643622636795044e-02 5.872604250907897949e-02 -1.907726004719734192e-02 -5.727380048483610153e-03 7.855507545173168182e-03 2.771743386983871460e-02 1.195867173373699188e-02 -6.740181148052215576e-02 -3.691667318344116211e-02 -7.665377110242843628e-02 -4.158649221062660217e-02 3.040443547070026398e-02 1.813004352152347565e-02 -1.845066249370574951e-01 -1.836026273667812347e-02 7.093980163335800171e-02 3.558864817023277283e-02 -1.439070701599121094e-02 -1.471768736839294434e+00 1.091886609792709351e-01 -1.903383247554302216e-02 6.659282743930816650e-02 -3.143514320254325867e-02 8.338185548782348633e-01 6.894125044345855713e-02 -5.341194197535514832e-02 2.005598507821559906e-03 3.261221200227737427e-02 2.945072948932647705e-02
7.804384827613830566e-02 7.985882461071014404e-03 -8.333145640790462494e-03 -1.653139851987361908e-02 7.082562148571014404e-02 -1.277551949024200439e-01 -7.855080813169479370e-02 -6.073953211307525635e-02 1.640204489231109619e-01 -3.178651258349418640e-02 1.617520861327648163e-02 1.152386143803596497e-01 7.423892617225646973e-02 -2.602912299335002899e-02 -6.562617421150207520e-02 7.577617187052965164e-03 -4.149496182799339294e-02 8.980302512645721436e-02 -2.270484529435634613e-02 1.311356276273727417e-01 -1.512929517775774002e-02 -1.328088808804750443e-02 4.398623853921890259e-02 -8.114368319511413574e-01 -7.134667783975601196e-02 6.644883751869201660e-02 1.721307784318923950e-01 8.816687017679214478e-02 5.352463945746421814e-02 2.310264157131314278e-03 -7.035012543201446533e-02 4.765938222408294678e-02 9.493746608495712280e-02 -2.296311967074871063e-02 2.546471171081066132e-02 3.326699510216712952e-02 -2.150239348411560059e-01 7.550505455583333969e-03 -4.015739262104034424e-02 8.889128454029560089e-03 1.917756977491080761e-03 6.407994776964187622e-02 -3.566471487283706665e-02 5.443025007843971252e-02 -1.291834712028503418e-01 9.817302227020263672e-02 1.016531661152839661e-01 -4.798045381903648376e-02 -4.849880933761596680e-02 -7.165965437889099121e-01 -1.275392472743988037e-01 3.324115416035056114e-03 7.549161091446876526e-03 -4.561317618936300278e-03 6.412619352340698242e-02 -1.172416433691978455e-01 -1.941983215510845184e-02 -3.036015108227729797e-02 -2.374104037880897522e-02 -2.132724784314632416e-02 -8.555411547422409058e-02 8.225266635417938232e-02 4.660863801836967468e-02 5.077491328120231628e-02 -1.713881939649581909e-01 3.557111835107207298e-03 3.699886053800582886e-02 2.566986717283725739e-02 3.257282450795173645e-02 -2.231759950518608093e-03 -8.999451994895935059e-02 1.058361586183309555e-02 -1.750552803277969360e-01 5.303975939750671387e-02 -5.700210854411125183e-02 5.865114554762840271e-02 -2.298926562070846558e-02 6.488065421581268311e-02 8.218912035226821899e-02 -3.644816949963569641e-02 -5.676814541220664978e-02 -4.295525327324867249e-02 3.257635748013854027e-03 -1.202546507120132446e-01 2.117650583386421204e-02 5.752208828926086426e-02 -4.719583690166473389e-02 2.901026606559753418e-02 -3.681826591491699219e-02 -5.237601697444915771e-03 -4.547496512532234192e-02 -3.445455059409141541e-02 1.098735444247722626e-02 -4.613889846950769424e-03 8.576181530952453613e-02 -3.711444512009620667e-02 -2.516037970781326294e-02 -4.758280515670776367e-02 -5.081722885370254517e-02 -1.953467726707458496e-02 -2.596693858504295349e-02 -2.196510694921016693e-02 -7.548888772726058960e-02 -1.457506865262985229e-01 -3.559851273894309998e-02 1.020596697926521301e-01 1.448641121387481689e-01 1.000702828168869019e-01 -5.586406961083412170e-02 -5.329542327672243118e-03 -4.030777141451835632e-02 -3.058946225792169571e-03 -6.696947664022445679e-02 7.783308625221252441e-02 -2.626346424221992493e-02 -4.128011409193277359e-03 6.570265442132949829e-02 -2.445632368326187134e-01 -2.310976944863796234e-02 8.177397400140762329e-02 -2.554093301296234131e-02 4.015312343835830688e-02 -4.947204142808914185e-02 -8.977442979812622070e-02 -1.059557199478149414e-01 8.949546515941619873e-02 3.272149711847305298e-02 -2.612787671387195587e-02 -6.930398195981979370e-02 -1.481585949659347534e-01 1.376961916685104370e-01 8.367939293384552002e-02 4.353086650371551514e-02 -2.341521903872489929e-02 2.107603475451469421e-02 -3.854857087135314941e-01 -7.081999629735946655e-02 -3.364028176292777061e-03 -5.408636294305324554e-03 9.372521936893463135e-02 1.137386932969093323e-01 4.446729645133018494e-02 -1.479490101337432861e-01 6.176783517003059387e-02 -4.735725373029708862e-02 1.234011165797710419e-02 4.572277143597602844e-02 3.125412389636039734e-02 -7.417590171098709106e-02 -6.392283737659454346e-02 6.000113207846879959e-03 -4.307858180254697800e-03 1.587169058620929718e-02 3.346908465027809143e-02 -1.480188518762588501e-01 2.076953649520874023e-02 7.822483777999877930e-03 -4.795343428850173950e-02 -4.610276222229003906e-02 -4.770670831203460693e-02 -1.355081610381603241e-02 4.672934859991073608e-02 -4.530316218733787537e-02 -2.079138346016407013e-02 1.042464897036552429e-01 4.217176884412765503e-02 -3.733034804463386536e-02 1.565583422780036926e-02 3.713392186909914017e-03 -2.767939295154064894e-04 -1.753776893019676208e-02 8.901607245206832886e-02 -3.616024274379014969e-03 2.071583271026611328e-02
-3.661425411701202393e-02 4.441257938742637634e-02 -5.862719938158988953e-02 1.569773443043231964e-02 1.081812381744384766e-02 3.761623799800872803e-02 -2.166085131466388702e-02 -5.725752562284469604e-02 3.299708664417266846e-01 1.619491577148437500e+00 3.018055483698844910e-02 -3.172531351447105408e-02 -2.849901653826236725e-02 7.285667955875396729e-02 3.950935229659080505e-02 -3.375003039836883545e-01 6.362094730138778687e-02 1.208493590354919434e+00 2.065755613148212433e-02 8.243216574192047119e-02 -6.300322711467742920e-02 -2.518117986619472504e-02 1.655887579545378685e-03 -9.088697284460067749e-02 -8.809565752744674683e-02 -1.272916980087757111e-02 -2.822637557983398438e-02 3.454155055806040764e-03 9.298514574766159058e-02 -3.957964014261960983e-03 4.695901647210121155e-02 4.232669714838266373e-03 -2.274041175842285156e-01 6.648195534944534302e-02 6.211425736546516418e-02 2.409121245145797729e-01 -4.131937772035598755e-02 -7.921316474676132202e-02 8.321196585893630981e-02 3.179766703397035599e-03 -2.478144876658916473e-02 3.492730855941772461e-01 3.158218413591384888e-02 -3.775071725249290466e-02 -5.113478377461433411e-02 -8.735264651477336884e-03 -7.760976254940032959e-02 9.848649799823760986e-02 -5.886847898364067078e-02 -1.239948421716690063e-01 3.419912233948707581e-02 -9.164645522832870483e-02 -1.419957876205444336e-01 -1.358129270374774933e-02 1.419581566005945206e-02 3.390470519661903381e-02 3.363349009305238724e-03 -4.282380640506744385e-02 3.016287088394165039e-01 6.883262842893600464e-02 -4.505476728081703186e-02 1.517707556486129761e-01 -5.917830392718315125e-02 -3.234109655022621155e-02 -4.447757825255393982e-02 -1.655039787292480469e-01 -5.657837912440299988e-02 -1.572481840848922729e-01 -4.151195287704467773e-02 3.943432122468948364e-02 8.028180152177810669e-02 -6.814594566822052002e-02 -7.855929434299468994e-02 -7.602999918162822723e-03 4.854519385844469070e-03 -1.008599847555160522e-01 3.053458966314792633e-02 -8.683244884014129639e-02 -2.248127385973930359e-02 -1.803578808903694153e-02 -3.271878659725189209e-01 -6.480442732572555542e-02 -1.589165776968002319e-01 7.784809917211532593e-02 -6.633846461772918701e-02 8.879299275577068329e-03 -1.860366761684417725e-01 -3.839968889951705933e-02 -1.120557859539985657e-01 7.869371026754379272e-02 -1.952528022229671478e-02 9.538800269365310669e-02 2.822574973106384277e-02 1.292641162872314453e-01 1.623107236810028553e-03 5.085512623190879822e-02 -6.415559351444244385e-02 2.959037665277719498e-03 4.659453406929969788e-03 -4.075218737125396729e-02 -9.616977535188198090e-03 -5.551986768841743469e-02 4.985156655311584473e-02 8.177037537097930908e-02 4.840205237269401550e-02 6.330499891191720963e-03 -5.890892073512077332e-02 4.561911523342132568e-02 -6.353444606065750122e-02 -1.279908269643783569e-01 -6.551629863679409027e-03 -2.561932615935802460e-02 3.980450332164764404e-02 -9.678325057029724121e-02 5.980520509183406830e-03 5.591148976236581802e-03 -4.953489825129508972e-02 -1.165485084056854248e-01 2.657087147235870361e-02 1.374620944261550903e-02 -1.785001903772354126e-02 -1.731287986040115356e-01 8.141815662384033203e-02 1.918379366397857666e-01 -2.100648730993270874e-02 -4.878446087241172791e-02 -1.058173403143882751e-01 2.266495674848556519e-01 -2.183293225243687630e-03 1.808893978595733643e-01 -7.203062623739242554e-02 -8.854285627603530884e-02 8.324014954268932343e-03 1.183130964636802673e-02 1.843209750950336456e-02 -5.482648685574531555e-02 3.340592384338378906e-01 -1.191026195883750916e-01 -1.447040773928165436e-02 -4.273785278201103210e-02 -9.956929087638854980e-02 2.974416827782988548e-03 2.925525307655334473e-01 -3.072715699672698975e-01 2.893362641334533691e-01 5.384270846843719482e-02 -6.605971138924360275e-03 -7.208874076604843140e-02 -1.099990084767341614e-01 8.324863389134407043e-03 4.828600678592920303e-03 3.032525070011615753e-02 -3.191861137747764587e-02 -1.918675452470779419e-01 -2.359437048435211182e-01 2.343594841659069061e-02 -2.561933994293212891e-01 4.806745424866676331e-02 3.347559273242950439e-02 3.316599875688552856e-03 2.666105628013610840e-01 2.386752702295780182e-02 6.731647253036499023e-02 3.881428623571991920e-03 1.801520138978958130e-01 -1.341547071933746338e-01 -3.226480633020401001e-02 -2.832977660000324249e-02 6.085329689085483551e-03 -9.500089101493358612e-03 3.059132583439350128e-02 -1.019788719713687897e-02 -2.578047849237918854e-02 -8.647537231445312500e-02
-1.063060238957405090e-01 -8.247225731611251831e-02 -2.311358414590358734e-02 -6.775383651256561279e-02 -8.801189810037612915e-02 1.049342900514602661e-01 9.479891508817672729e-02 1.165944561362266541e-01 -1.445929408073425293e-01 -1.779938302934169769e-02 7.688268274068832397e-02 -9.085275977849960327e-02 -1.726773977279663086e-01 1.109706088900566101e-01 3.013339824974536896e-03 4.580394029617309570e-01 1.492178291082382202e-01 -4.009254742413759232e-03 2.617187099531292915e-03 -5.825871229171752930e-02 -2.928779227659106255e-03 -9.249675273895263672e-02 -7.039290503598749638e-04 2.127325087785720825e-01 2.213456630706787109e-01 1.217047646641731262e-01 -3.592510521411895752e-02 -6.181370094418525696e-02 3.914093971252441406e-02 1.423085946589708328e-02 1.118173003196716309e-01 -4.133397713303565979e-02 6.432940065860748291e-02 -4.416805505752563477e-02 -5.307449698448181152e-01 -5.004351735115051270e-01 1.919373869895935059e-01 3.228085488080978394e-02 -2.206458244472742081e-03 1.548341512680053711e-01 2.623712085187435150e-02 -6.332230567932128906e-01 -9.245938621461391449e-03 -1.379326283931732178e-01 1.323081851005554199e-01 9.950575977563858032e-02 -6.643550097942352295e-02 5.348848924040794373e-02 1.578107923269271851e-01 1.440533343702554703e-02 5.546902865171432495e-02 -1.886392384767532349e-01 -1.224755030125379562e-02 -1.955876313149929047e-02 -3.933047130703926086e-02 1.329890191555023193e-01 5.478895083069801331e-02 -1.633048430085182190e-02 -5.743567347526550293e-01 -1.361583918333053589e-02 4.006314873695373535e-01 -1.004910990595817566e-01 -7.278870046138763428e-02 -3.152880445122718811e-02 1.568871140480041504e-01 5.804513096809387207e-01 -1.265179663896560669e-01 -3.807317912578582764e-01 2.683956548571586609e-02 -3.137388825416564941e-02 1.044036448001861572e-01 -1.662394776940345764e-02 5.607469007372856140e-02 1.247774250805377960e-02 -1.251535117626190186e-01 -7.734243571758270264e-02 2.569099888205528259e-02 3.510776907205581665e-03 2.230463624000549316e-01 -2.742524258792400360e-02 1.014697775244712830e-01 -4.734108150005340576e-01 5.990142822265625000e-01 2.818207442760467529e-01 -4.523178562521934509e-02 -4.089912399649620056e-02 -6.910888850688934326e-02 -2.809260040521621704e-02 -4.321622550487518311e-01 -2.183758467435836792e-02 -5.001198127865791321e-02 2.958998084068298340e-01 1.133734919130802155e-02 2.133121043443679810e-01 -1.497728824615478516e-01 7.203718996606767178e-04 -2.725367248058319092e-01 -2.791202394291758537e-03 1.807323843240737915e-02 9.295037388801574707e-02 -4.711580574512481689e-01 1.724027097225189209e-02 -1.243472099304199219e-02 8.261132240295410156e-02 -3.771152719855308533e-02 -1.610101200640201569e-02 4.904489219188690186e-02 -6.179498042911291122e-03 2.509468980133533478e-02 -4.023264348506927490e-01 -5.490521714091300964e-02 -3.866558149456977844e-02 -2.674545347690582275e-02 7.165206968784332275e-02 -3.913704678416252136e-02 5.844076164066791534e-03 3.638825565576553345e-02 3.173319995403289795e-01 3.644020063802599907e-03 -1.473857313394546509e-01 -7.671944797039031982e-02 5.403188467025756836e-01 9.577144682407379150e-02 8.757664822041988373e-03 8.118797838687896729e-02 2.822638675570487976e-02 5.103616118431091309e-01 -6.218633055686950684e-01 -5.260763689875602722e-02 4.170899391174316406e-01 -2.003363333642482758e-02 9.193794685415923595e-04 -7.526442408561706543e-02 -5.218899995088577271e-02 -4.631733894348144531e-02 1.960491538047790527e-01 -4.093152284622192383e-01 -3.561549782752990723e-01 2.034393697977066040e-02 5.292117223143577576e-02 -1.781598180532455444e-01 8.973015472292900085e-03 -4.878542423248291016e-01 5.477693676948547363e-01 -1.787552684545516968e-01 3.880873695015907288e-02 3.348316252231597900e-02 -9.537068009376525879e-02 -2.763122022151947021e-01 2.791024558246135712e-02 3.841550275683403015e-02 1.825546496547758579e-03 3.961516544222831726e-02 5.824926495552062988e-01 9.626848250627517700e-02 -5.112468078732490540e-02 -1.148310303688049316e-01 9.778668731451034546e-02 8.753428235650062561e-03 -6.326573900878429413e-03 1.640131622552871704e-01 1.475633382797241211e-01 1.744257472455501556e-02 3.550791647285223007e-03 -4.314352571964263916e-01 -2.293851077556610107e-01 -5.427175015211105347e-02 -3.028738684952259064e-02 4.209717269986867905e-03 1.278429199010133743e-02 1.235292628407478333e-01 -3.151331841945648193e-02 -1.838606223464012146e-02 -1.415650248527526855e-01
7.607504725456237793e-02 -9.841110557317733765e-02 3.689476847648620605e-02 7.929529063403606415e-03 -4.607767984271049500e-02 -8.852829784154891968e-02 -1.288677006959915161e-02 -3.272200748324394226e-02 -3.251177072525024414e-01 -1.632158756256103516e+00 -3.848900645971298218e-02 3.622854501008987427e-02 -6.840100139379501343e-02 -7.277187705039978027e-02 -8.140717446804046631e-02 5.373568087816238403e-02 -5.200164020061492920e-02 -1.443357110023498535e+00 -6.487633567303419113e-03 -9.718638658523559570e-02 5.231090635061264038e-02 -3.349529579281806946e-02 4.268421232700347900e-02 1.213209778070449829e-01 6.842193007469177246e-02 -4.695600271224975586e-02 -1.906379871070384979e-02 3.380427360534667969e-01 -4.570274055004119873e-02 -6.414856016635894775e-02 -3.470428660511970520e-02 -3.338267793878912926e-03 2.420594841241836548e-01 -4.630673676729202271e-02 -1.630796939134597778e-01 4.335829988121986389e-02 9.967488003894686699e-04 5.640682205557823181e-02 -1.005512103438377380e-01 -8.067983202636241913e-03 3.670635074377059937e-02 -3.835863620042800903e-02 -1.706806570291519165e-02 3.458085656166076660e-02 4.264004155993461609e-02 -1.116723380982875824e-02 3.233253583312034607e-02 -1.330435574054718018e-01 -9.299671277403831482e-03 6.070503965020179749e-02 -5.031591281294822693e-02 6.135758012533187866e-02 -8.870596997439861298e-03 3.441370651125907898e-02 -3.113101609051227570e-02 4.192255903035402298e-03 7.315750699490308762e-03 -2.085149846971035004e-02 -2.808615565299987793e-01 -1.482499390840530396e-02 2.198760956525802612e-01 -1.505825072526931763e-01 6.455963104963302612e-02 7.900417596101760864e-02 8.612263202667236328e-02 2.122874259948730469e-01 1.712328381836414337e-02 1.134549230337142944e-01 1.970392465591430664e-02 -4.100513830780982971e-02 -1.754371970891952515e-01 5.389030557125806808e-03 7.939407974481582642e-02 -3.056771354749798775e-03 -8.741146884858608246e-03 1.944530010223388672e-02 4.447122290730476379e-02 8.883759379386901855e-02 4.351574182510375977e-02 1.512760948389768600e-02 2.682996988296508789e-01 3.862490504980087280e-02 -6.840476393699645996e-02 -8.006788790225982666e-02 3.266147524118423462e-02 -7.842879742383956909e-03 -3.255977928638458252e-01 -1.963037066161632538e-02 4.338291659951210022e-02 -8.920872211456298828e-02 7.739075226709246635e-04 -8.059983700513839722e-02 -3.674842789769172668e-02 -1.178963258862495422e-01 -5.673884600400924683e-02 -6.565046310424804688e-02 7.593285292387008667e-02 -3.499051183462142944e-02 8.137694746255874634e-02 -1.245511770248413086e-01 9.811811149120330811e-02 6.107993051409721375e-02 -2.239364944398403168e-02 -3.038223646581172943e-02 -8.561821654438972473e-03 -2.015396356582641602e-01 2.721273154020309448e-02 -4.952082782983779907e-02 6.994640082120895386e-02 8.548489958047866821e-02 -1.482102647423744202e-02 4.868670180439949036e-02 -1.753227114677429199e-01 8.303493261337280273e-02 3.929699212312698364e-02 9.257764555513858795e-03 5.334637314081192017e-02 2.502221055328845978e-02 -2.049511484801769257e-02 -5.504824593663215637e-02 5.810033157467842102e-02 1.537327617406845093e-01 -1.686258986592292786e-02 -1.481245160102844238e-01 3.135841712355613708e-02 2.880401536822319031e-02 3.801239281892776489e-02 -2.084453254938125610e-01 2.153490483760833740e-02 2.258657962083816528e-01 8.985547721385955811e-02 4.261310771107673645e-02 -3.890478610992431641e-02 4.871000722050666809e-02 -2.519585192203521729e-03 2.530465601012110710e-03 -5.981358289718627930e-01 -1.494280397891998291e-01 2.407260052859783173e-02 7.447860389947891235e-02 5.888232588768005371e-02 1.104063354432582855e-02 -1.120770871639251709e-01 8.253354579210281372e-02 -2.567670047283172607e-01 -3.673668950796127319e-02 3.460233658552169800e-02 6.032697483897209167e-02 4.417667165398597717e-02 4.777397215366363525e-02 -1.446803449653089046e-03 4.293268546462059021e-02 3.239212557673454285e-02 1.451069116592407227e-01 2.106196135282516479e-01 7.334525883197784424e-02 2.053825408220291138e-01 4.229744523763656616e-02 1.007821876555681229e-02 -1.512990240007638931e-02 -8.564388751983642578e-02 -4.875832423567771912e-02 -1.547675300389528275e-02 6.015230435878038406e-03 1.073347553610801697e-01 -7.494456321001052856e-02 -3.499523177742958069e-02 6.386138033121824265e-03 -1.235110592097043991e-02 -3.781060129404067993e-02 -6.199588067829608917e-03 1.902602799236774445e-02 2.801982313394546509e-02 7.643301039934158325e-02
-6.277736742049455643e-03 -8.886609226465225220e-02 -2.172673493623733521e-02 8.719407767057418823e-02 3.458835929632186890e-02 -2.199962884187698364e-01 -6.048015132546424866e-02 -2.893987484276294708e-02 -9.566155821084976196e-02 -9.941923618316650391e-02 3.986511006951332092e-02 3.111302256584167480e-01 -9.717295318841934204e-02 -5.985044315457344055e-02 -2.261510044336318970e-01 -2.489762902259826660e-01 6.841502338647842407e-02 -1.585356593132019043e-01 4.120490700006484985e-02 3.229842483997344971e-01 2.974065206944942474e-02 6.142429634928703308e-02 -3.767003305256366730e-03 -4.572757482528686523e-01 1.729179546236991882e-02 -1.969265379011631012e-02 -1.288802474737167358e-01 -2.535392064601182938e-03 7.741274312138557434e-03 -5.548392236232757568e-02 3.585563972592353821e-02 -3.644832968711853027e-02 1.029774025082588196e-01 -2.575970254838466644e-03 2.524283230304718018e-01 2.854620814323425293e-01 5.669914186000823975e-02 -7.984085381031036377e-02 9.253907203674316406e-02 -8.310507982969284058e-02 -1.591359078884124756e-02 2.669303715229034424e-01 8.540958166122436523e-02 -7.209274917840957642e-03 9.051887318491935730e-03 2.877102047204971313e-02 -1.150158513337373734e-02 -1.718073487281799316e-01 -1.445827782154083252e-01 -2.302741408348083496e-01 1.823626272380352020e-02 1.057858169078826904e-01 -5.208434537053108215e-02 -1.059015933424234390e-02 9.481180459260940552e-02 -1.225237920880317688e-01 -1.938497461378574371e-02 -6.789179146289825439e-02 4.339623451232910156e-01 -1.239047292619943619e-02 -3.421158194541931152e-01 4.637146368622779846e-02 7.904791086912155151e-02 9.761801920831203461e-03 -3.057375848293304443e-01 -3.332291245460510254e-01 -3.036516532301902771e-02 -8.010345697402954102e-02 -2.441056072711944580e-03 6.365965306758880615e-02 4.651395231485366821e-02 1.116388812661170959e-01 -1.179397702217102051e-01 -7.243201881647109985e-02 -2.882209420204162598e-02 2.421686425805091858e-02 -7.141919806599617004e-03 -7.682048529386520386e-02 -9.769074618816375732e-02 7.322709262371063232e-02 1.143419444561004639e-01 3.043568693101406097e-02 -2.140651047229766846e-01 6.702648010104894638e-03 -5.353460460901260376e-02 5.000938195735216141e-03 5.469232052564620972e-02 -9.205474704504013062e-02 -4.136636853218078613e-03 6.511805206537246704e-02 5.452247336506843567e-02 -6.204440258443355560e-03 -7.747582159936428070e-03 -7.226201146841049194e-02 1.062279343605041504e-01 3.175387158989906311e-02 6.290730088949203491e-02 9.966334700584411621e-02 -2.544644474983215332e-01 3.303275629878044128e-02 1.678451597690582275e-01 7.424124330282211304e-02 -4.197785630822181702e-02 -3.874044865369796753e-02 -1.586850499734282494e-03 1.547888219356536865e-01 2.784887328743934631e-02 1.150894984602928162e-01 -4.853652790188789368e-02 -5.260066688060760498e-02 7.144794613122940063e-02 3.280441835522651672e-02 -9.870707057416439056e-03 1.333494554273784161e-03 -5.534657463431358337e-02 2.681874670088291168e-02 4.366903379559516907e-02 7.711302638053894043e-01 4.118194803595542908e-02 4.696193337440490723e-02 2.309556864202022552e-02 -2.159012556076049805e-01 5.431209877133369446e-02 1.378861162811517715e-02 3.498604055494070053e-03 2.968493849039077759e-03 -1.455579847097396851e-01 1.529092639684677124e-01 5.029847100377082825e-02 9.088858962059020996e-02 -2.085250429809093475e-02 4.050220549106597900e-02 3.099988400936126709e-02 4.738343134522438049e-02 -8.229568600654602051e-02 2.611272595822811127e-02 2.160776704549789429e-01 -9.837250225245952606e-03 9.342635166831314564e-04 4.415890574455261230e-02 -8.640986680984497070e-02 -3.893322870135307312e-02 4.066022336483001709e-01 -3.001366853713989258e-01 -3.552475199103355408e-02 5.112807452678680420e-02 -4.520067572593688965e-02 -2.405157871544361115e-02 -6.653528660535812378e-02 5.202633142471313477e-02 6.890417635440826416e-02 -4.862721252720803022e-04 1.439459994435310364e-02 -1.493673920631408691e-01 -5.869467183947563171e-02 1.857749186456203461e-02 5.478453636169433594e-02 -8.085059002041816711e-03 6.719025224447250366e-02 -1.678033918142318726e-02 -1.352337300777435303e-01 -7.212024182081222534e-02 3.990826383233070374e-02 -1.968161016702651978e-02 2.844564616680145264e-01 -2.427864237688481808e-04 6.323758512735366821e-02 -5.012792348861694336e-02 2.579961670562624931e-03 -9.992168098688125610e-02 -5.413508415222167969e-02 -3.206027671694755554e-02 -9.823895990848541260e-03 2.788771502673625946e-02
2.632220983505249023e-01 -2.097705006599426270e-01 -1.315122246742248535e-01 9.858654439449310303e-02 4.727542400360107422e-01 2.918922007083892822e-01 8.258255571126937866e-02 7.455018162727355957e-02 -1.110105589032173157e-01 5.539905279874801636e-02 3.601664602756500244e-01 -1.474657952785491943e-01 -1.287259012460708618e-01 7.192873954772949219e-02 2.467231005430221558e-01 -4.246462881565093994e-02 -5.351223796606063843e-02 7.778915017843246460e-02 5.050275847315788269e-02 -4.591707587242126465e-01 -1.877028048038482666e-01 -1.369945518672466278e-02 -8.221231400966644287e-02 -3.767383694648742676e-01 1.170687749981880188e-01 2.843250404112040997e-04 3.177494108676910400e-01 -1.039534732699394226e-01 -3.107659518718719482e-02 -2.511303126811981201e-01 -5.078474804759025574e-02 6.870169192552566528e-02 -5.509492382407188416e-02 1.209271699190139771e-01 -9.679237008094787598e-02 -2.897965908050537109e-01 -4.688962548971176147e-02 -3.547572344541549683e-02 -8.878257125616073608e-02 8.573468029499053955e-02 -1.498692482709884644e-02 4.527580738067626953e-02 5.068661645054817200e-02 3.727550385519862175e-03 4.741796255111694336e-01 1.294992677867412567e-02 1.393759101629257202e-01 3.364611566066741943e-01 -2.721317708492279053e-01 -3.005418479442596436e-01 7.622037827968597412e-02 1.839373111724853516e-01 1.998834758996963501e-01 5.515843257308006287e-02 1.307251900434494019e-01 -2.206456959247589111e-01 3.258601762354373932e-03 -2.864612936973571777e-01 5.564505234360694885e-02 1.125495955348014832e-01 1.348614990711212158e-01 -2.564933001995086670e-01 -8.070253580808639526e-02 -1.872374862432479858e-01 -8.420981466770172119e-02 1.413022875785827637e-01 1.359294950962066650e-01 -1.772751063108444214e-01 -4.817607104778289795e-01 -2.655606269836425781e-01 -1.139956805855035782e-02 -1.700039654970169067e-01 -1.147271618247032166e-01 3.343015909194946289e-02 4.922335967421531677e-02 -3.270022571086883545e-02 8.007001131772994995e-02 3.509581461548805237e-02 -3.328529894351959229e-01 1.335224807262420654e-01 -5.306439474225044250e-02 -1.439450234174728394e-01 6.400152295827865601e-02 2.573580145835876465e-01 -1.699955314397811890e-01 1.078818887472152710e-01 1.212092339992523193e-01 -1.486278772354125977e-01 9.577534161508083344e-03 -2.389432787895202637e-01 -1.231020018458366394e-01 -1.632583700120449066e-02 -3.379909098148345947e-01 -2.806686758995056152e-01 4.018597006797790527e-01 1.279795020818710327e-01 4.714673161506652832e-01 2.005978524684906006e-01 -3.598357364535331726e-02 6.732164882123470306e-03 -8.667805045843124390e-02 -3.367758095264434814e-01 6.021815165877342224e-02 4.487383961677551270e-01 5.392645485699176788e-03 1.704448014497756958e-01 8.344656229019165039e-02 4.653562977910041809e-02 1.193662881851196289e-01 -3.002385497093200684e-01 5.796801671385765076e-02 1.831185258924961090e-02 4.378931131213903427e-03 -2.271543890237808228e-01 -5.773918330669403076e-02 4.199181124567985535e-02 -1.501650810241699219e-01 -1.616307348012924194e-01 7.315687537193298340e-01 6.226481795310974121e-01 1.345434933900833130e-01 -1.257321983575820923e-01 -3.913911432027816772e-02 2.142955064773559570e-01 9.825539775192737579e-03 5.396146178245544434e-01 1.009138450026512146e-01 3.645441681146621704e-02 8.536262810230255127e-02 1.160902082920074463e-01 -9.122202545404434204e-02 -2.233116775751113892e-01 -4.785706102848052979e-02 -1.419964283704757690e-01 -2.677967846393585205e-01 -8.870562165975570679e-02 -4.782277718186378479e-02 -3.076535165309906006e-01 -7.870059013366699219e-01 1.569627374410629272e-01 -1.370046567171812057e-02 -6.909853219985961914e-02 -1.577037870883941650e-01 -4.473728686571121216e-02 -1.072673127055168152e-01 -4.180090129375457764e-01 -6.283364892005920410e-01 -3.287686705589294434e-01 -2.085365355014801025e-01 7.307971268892288208e-02 -1.511892974376678467e-01 2.096257507801055908e-01 -2.236598432064056396e-01 -2.456769719719886780e-02 1.051531061530113220e-01 1.589524745941162109e-01 6.931837648153305054e-02 1.525663398206233978e-02 -9.735562801361083984e-01 -1.074556261301040649e-01 -2.170391753315925598e-02 -9.334928542375564575e-02 1.424587965011596680e-01 9.862443804740905762e-02 -4.284665733575820923e-02 -1.154854297637939453e-01 2.067463472485542297e-02 -2.408139705657958984e-01 -7.097550481557846069e-02 9.810202568769454956e-02 8.588889986276626587e-02 -1.445652097463607788e-01 -2.624224424362182617e-01 -4.227902591228485107e-01
2.812664769589900970e-02 2.649182220920920372e-03 -8.575709164142608643e-02 1.676595769822597504e-02 -9.436991810798645020e-02 -1.855522207915782928e-02 2.143973857164382935e-01 1.058405488729476929e-01 -3.754489868879318237e-02 -3.013447299599647522e-02 -3.346993401646614075e-02 2.773718535900115967e-02 2.470678277313709259e-02 -1.352203171700239182e-02 -2.100762352347373962e-02 -8.074675500392913818e-02 -3.664726857095956802e-03 8.436211198568344116e-02 -5.109916999936103821e-02 -7.730436976999044418e-03 -1.036250665783882141e-01 1.443186681717634201e-02 -3.010896220803260803e-02 -7.783244829624891281e-03 5.447566136717796326e-02 -2.810867503285408020e-03 -4.101308807730674744e-02 -5.388318747282028198e-02 2.427644561976194382e-03 2.085101157426834106e-01 -5.957517400383949280e-02 -1.283898353576660156e-01 9.924594312906265259e-02 -3.217075020074844360e-02 7.959333807229995728e-02 -1.742051392793655396e-01 -1.436986923217773438e-01 -5.155779048800468445e-02 -7.040673494338989258e-02 2.169977314770221710e-02 8.486638963222503662e-02 1.031225249171257019e-01 3.173633664846420288e-02 5.856667459011077881e-02 1.902814209461212158e-01 5.707350745797157288e-02 -5.868965387344360352e-02 1.524737477302551270e-02 1.249855980277061462e-01 4.731134697794914246e-02 1.153525561094284058e-01 -3.150502964854240417e-02 1.698266118764877319e-01 5.370663106441497803e-02 1.615162380039691925e-02 8.476059883832931519e-02 3.834640607237815857e-02 6.281833350658416748e-02 2.000564336776733398e-01 3.620700165629386902e-02 -2.570617571473121643e-02 3.938592597842216492e-02 -3.393861651420593262e-02 -1.114681363105773926e-01 1.232067123055458069e-02 8.441701531410217285e-02 -2.275465987622737885e-02 6.111601367592811584e-02 -3.674654662609100342e-02 -2.566488087177276611e-02 1.364155858755111694e-01 -3.106374479830265045e-02 -3.048964031040668488e-02 4.078146535903215408e-03 4.859281331300735474e-02 -5.603311210870742798e-02 1.495357304811477661e-01 -7.778362836688756943e-03 2.292223460972309113e-02 1.677519455552101135e-02 6.208400428295135498e-02 5.709418654441833496e-02 5.229194089770317078e-02 -1.359767913818359375e-01 -2.809047698974609375e-02 1.108470708131790161e-01 -1.626125723123550415e-02 1.952151767909526825e-02 -3.452935814857482910e-02 -3.660075366497039795e-02 -8.173076063394546509e-02 -6.850246340036392212e-02 -5.573160201311111450e-02 -1.143014803528785706e-01 -2.155706584453582764e-01 -2.195040695369243622e-03 -2.366207540035247803e-02 -2.739764563739299774e-02 -2.036836370825767517e-02 -1.884619146585464478e-01 -1.807427406311035156e-02 1.679791957139968872e-01 5.351560935378074646e-02 6.902556866407394409e-02 -1.234181970357894897e-01 -1.232173517346382141e-01 1.006782706826925278e-02 -2.990593574941158295e-02 2.504216320812702179e-02 8.050590008497238159e-02 -2.152127958834171295e-02 -6.079305335879325867e-02 -1.290603727102279663e-01 1.132443826645612717e-02 5.333733931183815002e-02 -8.915779739618301392e-02 -1.679173260927200317e-01 -9.486334770917892456e-02 -6.515186280012130737e-02 2.591463029384613037e-01 1.399176381528377533e-02 -3.928326964378356934e-01 3.639481961727142334e-02 -1.947602815926074982e-02 1.581115275621414185e-01 3.729248791933059692e-02 5.247916653752326965e-02 2.792715430259704590e-01 2.131923846900463104e-02 -5.330831557512283325e-02 2.777932770550251007e-02 -1.353687793016433716e-01 -1.594148427248001099e-01 1.006916090846061707e-01 -1.349191665649414062e-01 5.981707945466041565e-02 4.714480414986610413e-02 9.282935410737991333e-02 7.705576717853546143e-02 -1.058353707194328308e-01 2.219890058040618896e-02 6.186103820800781250e-02 1.617584824562072754e-01 -3.213889598846435547e-01 3.672784566879272461e-02 -1.003171131014823914e-01 -8.079429715871810913e-02 2.151757292449474335e-02 1.723012030124664307e-01 1.093413680791854858e-01 -7.940933853387832642e-02 -1.237559877336025238e-02 -5.920014157891273499e-02 -1.862044632434844971e-01 -7.507219165563583374e-02 3.800336644053459167e-02 2.985879033803939819e-02 1.467990130186080933e-01 6.700459867715835571e-02 1.343077570199966431e-01 -3.395313769578933716e-02 2.026982158422470093e-01 -3.227344155311584473e-02 -2.721845731139183044e-02 5.751855298876762390e-02 -1.693701185286045074e-02 1.912972144782543182e-02 -6.458646059036254883e-02 1.215627789497375488e-02 3.200384788215160370e-03 -1.401608251035213470e-02 -7.939486205577850342e-02 -8.692944794893264771e-02 5.865354090929031372e-03
-7.382847368717193604e-02 -2.838176675140857697e-02 -1.114711463451385498e-01 -3.230418637394905090e-02 7.570786867290735245e-03 -4.286490753293037415e-02 2.087649405002593994e-01 1.427071690559387207e-01 -3.466531634330749512e-02 -2.503881976008415222e-02 -7.466324418783187866e-02 4.550380166620016098e-03 5.164951831102371216e-02 8.301527239382266998e-03 1.542461104691028595e-03 -1.049708947539329529e-02 3.476123511791229248e-02 9.977622330188751221e-02 -1.447984389960765839e-02 -1.050645038485527039e-01 3.579312935471534729e-02 4.397115856409072876e-02 -6.717506051063537598e-02 1.377319693565368652e-01 5.229803919792175293e-02 1.999262906610965729e-02 -3.631983697414398193e-02 4.642368480563163757e-02 9.812328219413757324e-02 2.568829990923404694e-02 3.631323575973510742e-02 -1.192544847726821899e-01 1.571096330881118774e-01 -8.569384366273880005e-02 5.186343938112258911e-02 -7.716480642557144165e-02 -1.519837975502014160e-01 -5.319554731249809265e-02 5.614221468567848206e-02 -6.273148208856582642e-02 1.998290419578552246e-02 -3.877366706728935242e-02 -6.423057615756988525e-02 -1.723458915948867798e-01 -1.460490971803665161e-01 -4.523325711488723755e-02 -7.519667595624923706e-02 6.670655310153961182e-02 3.426412642002105713e-01 1.547280848026275635e-01 5.731246992945671082e-02 -8.321261405944824219e-02 9.075241535902023315e-02 2.979925367981195450e-03 -1.126109957695007324e-01 -4.763964191079139709e-02 1.678614914417266846e-01 2.114432007074356079e-01 1.506955479271709919e-03 -4.997266829013824463e-02 2.219555526971817017e-01 -2.864858321845531464e-02 -1.576539315283298492e-02 -1.246447190642356873e-01 3.957640379667282104e-02 3.461233898997306824e-02 -2.970309555530548096e-02 -1.626262813806533813e-02 -7.415781915187835693e-02 -5.434094928205013275e-03 1.869408600032329559e-02 -2.394726686179637909e-02 3.016651794314384460e-02 1.381884515285491943e-02 6.352705508470535278e-02 -3.409884124994277954e-02 2.344018965959548950e-01 -1.793758422136306763e-01 -1.034968271851539612e-01 -2.604353614151477814e-02 8.265189081430435181e-02 3.021061234176158905e-02 2.612143754959106445e-01 7.765261828899383545e-02 -9.287888556718826294e-02 1.007126122713088989e-01 1.037904759868979454e-03 4.772789776325225830e-02 -1.540519744157791138e-01 -4.923603311181068420e-02 1.154837682843208313e-01 -1.399076282978057861e-01 1.118634715676307678e-01 7.679585367441177368e-02 -1.910386085510253906e-01 -9.653093665838241577e-02 -1.490593254566192627e-01 1.189274415373802185e-01 -2.392279217019677162e-03 -8.112498372793197632e-02 -1.645882576704025269e-01 -9.511234611272811890e-02 3.041591867804527283e-02 5.774441733956336975e-02 -9.791805595159530640e-02 -9.284440428018569946e-02 6.536170095205307007e-02 -1.828529983758926392e-01 3.768044412136077881e-01 1.203111186623573303e-01 -5.417583882808685303e-02 -3.434273228049278259e-02 -6.397571414709091187e-02 8.435288816690444946e-02 3.311822414398193359e-01 -1.317396461963653564e-01 -1.139670908451080322e-01 -3.727747201919555664e-01 -1.505070645362138748e-02 1.187283471226692200e-01 -2.060693055391311646e-01 -2.366623282432556152e-01 -3.964245691895484924e-02 -2.506300248205661774e-02 1.278503388166427612e-01 -1.162717193365097046e-01 2.288832217454910278e-01 2.199652642011642456e-01 2.349442243576049805e-02 -6.589463353157043457e-02 8.728565275669097900e-02 -7.209037989377975464e-02 -4.877067357301712036e-02 -4.787694662809371948e-02 -1.518092006444931030e-01 -2.065719105303287506e-02 7.619244605302810669e-02 4.913471266627311707e-02 2.755538560450077057e-02 6.217657774686813354e-02 -4.625716246664524078e-03 3.150936961174011230e-02 -1.433185786008834839e-01 -3.344037532806396484e-01 -6.139638368040323257e-03 2.170497924089431763e-02 1.579752713441848755e-01 2.026277035474777222e-02 8.632772415876388550e-02 1.152230948209762573e-01 7.365839928388595581e-02 2.135932631790637970e-02 -1.241454705595970154e-01 -2.652374841272830963e-02 3.856685012578964233e-02 7.059510052204132080e-02 1.215837225317955017e-01 2.833115160465240479e-01 8.533516526222229004e-02 2.430550307035446167e-01 -6.898743659257888794e-02 2.941165566444396973e-01 1.940636709332466125e-02 -3.846796695142984390e-03 -5.979689583182334900e-02 -3.614609688520431519e-02 -8.272673189640045166e-02 -4.998572915792465210e-02 1.295930296182632446e-01 1.623170971870422363e-01 2.751859650015830994e-02 -7.341595832258462906e-03 -9.133079648017883301e-02 -2.200784534215927124e-02
-1.827635243535041809e-02 -5.001501366496086121e-02 -2.408450841903686523e-02 1.492526475340127945e-02 -3.502627089619636536e-02 2.240098826587200165e-02 -7.840277627110481262e-03 -3.370106453076004982e-03 -1.351306214928627014e-02 -3.975530620664358139e-03 2.462602034211158752e-02 -1.712559163570404053e-02 -5.040401592850685120e-02 4.580566287040710449e-02 1.534622628241777420e-03 -3.572328686714172363e-01 6.018283590674400330e-02 4.183893650770187378e-02 3.465010225772857666e-02 -5.421525612473487854e-02 3.158741071820259094e-02 3.715296462178230286e-02 -1.565367728471755981e-02 4.985111653804779053e-01 -4.083025455474853516e-02 -7.525057345628738403e-02 -2.211068421602249146e-01 -3.628343343734741211e-02 -1.110367029905319214e-01 2.501887641847133636e-02 3.185857459902763367e-02 5.707694217562675476e-03 -5.740496329963207245e-03 4.935288056731224060e-02 2.418790757656097412e-01 5.078473687171936035e-01 1.848983168601989746e-01 1.002660691738128662e-01 -7.293704431504011154e-03 1.011894457042217255e-02 -1.136857457458972931e-02 4.459253549575805664e-01 8.501545526087284088e-03 -1.613300852477550507e-02 -9.062090516090393066e-02 -8.142155408859252930e-02 -1.093728691339492798e-01 -3.425362706184387207e-02 -4.565503820776939392e-02 -7.219824939966201782e-02 6.671088933944702148e-02 -4.284736886620521545e-02 -4.808111861348152161e-02 -5.156226083636283875e-02 8.507939055562019348e-03 1.073290854692459106e-01 4.055701568722724915e-02 4.314814507961273193e-02 2.974821925163269043e-01 -4.088573157787322998e-02 -2.605284154415130615e-01 -2.831053175032138824e-02 3.942115232348442078e-02 -3.037788718938827515e-02 -8.707918971776962280e-02 -5.118586421012878418e-01 -6.077991425991058350e-02 -6.512971129268407822e-03 -5.706660822033882141e-02 -1.185943745076656342e-02 7.865785062313079834e-02 5.067570134997367859e-02 3.067809715867042542e-02 -3.439654409885406494e-02 5.234915018081665039e-02 4.684123769402503967e-02 5.538289994001388550e-02 -2.598810009658336639e-02 -4.589702188968658447e-02 1.219621766358613968e-02 2.323254048824310303e-01 4.798871651291847229e-02 -4.707184731960296631e-01 4.150886554270982742e-03 -5.674095079302787781e-02 -9.924813173711299896e-03 7.053060829639434814e-02 -3.886974602937698364e-02 1.596100069582462311e-02 -2.708848007023334503e-02 -1.433385163545608521e-02 1.324607580900192261e-01 -2.576836943626403809e-02 3.962145000696182251e-02 -7.050949614495038986e-03 5.975599586963653564e-02 9.136117249727249146e-02 4.084522649645805359e-02 1.390313357114791870e-01 6.983163300901651382e-03 3.510337471961975098e-01 -5.699121579527854919e-02 5.376179516315460205e-02 9.315598756074905396e-02 1.827303902246057987e-03 1.504760980606079102e-02 -7.730740308761596680e-02 3.425872698426246643e-02 2.925309166312217712e-02 7.291695475578308105e-02 7.432372868061065674e-02 9.220747649669647217e-02 2.131326496601104736e-02 -6.730701774358749390e-02 3.782602027058601379e-02 1.003440469503402710e-03 3.710421174764633179e-02 5.332530140876770020e-01 3.583881631493568420e-02 -1.062467768788337708e-01 4.236530885100364685e-02 -2.537838518619537354e-01 -1.109042391180992126e-02 -3.560804203152656555e-02 7.983230799436569214e-02 -1.227031927555799484e-02 -3.682669699192047119e-01 3.597765862941741943e-01 1.722809113562107086e-02 4.970046505331993103e-02 -5.514020845293998718e-02 -6.026786193251609802e-02 -2.758785337209701538e-02 4.697598516941070557e-02 -8.484580367803573608e-02 2.354248613119125366e-01 1.540530323982238770e-01 -8.170958608388900757e-02 -7.216500816866755486e-04 -6.461402773857116699e-02 -9.475533664226531982e-02 -4.063008725643157959e-02 3.405279517173767090e-01 -3.847322165966033936e-01 -1.130737140774726868e-01 1.917618513107299805e-02 -3.630363196134567261e-02 1.738996431231498718e-02 -1.179527565836906433e-01 5.286708474159240723e-02 -8.491564658470451832e-04 4.844766482710838318e-02 -4.535513371229171753e-02 -3.270187675952911377e-01 1.007968112826347351e-01 -2.843052521347999573e-02 -1.551398932933807373e-01 2.520577423274517059e-02 6.416365504264831543e-02 3.355949744582176208e-02 1.167282462120056152e-02 -4.939341917634010315e-02 7.673012465238571167e-02 -2.012249268591403961e-02 2.625495493412017822e-01 -9.295777976512908936e-02 3.130659088492393494e-02 -4.650957882404327393e-02 3.107043541967868805e-02 -2.478442154824733734e-02 -5.770479142665863037e-02 -3.716339915990829468e-02 -1.239799987524747849e-02 -3.674217686057090759e-02
1.862400025129318237e-01 3.815338388085365295e-02 -8.253289759159088135e-02 7.925139367580413818e-02 7.806865125894546509e-02 -2.055969983339309692e-01 -1.366261392831802368e-01 -1.271587163209915161e-01 7.135226577520370483e-02 -7.506534922868013382e-03 5.135294795036315918e-02 -8.510588109493255615e-02 1.157583817839622498e-01 5.073418375104665756e-03 -9.127601981163024902e-02 -3.734706640243530273e-01 -2.626593410968780518e-01 -1.006392538547515869e-01 1.069736257195472717e-01 -1.338854581117630005e-01 2.942229807376861572e-02 7.939822040498256683e-03 8.890430629253387451e-02 -1.367497146129608154e-01 -4.981142878532409668e-01 -1.721159368753433228e-01 8.579646050930023193e-02 1.130529493093490601e-01 1.158945960924029350e-03 1.587975397706031799e-02 -2.226703017950057983e-01 -2.961411327123641968e-02 -7.100120186805725098e-02 5.349403619766235352e-02 2.024808824062347412e-01 1.467690169811248779e-01 -7.884481549263000488e-02 -2.267880365252494812e-02 -4.573132842779159546e-02 -2.613066434860229492e-01 -1.317122727632522583e-01 3.177680075168609619e-01 -1.094409078359603882e-02 6.367145478725433350e-02 -3.458668887615203857e-01 -2.406260557472705841e-02 1.013021469116210938e-01 1.057564839720726013e-01 -1.454057991504669189e-01 -1.582226455211639404e-01 -1.356080174446105957e-01 1.152399703860282898e-01 -2.159985452890396118e-01 3.127370402216911316e-02 5.085860192775726318e-02 -2.357478886842727661e-01 -2.139483019709587097e-02 -9.449583292007446289e-02 2.776657938957214355e-01 8.186142891645431519e-02 -2.062675803899765015e-01 -5.818747729063034058e-02 2.533325459808111191e-03 -2.759364200755953789e-03 -2.270865142345428467e-01 -2.792152464389801025e-01 9.230180084705352783e-02 1.450523547828197479e-02 -1.180384904146194458e-01 1.829703748226165771e-01 -3.215362727642059326e-01 6.672980636358261108e-02 -2.411738336086273193e-01 -7.783318310976028442e-02 1.967673748731613159e-02 5.006360262632369995e-02 3.566953167319297791e-02 9.766122326254844666e-03 -6.765435934066772461e-01 1.292402297258377075e-01 -1.458106935024261475e-01 6.218630671501159668e-01 -2.509479820728302002e-01 -2.424609512090682983e-01 -4.632598906755447388e-02 -8.885962516069412231e-02 -7.530550658702850342e-02 -5.255517736077308655e-02 4.182164967060089111e-01 1.622235961258411407e-02 3.956616669893264771e-02 -2.593392431735992432e-01 2.730741724371910095e-02 -1.085130199790000916e-01 8.354105055332183838e-02 2.765829861164093018e-02 3.080956041812896729e-01 1.412826478481292725e-01 -1.164634525775909424e-01 -1.089717671275138855e-01 2.616379857063293457e-01 -1.344192028045654297e-01 4.443692043423652649e-02 -3.919385746121406555e-02 1.065773442387580872e-01 2.005031704902648926e-02 -5.790503695607185364e-02 2.098569460213184357e-02 -7.294021546840667725e-02 -2.034772634506225586e-01 7.017929106950759888e-02 -3.410701081156730652e-02 6.484514474868774414e-02 -1.653185039758682251e-01 -9.449732303619384766e-02 1.340670436620712280e-01 4.845282435417175293e-02 -2.605162858963012695e-01 1.182468682527542114e-01 8.041929453611373901e-02 3.800896927714347839e-02 -2.541168034076690674e-01 -1.392156928777694702e-01 5.675835907459259033e-02 -6.562698632478713989e-02 -3.760364651679992676e-01 -2.064562439918518066e-01 6.937944889068603516e-02 1.344381272792816162e-01 7.487551867961883545e-02 -6.672879308462142944e-02 6.976378709077835083e-02 1.886551454663276672e-02 1.117214113473892212e-01 -2.060093730688095093e-02 -1.802988648414611816e-01 3.497138023376464844e-01 3.610984608530998230e-02 -1.096879765391349792e-01 -2.791361324489116669e-02 1.715966910123825073e-01 -5.633015651255846024e-03 3.213598132133483887e-01 -3.313916027545928955e-01 -7.276771962642669678e-02 2.306068874895572662e-02 -1.348653584718704224e-01 5.537806451320648193e-02 1.707885712385177612e-01 -1.978883892297744751e-02 -1.021320074796676636e-01 -1.030284911394119263e-01 1.072596907615661621e-01 -3.237513899803161621e-01 1.346035897731781006e-01 7.885267585515975952e-02 -3.264178230892866850e-04 -1.578818559646606445e-01 1.368456287309527397e-03 -7.956572622060775757e-02 -3.669105470180511475e-01 -3.008995577692985535e-02 -2.057553529739379883e-01 -7.920253090560436249e-03 3.911612927913665771e-01 9.157461673021316528e-02 8.670794963836669922e-02 4.467223584651947021e-02 -3.477270901203155518e-02 -1.196371391415596008e-01 -3.764733672142028809e-03 6.728782504796981812e-02 -3.634487465023994446e-02 -8.971621096134185791e-02
