# 174 174
-5.162560194730758667e-02 -9.938325732946395874e-02 -2.904078662395477295e-01 -2.538880109786987305e-01 -1.003282591700553894e-01 1.181306123733520508e+00 1.268396526575088501e-01 -1.498873710632324219e+00 5.189666152000427246e-02 3.093451857566833496e-01 -3.404884785413742065e-02 6.864517331123352051e-01 -5.085894837975502014e-02 5.879708752036094666e-02 9.364995360374450684e-01 -1.788956522941589355e-01 4.051240161061286926e-02 6.973827630281448364e-02 2.318955957889556885e-01 3.984493315219879150e-01 3.438049256801605225e-01 8.059722930192947388e-02 7.878032922744750977e-01 -2.301797084510326385e-02 -1.752101778984069824e-01 2.234096638858318329e-02 -4.838517308235168457e-02 -1.733207255601882935e-01 -7.802766561508178711e-01 6.161504983901977539e-02 6.247338056564331055e-01 2.886038087308406830e-02 1.023899912834167480e+00 2.890405952930450439e-01 -2.174241691827774048e-01 -7.576363161206245422e-03 -1.934415102005004883e-01 -4.955981373786926270e-01 1.062470301985740662e-02 -2.859995663166046143e-01 9.343822486698627472e-03 -1.290487647056579590e-01 -2.808894515037536621e-01 9.347180277109146118e-02 -4.961263015866279602e-02 8.033482730388641357e-02 -7.970880717039108276e-02 -4.936708509922027588e-02 -1.892677664756774902e+00 -2.844632267951965332e-01 -4.852241575717926025e-01 -2.704850435256958008e-01 2.366510391235351562e+00 -9.227853151969611645e-04 4.261396527290344238e-01 -2.041781991720199585e-01 5.838365852832794189e-02 -2.282979637384414673e-01 4.636028707027435303e-01 -6.205684542655944824e-01 7.318492978811264038e-02 1.821405440568923950e-01 -8.849620819091796875e-02 5.048990845680236816e-01 -5.352737754583358765e-02 1.017375439405441284e-01 -6.440282613039016724e-02 5.492430925369262695e-01 3.980334848165512085e-02 6.164133548736572266e-02 -3.902603313326835632e-02 -1.543317642062902451e-02 1.269363164901733398e-01 1.823832392692565918e-01 -3.699417039752006531e-02 8.859673887491226196e-02 6.628231406211853027e-01 5.751153081655502319e-02 -2.540671527385711670e-01 6.428293585777282715e-01 4.611971601843833923e-02 -1.328598987311124802e-02 1.412129402160644531e-01 -3.512323275208473206e-02 3.167460858821868896e-02 1.030912324786186218e-01 -2.480830103158950806e-01 -6.424994766712188721e-02 2.457594275474548340e-01 -1.077682059258222580e-02 9.842728078365325928e-02 4.431842863559722900e-01 -3.436232209205627441e-01 4.732400774955749512e-01 -1.233908459544181824e-01 -1.215088739991188049e-01 5.769639462232589722e-02 7.400409132242202759e-02 4.948110878467559814e-01 -5.905052274465560913e-02 1.835297197103500366e-01 1.853173784911632538e-02 -5.399501323699951172e-02 2.532249093055725098e-01 -3.674356639385223389e-02 2.799538969993591309e-01 -1.906068250536918640e-02 -5.763701349496841431e-02 1.167870238423347473e-01 -1.593624800443649292e-01 -5.943207144737243652e-01 9.095014631748199463e-02 1.417762041091918945e-01 8.150183409452438354e-02 6.394554674625396729e-02 6.211116909980773926e-01 -6.367965787649154663e-02 5.441953986883163452e-02 7.969859242439270020e-02 5.103528022766113281e+00 5.461928248405456543e-01 5.237875133752822876e-02 3.914562463760375977e-01 -2.517610788345336914e-01 8.469825983047485352e-01 -3.238287270069122314e-01 2.916703373193740845e-02 -5.453033372759819031e-02 -9.163352251052856445e-01 -1.582699865102767944e-01 7.874166965484619141e-01 2.082619071006774902e-01 -1.699205487966537476e-01 1.651396900415420532e-01 3.783513605594635010e-01 -2.041987627744674683e-01 2.177915163338184357e-02 -1.447291672229766846e-01 -5.515595525503158569e-02 -2.032698094844818115e-01 -6.513402611017227173e-02 -3.247501552104949951e-01 5.283171311020851135e-02 5.716336145997047424e-02 2.634625323116779327e-02 -6.068262830376625061e-02 -4.120536446571350098e-01 -5.409996956586837769e-02 -1.002545654773712158e-02 1.244024857878684998e-01 2.862823568284511566e-02 6.249073147773742676e-01 -7.640034556388854980e-01 1.564292013645172119e-01 -2.873660922050476074e-01 1.759598255157470703e-01 1.274411939084529877e-02 1.372980773448944092e-01 6.861397624015808105e-02 1.741636991500854492e-01 -3.394060069695115089e-03 -1.857430487871170044e-01 -2.962535321712493896e-01 4.397842660546302795e-02 1.436583250761032104e-01 6.427431702613830566e-01 1.094909608364105225e-01 2.275067865848541260e-01 3.905881196260452271e-02 -1.794867217540740967e-01 -1.475029885768890381e-01 -1.710989177227020264e-01 1.806850433349609375e-01 -9.362476468086242676e-01
-7.709050178527832031e-02 1.033077090978622437e-01 -1.026025712490081787e-01 -1.432033479213714600e-01 4.407115280628204346e-02 1.477278351783752441e+00 -9.762339293956756592e-02 -1.885071247816085815e-01 5.887670069932937622e-02 -9.171545505523681641e-02 8.514306508004665375e-03 -9.057427048683166504e-01 -7.004795223474502563e-02 8.091633766889572144e-02 8.482383191585540771e-02 8.142685890197753906e-02 -4.106810688972473145e-02 6.183835491538047791e-02 3.946333378553390503e-02 2.053070366382598877e-01 7.522407919168472290e-02 -3.459278121590614319e-02 -1.159347146749496460e-01 4.371691122651100159e-02 1.960177905857563019e-02 -1.280917786061763763e-02 1.804845221340656281e-02 7.130161672830581665e-02 1.040090441703796387e+00 1.320449449121952057e-02 2.009870767593383789e+00 9.589014947414398193e-02 8.655915409326553345e-02 1.439161449670791626e-01 -2.791038714349269867e-02 -3.549941256642341614e-02 4.552944377064704895e-02 2.602173089981079102e-01 -6.379336863756179810e-02 2.010654658079147339e-02 4.773278161883354187e-02 6.129112839698791504e-02 -3.460114449262619019e-02 8.110208064317703247e-02 3.407968878746032715e-01 1.608107686042785645e-01 -5.437155067920684814e-02 -4.254918545484542847e-02 -2.688739597797393799e-01 3.212757110595703125e-01 2.033061981201171875e-01 3.304614871740341187e-02 3.831722974777221680e+00 1.251729670912027359e-02 -6.299591064453125000e-02 -1.029122248291969299e-01 -6.879278272390365601e-02 2.776053845882415771e-01 5.740746483206748962e-02 4.646778106689453125e-02 -1.299602687358856201e-01 -4.181135445833206177e-02 -4.209751635789871216e-02 -2.312188893556594849e-01 1.788252778351306915e-02 -1.591186225414276123e-02 4.934186115860939026e-02 -4.278299957513809204e-02 6.042831763625144958e-02 5.935451760888099670e-02 -1.148933619260787964e-01 -6.374809145927429199e-02 1.700421124696731567e-01 -8.976565301418304443e-02 6.833989918231964111e-02 9.963294118642807007e-02 -5.790995806455612183e-02 8.587700128555297852e-02 6.093885004520416260e-02 -4.950037300586700439e-01 -9.630756825208663940e-02 -8.986221998929977417e-02 -4.233047366142272949e-02 2.456584945321083069e-02 -9.212524443864822388e-02 -3.772460296750068665e-02 -1.184178814291954041e-01 -7.492052763700485229e-02 1.332424730062484741e-01 9.228188544511795044e-02 4.378033801913261414e-02 -1.185785606503486633e-01 1.130635589361190796e-01 -1.428444683551788330e-01 -8.324053138494491577e-03 -1.147972717881202698e-01 -1.039752587676048279e-01 7.945042103528976440e-02 -1.466317102313041687e-02 -3.964924439787864685e-02 -9.079866856336593628e-02 -6.501029431819915771e-02 6.443411111831665039e-02 5.191603302955627441e-02 7.997279614210128784e-02 3.814693912863731384e-02 -9.675800055265426636e-02 1.498443353921175003e-02 1.025855308398604393e-03 2.358371391892433167e-02 9.857660531997680664e-02 -8.786863088607788086e-02 2.028203159570693970e-01 -8.450059220194816589e-03 -2.773087099194526672e-02 -1.356630474328994751e-01 -6.246978417038917542e-02 3.751527890563011169e-02 1.457734382711350918e-03 2.253241300582885742e+00 1.708598807454109192e-02 5.136856343597173691e-03 3.037794120609760284e-02 1.759917140007019043e-01 -6.496030837297439575e-02 7.746026664972305298e-02 1.215566843748092651e-01 1.214436069130897522e-01 9.440093487501144409e-02 -1.877811908721923828e+00 -7.230478525161743164e-02 -1.246471852064132690e-01 2.665914222598075867e-02 2.833552658557891846e-03 4.388755559921264648e-02 7.157497457228600979e-04 1.721300929784774780e-02 -1.285576522350311279e-01 -2.199356257915496826e-02 -7.809967547655105591e-02 2.657060697674751282e-02 -9.072437882423400879e-02 -5.313931033015251160e-03 -8.253965526819229126e-03 2.888073027133941650e-02 1.389777064323425293e-01 -3.281720355153083801e-02 2.236808463931083679e-02 8.135621249675750732e-02 -4.014618694782257080e-02 8.194398880004882812e-02 -1.387453377246856689e-01 1.438066214323043823e-01 1.739235818386077881e-01 -8.643560111522674561e-02 -5.390439555048942566e-02 -1.296687778085470200e-02 -5.536733567714691162e-02 -1.087860688567161560e-01 -6.937288679182529449e-03 -3.984173387289047241e-02 -1.242670789361000061e-01 1.066012755036354065e-01 1.485030446201562881e-02 8.593592047691345215e-02 -8.580484986305236816e-01 7.346808910369873047e-02 1.418581455945968628e-01 -3.175831735134124756e-01 -5.144759546965360641e-03 8.560748398303985596e-02 -2.717005088925361633e-02 -2.189857140183448792e-02 1.170380949974060059e+00
-5.036444962024688721e-02 2.634319663047790527e-02 5.119396373629570007e-02 1.170004978775978088e-01 2.347037196159362793e-01 5.618144869804382324e-01 -2.433934360742568970e-01 -3.735287189483642578e-01 -3.723977506160736084e-02 7.413648068904876709e-02 2.643153369426727295e-01 1.278625577688217163e-01 -3.087810575962066650e-01 3.259641304612159729e-02 1.087650507688522339e-01 -3.598735108971595764e-02 2.202186435461044312e-01 -3.590979427099227905e-02 -1.288993209600448608e-01 8.703016489744186401e-02 2.487985044717788696e-01 1.831683814525604248e-01 -1.182319968938827515e-01 3.345516622066497803e-01 -2.791045699268579483e-03 -1.927914619445800781e-01 -2.679584734141826630e-02 -2.196436375379562378e-01 -9.140583872795104980e-02 2.986810728907585144e-02 1.738521307706832886e-01 5.771652981638908386e-02 2.736577391624450684e-01 2.361347079277038574e-01 -3.703373968601226807e-01 -1.600127667188644409e-01 1.205662824213504791e-02 2.149978876113891602e-01 -1.714183203876018524e-02 -1.044348850846290588e-01 1.439416557550430298e-01 -1.081194449216127396e-02 3.246771544218063354e-02 -6.657440215349197388e-02 -2.769912779331207275e-01 7.630798965692520142e-02 -4.771924391388893127e-02 -2.212727675214409828e-03 -5.561752319335937500e-01 1.168907061219215393e-01 -2.576484577730298042e-03 -1.272801309823989868e-01 4.449108839035034180e-01 2.213511914014816284e-01 2.019361555576324463e-01 1.021664310246706009e-02 2.542720139026641846e-01 -9.290283173322677612e-02 1.627968400716781616e-01 1.977535709738731384e-02 -2.740523219108581543e-01 -6.855937186628580093e-03 -6.566391140222549438e-02 2.685148455202579498e-02 -3.865164518356323242e-02 -2.171595543622970581e-01 -1.337459087371826172e-01 4.872691333293914795e-01 -3.131594881415367126e-02 -1.581213064491748810e-02 6.536656618118286133e-02 -2.227174192667007446e-01 -8.066959679126739502e-03 -3.568852785974740982e-03 3.484776243567466736e-02 1.999401450157165527e-01 2.486193925142288208e-01 -2.447772622108459473e-01 1.196888536214828491e-01 1.258007287979125977e-01 4.343903660774230957e-01 2.477312237024307251e-01 -1.542373597621917725e-01 -8.390453457832336426e-02 -2.703388333320617676e-01 1.325081288814544678e-01 -1.894073188304901123e-01 1.838617473840713501e-01 2.028402499854564667e-02 5.372014641761779785e-02 2.847634851932525635e-01 1.655780822038650513e-01 -1.281418800354003906e-01 -2.175948955118656158e-02 -2.474172264337539673e-01 2.877847291529178619e-03 -6.723220646381378174e-02 3.983041271567344666e-02 3.117699921131134033e-01 -2.221686840057373047e-01 3.879604935646057129e-01 2.319004200398921967e-02 9.879088401794433594e-02 5.071369558572769165e-02 6.046462804079055786e-02 -9.622141718864440918e-02 1.405646209605038166e-03 -8.359363675117492676e-02 1.652787029743194580e-01 -7.421986013650894165e-02 -1.714580953121185303e-01 -1.033383160829544067e-01 -7.520761340856552124e-02 2.360900342464447021e-01 2.479515224695205688e-02 2.683286964893341064e-01 -1.853407025337219238e-01 1.049905195832252502e-01 -4.439112171530723572e-02 1.694389462471008301e+00 1.507379412651062012e-01 5.467248335480690002e-02 -8.299098163843154907e-02 1.129946857690811157e-02 2.421891987323760986e-01 -2.285083830356597900e-01 5.453277379274368286e-02 -1.512332260608673096e-01 -4.314039945602416992e-01 -5.436086654663085938e-02 2.290244996547698975e-01 -1.782433092594146729e-01 3.087509982287883759e-02 2.624822854995727539e-01 -1.146032512187957764e-01 -6.915087252855300903e-02 -1.709244400262832642e-01 1.237150728702545166e-01 1.519233733415603638e-01 -1.498496234416961670e-01 8.773983269929885864e-02 8.971791714429855347e-03 -4.478812962770462036e-02 -1.155772656202316284e-01 -7.821743190288543701e-02 -2.810386754572391510e-02 -2.803063392639160156e-01 -8.459627628326416016e-02 -9.997610002756118774e-02 3.455810621380805969e-02 -6.242529675364494324e-02 1.721383929252624512e-01 -2.819796204566955566e-01 1.143150627613067627e-01 -1.075159013271331787e-01 -2.657578289508819580e-01 2.967083081603050232e-02 -3.356628492474555969e-02 9.715649485588073730e-02 2.109117656946182251e-01 1.281563937664031982e-01 -9.844656288623809814e-02 5.657598376274108887e-02 -8.351993560791015625e-02 -1.565196923911571503e-02 2.213317602872848511e-01 1.272939294576644897e-01 3.029514551162719727e-01 -1.123343333601951599e-01 4.107765853404998779e-01 2.915961667895317078e-02 1.342224776744842529e-01 3.195319473743438721e-01 -1.502703130245208740e-01
-5.539983138442039490e-02 1.047181263566017151e-01 -3.201814740896224976e-02 -8.046749234199523926e-01 -1.057047918438911438e-01 -1.988495588302612305e-01 -1.151332408189773560e-01 -2.293628454208374023e-01 -5.489077419042587280e-02 3.356660902500152588e-01 -8.621750771999359131e-02 -2.065967619419097900e-01 4.547550901770591736e-02 1.313221901655197144e-01 5.796471238136291504e-01 -7.082890719175338745e-02 1.927960291504859924e-02 2.550659775733947754e-01 9.800634533166885376e-02 7.426965981721878052e-02 -8.629590272903442383e-02 8.322729915380477905e-02 1.401354819536209106e-01 -1.548608485609292984e-02 -7.373830676078796387e-02 -2.318074554204940796e-02 9.053059667348861694e-02 1.239397330209612846e-03 -2.227947115898132324e-02 1.332284659147262573e-01 -1.771025508642196655e-01 -4.924512282013893127e-02 3.919223546981811523e-01 -7.425643503665924072e-02 6.636564433574676514e-02 5.758454091846942902e-03 1.479661371558904648e-02 5.609497427940368652e-02 -4.488009959459304810e-02 -1.061320975422859192e-01 1.626276224851608276e-01 2.273935079574584961e-01 -4.232752695679664612e-02 -1.473583430051803589e-01 -7.279211878776550293e-01 -3.953689709305763245e-02 -1.094204261898994446e-01 -1.407681684941053391e-02 -3.619677722454071045e-01 -1.047333925962448120e-01 5.993662402033805847e-02 7.986190915107727051e-02 1.136142462491989136e-01 -2.842822670936584473e-01 8.649663999676704407e-03 -9.884109348058700562e-02 -4.903818294405937195e-02 -9.104908257722854614e-02 6.019167229533195496e-02 -3.394434452056884766e-01 -4.603501036763191223e-02 -9.513561427593231201e-02 3.497679531574249268e-02 -1.448972076177597046e-01 -1.138863898813724518e-02 -3.738088533282279968e-02 4.238334670662879944e-02 3.287618607282638550e-02 -1.044971421360969543e-01 2.444286495447158813e-01 1.949443370103836060e-01 1.760131679475307465e-02 2.405120432376861572e-02 -5.822258070111274719e-02 1.344820857048034668e-01 1.105197444558143616e-01 -9.850002825260162354e-02 1.640154570341110229e-01 -1.615200191736221313e-01 -1.208153665065765381e-01 -8.615744858980178833e-02 -1.122770383954048157e-01 5.189558956772089005e-03 -1.167471408843994141e-01 2.341613024473190308e-01 1.574352234601974487e-01 -9.190738946199417114e-02 1.147206425666809082e-01 2.639467418193817139e-01 -6.384874880313873291e-02 2.072224766016006470e-01 -1.488228291273117065e-01 -3.366406634449958801e-02 -1.896379441022872925e-01 -1.741748154163360596e-01 -5.366305261850357056e-02 4.521793872117996216e-02 6.994231045246124268e-02 8.193698525428771973e-02 -1.375006884336471558e-01 -2.303701266646385193e-02 1.344281807541847229e-02 -1.676962710916996002e-02 6.105629354715347290e-02 5.083534866571426392e-02 7.162220031023025513e-02 8.522340655326843262e-02 -2.189465165138244629e-01 1.201799064874649048e-01 -1.124166510999202728e-02 2.290631383657455444e-01 -1.854096353054046631e-02 -3.088373504579067230e-02 1.064641624689102173e-01 1.105379611253738403e-01 -2.820679247379302979e-01 4.627778753638267517e-02 -5.338406562805175781e-02 1.112899482250213623e-01 -1.017416790127754211e-01 3.586413860321044922e-01 8.624491095542907715e-02 2.751128748059272766e-03 -6.645753234624862671e-02 2.758067548274993896e-01 5.729712918400764465e-02 1.088814530521631241e-02 5.379209667444229126e-02 -8.654421567916870117e-02 -2.136833406984806061e-02 -1.197722554206848145e-01 3.846223652362823486e-02 -1.584865003824234009e-01 1.555362641811370850e-01 2.443243563175201416e-01 -5.608418211340904236e-02 4.263463243842124939e-02 8.002272993326187134e-02 -1.267995536327362061e-01 3.484037145972251892e-02 5.893280357122421265e-02 -4.206715524196624756e-02 1.662233471870422363e-01 -7.019866257905960083e-02 -1.631943583488464355e-01 1.447488926351070404e-02 1.204189881682395935e-01 -2.392119318246841431e-01 -1.667426526546478271e-01 1.374026536941528320e-01 4.162928834557533264e-02 -1.586215943098068237e-01 1.681720092892646790e-02 1.756141930818557739e-01 -9.381117671728134155e-02 1.116980835795402527e-01 -8.228779584169387817e-02 -1.042859163135290146e-02 1.308309733867645264e-01 -8.440649136900901794e-03 -4.401480033993721008e-02 -1.015340387821197510e-01 -2.787616550922393799e-01 -7.660008221864700317e-02 8.575156331062316895e-02 -9.320959448814392090e-02 1.433005779981613159e-01 -1.041283714585006237e-03 6.352262198925018311e-02 -1.005520857870578766e-02 1.255429685115814209e-01 -9.088574349880218506e-02 -6.111800298094749451e-02 1.110092252492904663e-01
1.106985285878181458e-01 -2.540882676839828491e-02 -7.134200632572174072e-02 -9.012253582477569580e-02 1.290820389986038208e-01 3.528250217437744141e+00 8.986439555883407593e-02 2.039509713649749756e-01 -5.530926957726478577e-02 1.826510392129421234e-02 2.704280912876129150e-01 -2.495940327644348145e-01 -2.386439889669418335e-01 5.032603815197944641e-02 -2.561523020267486572e-01 -8.569376170635223389e-02 -2.760217338800430298e-02 -1.026228293776512146e-01 -4.509595036506652832e-02 5.332219973206520081e-02 1.974329352378845215e-01 1.661854423582553864e-02 -2.587894499301910400e-01 1.489432603120803833e-01 2.923883870244026184e-02 1.993301324546337128e-03 -2.364230342209339142e-02 -7.050416618585586548e-02 3.242080509662628174e-01 1.166040659882128239e-03 1.214452743530273438e+00 -7.298567146062850952e-02 -1.816498041152954102e-01 1.132184490561485291e-01 -3.830213472247123718e-02 -7.995286025106906891e-03 -2.681185007095336914e-01 3.096110001206398010e-02 -9.530566632747650146e-02 -6.363541632890701294e-02 1.392148584127426147e-01 1.415120214223861694e-01 -5.574605986475944519e-02 4.962914809584617615e-02 2.001917362213134766e+00 2.261559963226318359e-01 -1.449814885854721069e-01 -1.081214919686317444e-01 3.319329917430877686e-01 4.512989148497581482e-02 1.627371646463871002e-02 3.436452895402908325e-02 3.818755149841308594e+00 1.417863182723522186e-02 -2.823368012905120850e-01 -5.607185885310173035e-02 -1.015588939189910889e-01 2.375847250223159790e-01 -1.556922793388366699e-01 -1.691052168607711792e-01 -2.082044333219528198e-01 -2.724331803619861603e-02 4.261163249611854553e-02 8.262173086404800415e-02 -4.013076052069664001e-02 -1.438081860542297363e-01 -9.029222279787063599e-02 1.902450621128082275e-01 5.668425932526588440e-02 -3.580576181411743164e-02 -1.138741746544837952e-01 4.766190424561500549e-02 2.946707420051097870e-02 3.494334965944290161e-02 3.632376901805400848e-03 -2.050985842943191528e-01 3.073827028274536133e-01 1.424210332334041595e-02 1.601704359054565430e-01 -1.318114101886749268e-01 -5.696424632333219051e-04 8.303930610418319702e-02 6.292548775672912598e-02 2.918916288763284683e-03 4.279543086886405945e-02 5.531494319438934326e-02 1.460202187299728394e-01 -1.699852524325251579e-03 -1.296111345291137695e-01 2.166033983230590820e-01 6.416252255439758301e-02 -2.404895238578319550e-02 1.056458801031112671e-01 -2.185313403606414795e-02 -1.109666191041469574e-02 -7.577840238809585571e-02 -5.406483635306358337e-02 4.068907815963029861e-03 -3.886422216892242432e-01 4.543124884366989136e-02 1.739070713520050049e-01 -2.072050794959068298e-02 -4.699738230556249619e-03 -5.114782601594924927e-02 1.778622269630432129e-01 -4.306395351886749268e-02 -1.586444489657878876e-02 7.712315022945404053e-02 4.709000885486602783e-02 -1.187619641423225403e-01 1.105633974075317383e-01 -1.283715814352035522e-01 7.508206367492675781e-02 -1.180653870105743408e-01 4.455244168639183044e-02 1.915742829442024231e-02 -7.214489392936229706e-03 4.438527300953865051e-02 5.078094825148582458e-02 4.776098728179931641e+00 -1.299095600843429565e-01 -2.206279709935188293e-02 8.876721560955047607e-02 2.805456519126892090e-01 1.087308600544929504e-01 9.155929088592529297e-02 2.945005707442760468e-02 -1.505356188863515854e-02 1.163366213440895081e-01 -1.121807217597961426e+00 1.466986835002899170e-01 -1.470868438482284546e-01 1.164020746946334839e-01 6.485067307949066162e-02 -1.712542623281478882e-01 -7.217614352703094482e-02 -2.386153442785143852e-03 2.496708929538726807e-02 -6.537083536386489868e-02 -1.491244733333587646e-01 4.004838317632675171e-02 -5.198335275053977966e-02 1.021991595625877380e-01 -5.823657661676406860e-02 7.309127599000930786e-02 8.090292811393737793e-01 -1.468226779252290726e-02 1.270501315593719482e-01 -6.808954477310180664e-02 2.737585455179214478e-02 -8.477577567100524902e-02 -5.701241269707679749e-02 -3.485224023461341858e-02 1.054266467690467834e-01 -7.664092630147933960e-02 -2.985859215259552002e-01 -8.377309888601303101e-02 -9.220503270626068115e-03 -4.183223005384206772e-03 4.111094772815704346e-02 9.305936843156814575e-02 -1.048087403178215027e-01 9.424392879009246826e-02 4.705455154180526733e-02 6.168740987777709961e-02 -2.651542127132415771e-01 1.477200239896774292e-01 -9.035350382328033447e-02 1.470667868852615356e-01 7.277780026197433472e-02 -1.407491229474544525e-02 -5.300056561827659607e-02 3.103425726294517517e-02 1.305933445692062378e-01
1.400313228368759155e-01 3.403879702091217041e-01 2.376347184181213379e-01 -1.788404732942581177e-01 -2.177449464797973633e-01 -5.156071186065673828e-01 1.640760600566864014e-01 -9.618628025054931641e-01 2.404142022132873535e-01 2.714799642562866211e-01 -8.780094236135482788e-02 -3.690567612648010254e-01 2.546531260013580322e-01 1.738801598548889160e-01 1.210204839706420898e+00 1.363952737301588058e-02 3.148417770862579346e-01 -8.019658923149108887e-02 -1.653724759817123413e-01 -1.033609136939048767e-01 4.877224564552307129e-02 -3.159568831324577332e-02 2.632140517234802246e-01 -1.336328387260437012e-01 4.119907692074775696e-02 -1.000892594456672668e-01 9.564366191625595093e-03 -3.054291568696498871e-02 7.364721596240997314e-02 -3.406814038753509521e-01 -8.059960603713989258e-02 2.942401543259620667e-02 1.055508255958557129e+00 2.121120393276214600e-01 2.329571917653083801e-02 -2.785749733448028564e-01 4.052605032920837402e-01 1.805505156517028809e-01 -1.589499115943908691e-01 2.700584530830383301e-01 -4.250337779521942139e-01 -1.077225953340530396e-01 3.563505709171295166e-01 1.763777732849121094e-01 -7.928493618965148926e-01 -1.942299157381057739e-01 -8.191189169883728027e-02 -1.202742680907249451e-01 -7.864712476730346680e-01 1.340653002262115479e-01 4.679380953311920166e-01 4.468730688095092773e-01 -9.799600392580032349e-02 -4.000466167926788330e-01 2.665990889072418213e-01 9.596077352762222290e-02 -2.756503224372863770e-01 -1.260726004838943481e-01 -9.043157100677490234e-02 -8.181576430797576904e-02 -1.118732243776321411e-01 9.038570523262023926e-02 -2.624719589948654175e-02 -2.843573689460754395e-01 6.669028848409652710e-02 2.938280440866947174e-02 2.187729030847549438e-01 -4.146577119827270508e-01 2.316837161779403687e-01 -4.698093049228191376e-03 1.462825834751129150e-01 -6.732487678527832031e-02 1.045149266719818115e-01 -2.222738862037658691e-01 -5.835086107254028320e-02 -1.640889793634414673e-01 -6.243851780891418457e-01 -1.970056593418121338e-01 -4.079841375350952148e-01 4.643451049923896790e-02 -1.327127069234848022e-01 -2.517865896224975586e-01 4.900978878140449524e-03 -7.907234132289886475e-02 -2.009062469005584717e-01 -1.091938763856887817e-01 -1.072425395250320435e-01 -6.006845459342002869e-02 3.078741729259490967e-01 -4.834098517894744873e-01 2.590486221015453339e-02 -2.574398219585418701e-01 3.095164429396390915e-03 -3.415464162826538086e-01 2.352125346660614014e-01 1.783052086830139160e-02 5.844815075397491455e-02 3.877716884016990662e-02 2.777321338653564453e-01 1.974045857787132263e-02 -3.381204605102539062e-01 1.982385292649269104e-02 3.598184883594512939e-02 -2.064299285411834717e-01 -3.973420560359954834e-01 -9.369267523288726807e-02 1.365691721439361572e-01 -5.477881059050559998e-02 3.850121051073074341e-02 -2.997314333915710449e-01 9.826862812042236328e-02 1.563435345888137817e-01 -1.728014349937438965e-01 7.635642588138580322e-02 -2.514403462409973145e-01 -1.278710458427667618e-02 -6.760841608047485352e-02 3.338434547185897827e-02 -2.419782429933547974e-02 -2.816340029239654541e-01 -4.763064533472061157e-02 7.815114408731460571e-02 -7.494647800922393799e-02 -3.093189001083374023e-01 2.322075515985488892e-01 -4.217443615198135376e-02 5.679123476147651672e-02 1.027232259511947632e-01 1.644536852836608887e-02 6.079786643385887146e-02 -8.890726566314697266e-01 1.089626774191856384e-01 -1.253310590982437134e-01 -4.477381333708763123e-02 3.625094294548034668e-01 1.243603155016899109e-01 -2.326971590518951416e-01 -7.451649755239486694e-02 3.101199120283126831e-02 -1.595425456762313843e-01 -4.003933630883693695e-03 -1.888380497694015503e-01 9.022724814713001251e-03 1.279188394546508789e-01 -1.735559999942779541e-01 -1.773674637079238892e-01 1.582854986190795898e-01 2.042464464902877808e-01 -1.648521609604358673e-02 1.118292585015296936e-01 -4.977953806519508362e-02 -1.498523801565170288e-01 3.522040843963623047e-01 1.831244826316833496e-01 1.175637170672416687e-01 1.131688579916954041e-01 -1.616677939891815186e-01 -2.739300131797790527e-01 4.977062344551086426e-02 2.314524911344051361e-02 3.729455545544624329e-02 1.773518919944763184e-01 -5.254397168755531311e-02 -1.527778431773185730e-02 1.407356113195419312e-01 -1.622070223093032837e-01 5.290871020406484604e-03 2.747046947479248047e-01 -2.157083004713058472e-01 -1.170245930552482605e-01 -2.901035593822598457e-03 1.134584844112396240e-01 -1.159655451774597168e-01 1.331723630428314209e-01
5.211929976940155029e-02 -1.444652117788791656e-02 2.110579758882522583e-01 -7.637809030711650848e-03 -9.994301199913024902e-02 5.623782873153686523e-01 6.760817766189575195e-02 9.172321557998657227e-01 -2.070810459554195404e-02 -1.522172801196575165e-02 -1.386981159448623657e-01 2.431061565876007080e-01 1.071490868926048279e-01 -1.056798994541168213e-01 -5.618259906768798828e-01 2.340443730354309082e-01 -8.156985789537429810e-02 1.184808984398841858e-01 -1.743561476469039917e-01 -2.074815779924392700e-01 -2.097117751836776733e-01 -7.430730760097503662e-02 -3.110226988792419434e-02 -4.782053083181381226e-02 9.088636934757232666e-02 9.068349748849868774e-02 6.184167787432670593e-02 9.388604015111923218e-02 -3.028008639812469482e-01 -2.253863513469696045e-01 -1.707667261362075806e-01 -4.455636814236640930e-02 -8.246693611145019531e-01 -5.537886638194322586e-03 2.440396547317504883e-01 1.703089624643325806e-01 -1.029371633194386959e-03 1.636857241392135620e-01 -1.212181225419044495e-01 8.187941461801528931e-02 2.193290740251541138e-01 3.139240443706512451e-01 2.363646626472473145e-01 9.273068606853485107e-02 5.566618442535400391e-01 -2.269867807626724243e-01 1.523954570293426514e-01 -3.442752733826637268e-02 1.227125763893127441e+00 -1.114205271005630493e-02 1.164784505963325500e-01 -1.068554446101188660e-02 -5.422537326812744141e-01 -7.434137910604476929e-02 -3.127140998840332031e-01 -9.628653526306152344e-03 7.270695269107818604e-02 1.887983977794647217e-01 -1.604397892951965332e-01 -4.009329527616500854e-02 -5.244075506925582886e-02 5.098830908536911011e-03 1.890363246202468872e-01 8.388676680624485016e-03 -3.945707529783248901e-02 -8.443449437618255615e-02 1.059970930218696594e-01 -3.235675692558288574e-01 -5.548255890607833862e-02 -7.824314385652542114e-02 3.439428806304931641e-01 3.448714315891265869e-02 -6.789223849773406982e-02 1.643116474151611328e-01 -2.086592093110084534e-02 1.774061918258666992e-01 3.468305617570877075e-02 1.442213654518127441e-01 9.111414849758148193e-02 -2.486864179372787476e-01 -1.137234419584274292e-01 -3.719161450862884521e-02 -2.113295197486877441e-01 1.363037526607513428e-01 3.148336336016654968e-02 -7.099663466215133667e-02 2.117619514465332031e-01 4.470812901854515076e-02 -8.872348070144653320e-02 6.157910451292991638e-02 -1.499968916177749634e-01 -1.359791494905948639e-02 1.506422609090805054e-01 -7.741316407918930054e-02 1.661283075809478760e-01 6.889784336090087891e-02 -2.791954874992370605e-01 -4.177536815404891968e-03 -3.544048666954040527e-01 2.613924443721771240e-01 8.068130165338516235e-02 6.070281937718391418e-02 3.406833484768867493e-02 -1.323157995939254761e-01 2.392712384462356567e-01 -4.261640906333923340e-01 1.168927773833274841e-01 2.746178209781646729e-01 -4.173165187239646912e-02 1.003006473183631897e-01 2.348885089159011841e-01 5.901859328150749207e-02 -2.831460237503051758e-01 -3.279249742627143860e-02 -4.245238378643989563e-02 -8.442576974630355835e-02 2.918535470962524414e-01 1.168412342667579651e-01 -1.078513450920581818e-02 -1.135370254516601562e+00 -3.921180963516235352e-01 -8.085072785615921021e-02 -6.324040889739990234e-02 3.687382042407989502e-01 -2.883149385452270508e-01 1.162413433194160461e-01 -2.014502584934234619e-01 6.572381593286991119e-03 4.947609901428222656e-01 -6.210007146000862122e-02 -2.006801813840866089e-01 -9.811295568943023682e-02 9.456021338701248169e-02 -1.893340498208999634e-01 -1.499750018119812012e-01 9.619930759072303772e-03 8.202929794788360596e-02 -2.938917577266693115e-01 4.190640896558761597e-02 9.353232383728027344e-02 -9.417994320392608643e-02 -1.092998087406158447e-01 1.199077814817428589e-01 -4.785345122218132019e-02 1.365245580673217773e-01 3.834979832172393799e-01 1.123720332980155945e-01 1.076269671320915222e-01 -1.092491950839757919e-02 -1.675334274768829346e-01 -6.991884857416152954e-02 -3.603629171848297119e-01 1.227885708212852478e-01 1.109978631138801575e-01 2.579022049903869629e-01 1.720787584781646729e-01 8.913293480873107910e-02 -2.127922028303146362e-01 2.264802809804677963e-03 -5.315843969583511353e-02 -1.972974836826324463e-01 1.493034046143293381e-02 2.204462587833404541e-01 -2.542824856936931610e-02 -9.860950708389282227e-02 1.923623979091644287e-01 1.739647239446640015e-02 -1.678483374416828156e-02 -1.395429857075214386e-02 6.655726581811904907e-02 -2.427749335765838623e-01 1.082682684063911438e-01 -2.673485875129699707e-01 9.854667633771896362e-02
-1.140051186084747314e-01 3.100461363792419434e-01 -1.041745096445083618e-01 -9.204918891191482544e-02 -1.358012109994888306e-01 2.567140161991119385e-01 -9.417443722486495972e-02 -1.964405626058578491e-01 2.567914873361587524e-02 3.964700922369956970e-02 9.461035951972007751e-03 -9.469904303550720215e-01 5.415872856974601746e-02 -6.624899059534072876e-02 2.321626842021942139e-01 8.372500538825988770e-03 -5.770746618509292603e-02 2.562155425548553467e-01 6.557824462652206421e-02 -2.673419117927551270e-01 7.867381721735000610e-02 1.989958994090557098e-02 -2.637698128819465637e-02 -8.294246345758438110e-02 -3.183392882347106934e-01 -3.968290984630584717e-02 -1.394088417291641235e-01 -9.086774289608001709e-02 2.422837495803833008e+00 -2.402369976043701172e-01 2.014775723218917847e-01 3.321754634380340576e-01 2.509511113166809082e-01 2.462966442108154297e-01 7.712391018867492676e-02 -6.747564673423767090e-02 1.913159526884555817e-02 -1.977197825908660889e-01 2.168500982224941254e-02 -7.531231641769409180e-02 -2.180107086896896362e-01 -2.107084691524505615e-01 1.541040986776351929e-01 -1.444345563650131226e-01 1.095901802182197571e-01 -1.117232348769903183e-02 1.898660883307456970e-02 -7.694558799266815186e-02 -1.847630888223648071e-01 2.385308742523193359e-01 -1.646337360143661499e-01 -1.812364935176447034e-04 5.258859992027282715e-01 9.762727469205856323e-02 1.062614023685455322e-01 -5.227554440498352051e-01 -6.181858852505683899e-02 1.138944998383522034e-01 1.413412839174270630e-01 5.078835412859916687e-02 8.675396442413330078e-02 4.991551041603088379e-01 7.544982433319091797e-02 3.777994588017463684e-02 -3.730192780494689941e-01 4.708101972937583923e-03 1.778475195169448853e-02 4.282055050134658813e-02 -3.799341619014739990e-02 -9.456117451190948486e-02 -3.835203647613525391e-01 1.747317612171173096e-02 6.259296536445617676e-01 9.482976980507373810e-03 3.508966416120529175e-03 -2.626199275255203247e-02 -2.544833421707153320e-01 -7.344301044940948486e-02 1.282703131437301636e-01 -3.014578819274902344e+00 3.159362822771072388e-02 -1.689489036798477173e-01 5.404590070247650146e-02 2.540164887905120850e-01 -1.762371063232421875e-01 3.225745260715484619e-01 -2.600982040166854858e-02 6.902996450662612915e-02 -2.601344604045152664e-03 -2.010443061590194702e-01 6.813862174749374390e-02 -1.296733170747756958e-01 -1.806090921163558960e-01 5.447653681039810181e-02 2.161892056465148926e-01 -4.500595927238464355e-01 3.959202766418457031e-01 2.598673664033412933e-02 9.927020967006683350e-02 1.899604648351669312e-01 -1.091217622160911560e-02 1.454598903656005859e-01 -6.020839139819145203e-02 2.201599180698394775e-01 -1.580655761063098907e-02 -2.644304335117340088e-01 -5.935901030898094177e-02 -6.346836686134338379e-02 8.472662419080734253e-02 7.682961877435445786e-03 3.014109849929809570e+00 6.891638971865177155e-03 -2.145683020353317261e-01 -3.553186357021331787e-02 -7.750444859266281128e-02 1.464551836252212524e-01 2.197923697531223297e-02 -4.326578229665756226e-02 -9.512615203857421875e-02 3.630187809467315674e-01 9.338913112878799438e-02 6.440068781375885010e-02 2.411539256572723389e-01 6.315115839242935181e-02 -4.041613340377807617e-01 -1.134933903813362122e-01 7.470531389117240906e-03 1.111067831516265869e-01 -4.023894295096397400e-02 -2.444448620080947876e-01 -6.070175021886825562e-02 5.660822242498397827e-02 -1.023902967572212219e-01 -2.537130415439605713e-01 -1.083096861839294434e-01 1.017275303602218628e-01 4.577710479497909546e-02 3.123008273541927338e-02 1.617704927921295166e-01 4.833201318979263306e-02 3.023212254047393799e-01 -1.073411405086517334e-01 5.892167985439300537e-02 -9.158387035131454468e-02 -7.820041477680206299e-02 -6.184166762977838516e-03 1.490821540355682373e-01 -1.414390653371810913e-01 -3.031922280788421631e-01 4.827247187495231628e-02 6.370269507169723511e-02 -3.122892379760742188e+00 1.434636563062667847e-01 1.332842946052551270e+00 -1.195400431752204895e-01 8.179893344640731812e-02 -7.780893892049789429e-02 -1.058975160121917725e-01 3.580235689878463745e-02 -3.924073278903961182e-02 3.515889123082160950e-02 3.398743271827697754e-02 -8.902596682310104370e-02 1.921117119491100311e-02 9.265324473381042480e-01 -2.379851579666137695e+00 4.694944620132446289e-01 1.368495225906372070e-01 1.145673617720603943e-01 -5.896209925413131714e-02 4.240063577890396118e-02 2.331092720851302147e-03 3.147004842758178711e-01 -2.371809780597686768e-01
-2.090681344270706177e-01 1.204662695527076721e-01 -3.805001731961965561e-03 -1.912906207144260406e-02 6.828798651695251465e-01 8.361995220184326172e-01 -7.520569860935211182e-02 -7.851396501064300537e-02 -8.593811094760894775e-02 -1.796753257513046265e-01 8.076114058494567871e-01 1.313904225826263428e-01 -6.214311122894287109e-01 1.823717728257179260e-02 4.758702963590621948e-02 -1.368568986654281616e-01 -1.328087896108627319e-01 5.208661314100027084e-03 -8.099474757909774780e-02 1.400591433048248291e-01 1.268594563007354736e-01 -2.264063991606235504e-02 1.624637097120285034e-01 7.294319868087768555e-01 5.500353127717971802e-02 1.386634260416030884e-01 -5.600761249661445618e-02 9.118566662073135376e-02 1.791745871305465698e-01 4.488733783364295959e-02 -2.330602146685123444e-02 -2.763367071747779846e-02 1.418241262435913086e-01 8.084230124950408936e-02 -6.109599471092224121e-01 -1.112939883023500443e-02 -5.722985789179801941e-02 8.856078237295150757e-02 4.363656975328922272e-03 2.512084133923053741e-02 2.037081867456436157e-01 2.159585617482662201e-02 4.313742369413375854e-02 -4.793582856655120850e-02 8.182695508003234863e-01 4.781150221824645996e-01 -1.009677201509475708e-01 2.101244218647480011e-02 -5.746711790561676025e-02 5.306648463010787964e-02 -9.029773622751235962e-02 4.601134359836578369e-02 5.323635935783386230e-01 -7.995201647281646729e-02 -1.157885909080505371e+00 6.615797430276870728e-02 1.458778162486851215e-03 -6.788296997547149658e-02 -3.627881407737731934e-02 -7.470176555216312408e-03 -1.428162679076194763e-02 -1.048456430435180664e-01 4.483060538768768311e-02 -7.039266172796487808e-03 -9.410931915044784546e-02 8.363611996173858643e-02 6.723492592573165894e-02 5.674429982900619507e-02 -1.142226532101631165e-01 -9.597857296466827393e-02 -8.534941822290420532e-02 -3.462183102965354919e-02 -2.655530348420143127e-02 -1.775988936424255371e-02 -1.435117516666650772e-02 1.027759760618209839e-01 7.257384061813354492e-02 4.518158361315727234e-02 -1.089616343379020691e-01 1.300411224365234375e-01 -1.396264601498842239e-02 4.381247237324714661e-02 1.631364524364471436e-01 6.446370482444763184e-02 5.377564579248428345e-02 1.980859786272048950e-02 -1.364556252956390381e-01 6.986877322196960449e-02 -3.430145606398582458e-02 -3.438994288444519043e-02 6.147411093115806580e-02 1.207137480378150940e-02 1.262087225914001465e-01 -4.028959199786186218e-02 6.030222401022911072e-02 -4.589810036122798920e-03 1.380014978349208832e-02 8.258330821990966797e-02 -1.063319563865661621e+00 -1.614413857460021973e-01 1.356976777315139771e-01 4.108697548508644104e-02 2.792385034263134003e-02 -3.660427406430244446e-03 -3.359656035900115967e-02 1.011921390891075134e-01 8.053583651781082153e-02 -2.833117172122001648e-02 2.321880906820297241e-01 -1.138538718223571777e-01 1.033963635563850403e-02 -2.507338225841522217e-01 -9.573397040367126465e-02 7.559520006179809570e-02 -5.562007799744606018e-02 1.295569092035293579e-01 -8.687251806259155273e-02 1.865327656269073486e-01 5.549902468919754028e-02 7.888324856758117676e-01 3.722558915615081787e-02 -5.739957466721534729e-02 1.101043634116649628e-02 1.160021066665649414e+00 -2.262463271617889404e-01 -1.282376050949096680e-01 -1.192088704556226730e-02 -7.824563980102539062e-02 -3.134698420763015747e-02 -2.917254343628883362e-02 -1.562067717313766479e-01 -3.238352946937084198e-03 -1.323002669960260391e-02 -4.789099469780921936e-02 9.992351382970809937e-02 -3.169043455272912979e-03 -7.783106714487075806e-02 1.989730000495910645e-01 -8.399459719657897949e-02 -2.331317663192749023e-01 9.638014435768127441e-02 -5.201782565563917160e-03 -6.326515972614288330e-02 9.046607650816440582e-03 3.024690970778465271e-02 9.072990417480468750e-01 -1.341082900762557983e-01 -9.674112498760223389e-02 8.170242607593536377e-02 -8.631320297718048096e-02 -2.351245842874050140e-02 8.186644315719604492e-02 1.404460370540618896e-01 6.528739631175994873e-02 -8.811821043491363525e-02 -6.270883083343505859e-01 4.578136652708053589e-02 2.902445755898952484e-02 2.731165289878845215e-01 4.026335850358009338e-02 -2.925521507859230042e-02 -7.440139539539813995e-03 -7.215037941932678223e-02 7.076236605644226074e-02 5.388233810663223267e-03 -8.848149329423904419e-02 9.432759881019592285e-02 4.643772915005683899e-02 1.609802395105361938e-01 1.316548883914947510e-01 -5.572528019547462463e-02 -1.042692661285400391e-01 -3.365153074264526367e-02 -5.277551338076591492e-02
-9.320788830518722534e-02 9.110148996114730835e-02 1.932244375348091125e-02 -2.328390628099441528e-02 5.224292278289794922e-01 9.921876788139343262e-01 -1.459369212388992310e-01 8.255241066217422485e-02 -3.218480944633483887e-02 -2.143681282177567482e-03 7.363043427467346191e-01 1.556409709155559540e-02 -6.335378885269165039e-01 -8.293738216161727905e-02 6.344464421272277832e-02 -1.537132263183593750e-01 7.314800471067428589e-02 3.267139941453933716e-02 6.671097129583358765e-02 8.550825715065002441e-02 9.567689895629882812e-02 -1.383973807096481323e-01 9.526009857654571533e-02 6.244195699691772461e-01 7.308226078748703003e-02 9.756337851285934448e-02 4.508181288838386536e-02 -6.232976168394088745e-02 9.381421655416488647e-02 3.286639973521232605e-02 9.223286807537078857e-02 -9.351001679897308350e-02 -8.406551182270050049e-02 1.490066945552825928e-01 -3.075682818889617920e-01 -1.825019866228103638e-01 1.196431089192628860e-02 8.300021290779113770e-02 7.372956722974777222e-02 8.294706046581268311e-02 1.609628647565841675e-01 6.855095922946929932e-02 -1.200082451105117798e-01 1.587312482297420502e-02 1.389409542083740234e+00 3.381335139274597168e-01 -3.591810911893844604e-02 8.698295801877975464e-02 5.788053944706916809e-02 -1.296218205243349075e-02 -1.556712668389081955e-02 8.090041577816009521e-03 6.319741606712341309e-01 -1.620077528059482574e-02 -1.477214217185974121e+00 5.139971524477005005e-02 4.150233417749404907e-02 -1.829996556043624878e-01 -1.385147273540496826e-01 -1.491340994834899902e-02 -7.771824300289154053e-02 -1.383693069219589233e-01 -2.381600206717848778e-03 9.224823862314224243e-02 3.279544180259108543e-03 -1.483528036624193192e-02 1.345150172710418701e-01 -1.327735632658004761e-01 -2.044695466756820679e-01 7.762763649225234985e-02 3.514477983117103577e-02 1.089970096945762634e-01 -2.829295210540294647e-02 -2.012793906033039093e-02 -1.014872193336486816e-01 1.161475107073783875e-01 -1.289865970611572266e-01 -4.954399168491363525e-02 4.596801009029150009e-03 3.587640076875686646e-02 -3.893184289336204529e-02 -1.756195561029016972e-03 1.715768724679946899e-01 8.119525760412216187e-02 3.495481237769126892e-02 1.174599230289459229e-01 -1.473461538553237915e-01 7.112824171781539917e-02 -2.043604254722595215e-01 1.419117450714111328e-01 -1.379186287522315979e-03 -7.476925104856491089e-02 4.001311957836151123e-02 3.504835814237594604e-02 3.664889559149742126e-02 -3.854649513959884644e-02 1.291924864053726196e-01 -3.632366657257080078e-02 -1.313458442687988281e+00 -1.814775019884109497e-01 2.700302749872207642e-02 7.392901182174682617e-02 8.546410501003265381e-02 2.019536122679710388e-02 -8.499888330698013306e-02 3.062094002962112427e-02 -1.121934968978166580e-02 8.177374489605426788e-03 2.529553472995758057e-01 -9.686857461929321289e-02 -5.512485280632972717e-02 -3.487235680222511292e-02 4.230740666389465332e-02 1.947430223226547241e-01 2.703052759170532227e-02 2.054080925881862640e-02 -1.299872696399688721e-01 2.088229805231094360e-01 1.536763971671462059e-03 8.816444873809814453e-01 -9.464151225984096527e-03 -5.576453730463981628e-02 -1.168192028999328613e-01 1.566895365715026855e+00 -2.296402901411056519e-01 2.561601065099239349e-02 1.202384009957313538e-02 1.213574856519699097e-01 -3.584480285644531250e-02 -9.732103347778320312e-02 -6.822412461042404175e-02 -6.661592517048120499e-03 2.289015203714370728e-01 4.803162068128585815e-02 -4.460984095931053162e-02 -1.632705181837081909e-01 -1.152720749378204346e-01 1.518611162900924683e-01 -6.653290241956710815e-02 -1.967857182025909424e-01 -1.721272245049476624e-02 8.891698718070983887e-02 -6.586787849664688110e-02 3.434380143880844116e-02 1.445487886667251587e-01 1.320626854896545410e+00 -6.050750613212585449e-03 -2.326423376798629761e-01 -1.208448559045791626e-01 -3.260427340865135193e-02 -1.265695970505475998e-02 2.684888429939746857e-02 1.018594726920127869e-01 -3.094185516238212585e-02 1.245513465255498886e-02 -4.837439358234405518e-01 -2.732678875327110291e-02 -4.071026295423507690e-02 1.169649809598922729e-01 9.852853417396545410e-02 7.364489138126373291e-02 4.153814166784286499e-02 6.609223783016204834e-02 1.887750625610351562e-01 2.167250029742717743e-02 9.213408455252647400e-03 -1.176143530756235123e-02 7.667626254260540009e-03 1.859242022037506104e-01 1.805019229650497437e-01 6.605362985283136368e-03 -7.153171300888061523e-02 8.330452442169189453e-02 -5.813960358500480652e-02
-4.394390061497688293e-02 1.982018798589706421e-01 -5.267712101340293884e-02 2.589054703712463379e-01 7.068578153848648071e-02 -3.755367919802665710e-02 -4.094796180725097656e-01 -5.171520169824361801e-03 -1.253056675195693970e-01 -4.238742403686046600e-03 1.036810725927352905e-01 6.865751743316650391e-02 -2.687363028526306152e-01 -6.290022730827331543e-01 2.723692953586578369e-01 4.546563923358917236e-01 -7.562151551246643066e-01 1.714007407426834106e-01 -1.639427384361624718e-03 4.349805116653442383e-01 8.367244899272918701e-02 2.595096528530120850e-01 -2.647374756634235382e-02 2.556498944759368896e-01 -6.602960079908370972e-02 8.175917863845825195e-01 -4.956640675663948059e-02 6.179422736167907715e-01 2.646241150796413422e-02 2.583204507827758789e-01 8.848689496517181396e-02 9.506563097238540649e-02 4.355580359697341919e-02 -1.350271403789520264e-01 -2.487733364105224609e-01 9.021956473588943481e-02 4.292808100581169128e-02 -2.900932170450687408e-02 -5.081311613321304321e-02 -3.998234868049621582e-02 4.071225523948669434e-01 4.897860810160636902e-02 9.251447767019271851e-02 -6.324792653322219849e-02 -2.042735181748867035e-02 9.570302069187164307e-02 9.775931239128112793e-01 -1.036350522190332413e-02 -2.124365568161010742e-01 1.630304455757141113e-01 -3.618737310171127319e-02 1.903339624404907227e-01 2.286257920786738396e-03 1.833242774009704590e-01 -2.303695492446422577e-02 -1.705697327852249146e-01 2.177523076534271240e-01 -4.817511513829231262e-02 -2.113483250141143799e-01 1.044775545597076416e-01 -4.072682857513427734e-01 -1.422261297702789307e-01 3.064592182636260986e-01 -2.933855652809143066e-01 -1.203104630112648010e-01 8.413171768188476562e-02 -1.195938587188720703e-01 2.581526637077331543e-01 -9.402411989867687225e-03 -1.550128161907196045e-01 1.250595152378082275e-01 7.392426133155822754e-01 7.119107246398925781e-02 -1.184050692245364189e-03 -4.120027646422386169e-02 7.073048949241638184e-01 -1.585399061441421509e-01 -2.474860548973083496e-01 -3.906736522912979126e-02 1.179953292012214661e-01 -3.849152028560638428e-01 -1.033104304224252701e-02 -4.411729276180267334e-01 -3.272667825222015381e-01 -1.610212773084640503e-01 -3.249116614460945129e-02 -9.156065434217453003e-02 1.586065441370010376e-01 -3.181141912937164307e-01 -4.871933907270431519e-02 -6.637972593307495117e-01 8.254549652338027954e-02 -1.475100871175527573e-02 9.446401149034500122e-03 -2.894187867641448975e-01 -1.257205158472061157e-01 2.833171747624874115e-02 3.252639621496200562e-02 1.646476099267601967e-03 -1.987230330705642700e-01 8.160009980201721191e-02 7.475257385522127151e-03 -3.153722882270812988e-01 -1.405628472566604614e-01 -2.712730467319488525e-01 7.574320584535598755e-02 -6.493769586086273193e-02 6.852157115936279297e-01 1.857069283723831177e-01 7.323884963989257812e-01 -1.492243111133575439e-01 -1.173792108893394470e-01 -3.921991214156150818e-02 2.270956486463546753e-01 6.715399026870727539e-02 -1.905016154050827026e-01 7.103994488716125488e-01 1.429533660411834717e-01 -6.734420545399188995e-03 -5.496672820299863815e-03 -1.602964401245117188e-01 -1.309088319540023804e-01 -3.602761402726173401e-02 -1.282943040132522583e-02 2.368768490850925446e-02 9.640039205551147461e-01 6.748748570680618286e-02 4.112700000405311584e-02 -1.240537390112876892e-01 -2.604484185576438904e-02 -1.165642216801643372e-01 -3.806857764720916748e-02 1.997107118368148804e-01 1.547457743436098099e-02 -9.265325218439102173e-02 -1.077442884445190430e+00 1.348324537277221680e+00 3.553854674100875854e-02 -2.701920084655284882e-02 9.358185529708862305e-01 1.506784260272979736e-01 9.295092821121215820e-01 -9.503627195954322815e-03 -5.127647519111633301e-01 2.816622853279113770e-01 -2.782319672405719757e-02 3.501173481345176697e-02 -9.186884760856628418e-02 8.102281950414180756e-03 8.946366906166076660e-01 2.279885709285736084e-01 1.238677501678466797e-01 1.209142431616783142e-01 2.367573231458663940e-02 -2.972909249365329742e-02 -2.349293380975723267e-01 6.279085278511047363e-01 2.575387991964817047e-02 3.739066123962402344e-01 1.794632971286773682e-01 -6.961897015571594238e-01 -2.737331986427307129e-01 -7.690814137458801270e-01 -6.286740303039550781e-01 4.014046862721443176e-02 -6.891147792339324951e-02 -4.866503924131393433e-02 -7.126280665397644043e-02 -3.607906401157379150e-01 1.214630249887704849e-02 -1.170753955841064453e+00 -5.917025357484817505e-02 1.449997723102569580e-01 6.634648144245147705e-02
1.667475700378417969e-01 -5.519573017954826355e-02 -7.546584308147430420e-02 6.229580938816070557e-02 2.766887545585632324e-01 1.769057154655456543e+00 5.998096242547035217e-02 1.545514073222875595e-02 -1.885291188955307007e-01 1.665666401386260986e-01 2.304722815752029419e-01 -5.874236226081848145e-01 -3.132829666137695312e-01 1.253669708967208862e-01 -1.482795923948287964e-01 -1.366407871246337891e-01 -8.893563598394393921e-02 -6.575495749711990356e-02 -9.826507419347763062e-02 -4.917902499437332153e-02 6.918295472860336304e-02 7.275122916325926781e-04 -1.171792373061180115e-01 1.270195841789245605e-01 -1.699074208736419678e-01 -4.491463303565979004e-02 -6.361752748489379883e-02 -3.684923052787780762e-02 6.611373424530029297e-01 -1.542889792472124100e-02 1.680109381675720215e+00 -3.447303175926208496e-02 -1.142508760094642639e-01 1.012719422578811646e-01 6.556449085474014282e-02 -7.630646973848342896e-02 -5.722917616367340088e-02 2.450525909662246704e-01 -4.468762315809726715e-03 9.979945421218872070e-02 6.497351825237274170e-02 1.062162034213542938e-02 -9.861811995506286621e-02 2.397921122610569000e-02 5.356108546257019043e-01 1.857988536357879639e-01 -1.426235586404800415e-01 -2.081283740699291229e-02 -7.644265145063400269e-02 2.322780787944793701e-01 2.740415334701538086e-01 1.663874462246894836e-02 4.758830070495605469e+00 -1.797870546579360962e-02 -1.222682818770408630e-01 -8.075461536645889282e-02 6.700136582367122173e-04 4.672427475452423096e-01 -1.008077487349510193e-01 -5.640105530619621277e-02 -8.609633892774581909e-02 -5.826252978295087814e-03 1.059470549225807190e-01 -1.896895021200180054e-01 -1.642369925975799561e-01 -2.348388778045773506e-03 5.464969947934150696e-02 -1.847836188971996307e-02 1.538379024714231491e-02 1.148294936865568161e-02 -1.535565108060836792e-01 -5.122141167521476746e-02 1.332828700542449951e-01 -1.757153570652008057e-01 -2.165929041802883148e-02 -1.876397989690303802e-02 1.120477318763732910e-01 7.306832075119018555e-02 8.936689049005508423e-02 -2.889404594898223877e-01 1.056440100073814392e-01 1.428963690996170044e-01 -5.140004307031631470e-02 -1.996912062168121338e-02 -5.358096957206726074e-02 3.948086127638816833e-02 -2.196423336863517761e-02 -8.508944511413574219e-02 -9.981175512075424194e-02 4.043114557862281799e-02 5.743916612118482590e-03 -1.995157152414321899e-01 1.690058112144470215e-01 -2.764695286750793457e-01 -2.773128822445869446e-02 -7.051946967840194702e-02 -3.385149314999580383e-02 6.053964793682098389e-02 -1.872456818819046021e-01 1.564662456512451172e-01 1.136291846632957458e-01 -1.318644452840089798e-02 -3.832863643765449524e-02 4.633941873908042908e-02 4.620497673749923706e-02 -4.158561304211616516e-02 -4.274128749966621399e-02 1.255032885819673538e-02 -1.483317185193300247e-02 4.384794831275939941e-02 2.864204645156860352e-01 3.395295003429055214e-03 2.128180116415023804e-02 -4.849949106574058533e-02 -8.197414875030517578e-02 -1.260591745376586914e-01 -9.903773665428161621e-02 2.359753102064132690e-02 -2.062195166945457458e-02 3.066462755203247070e+00 -5.915905907750129700e-02 9.370088577270507812e-02 -8.480147272348403931e-02 2.298697680234909058e-01 -2.743269689381122589e-02 2.487212419509887695e-02 -7.554107159376144409e-02 -3.425292298197746277e-02 4.559296183288097382e-03 -1.812958955764770508e+00 6.129600107669830322e-02 -8.860435336828231812e-02 -9.442074224352836609e-03 -5.708166211843490601e-02 8.815080672502517700e-02 8.033077418804168701e-02 1.875745248980820179e-03 1.418028399348258972e-02 4.283580183982849121e-02 -1.374114006757736206e-01 1.634437441825866699e-01 2.644519694149494171e-02 -6.648337095975875854e-02 -2.223494276404380798e-02 4.804674535989761353e-02 2.789198756217956543e-01 3.849227353930473328e-02 2.337381392717361450e-01 -9.410611540079116821e-02 4.114833474159240723e-02 -6.617370992898941040e-02 -2.781060636043548584e-01 -5.729029700160026550e-02 -6.852944940328598022e-02 3.607412055134773254e-02 -7.153410464525222778e-02 5.711943283677101135e-02 -8.040766231715679169e-03 -1.895795017480850220e-01 3.621245548129081726e-02 -5.459693074226379395e-02 -5.467846617102622986e-02 5.466378107666969299e-02 5.868962034583091736e-02 6.877899169921875000e-02 -3.951277732849121094e-01 7.486586272716522217e-02 6.570648401975631714e-02 -6.069755554199218750e-02 4.874853417277336121e-02 3.011329658329486847e-02 -4.349382966756820679e-02 1.100304573774337769e-01 7.368724346160888672e-01
8.718591183423995972e-02 -1.316364854574203491e-01 -1.246214881539344788e-01 -9.217330068349838257e-02 2.365409433841705322e-01 3.644159793853759766e+00 -5.344027653336524963e-02 -4.640263319015502930e-02 5.909969657659530640e-02 4.940106067806482315e-03 9.352672100067138672e-02 -3.817627429962158203e-01 -2.165933102369308472e-01 5.836316570639610291e-02 -9.386356920003890991e-02 2.319191815331578255e-03 -9.442147612571716309e-02 -9.012024104595184326e-02 -1.961252279579639435e-02 -2.660695649683475494e-02 -6.098812445998191833e-02 -4.935798048973083496e-02 -2.845298498868942261e-02 2.014133036136627197e-01 -7.464358210563659668e-02 7.515781372785568237e-02 -5.865431949496269226e-02 6.609953194856643677e-02 4.933482408523559570e-01 -8.688834495842456818e-03 1.732074975967407227e+00 1.356446146965026855e-01 -6.942494213581085205e-02 -1.030927873216569424e-03 1.035203114151954651e-01 2.401614934206008911e-02 4.687578231096267700e-02 1.204219907522201538e-01 3.006510809063911438e-02 -5.231289658695459366e-03 9.140034765005111694e-02 6.825549900531768799e-02 1.245684456080198288e-02 -1.026736795902252197e-01 1.015387654304504395e+00 2.421959638595581055e-01 -3.579929843544960022e-02 -5.887715518474578857e-02 9.735655039548873901e-02 -4.579908680170774460e-03 2.486378252506256104e-01 -3.687747812364250422e-04 8.280089378356933594e+00 -1.277218479663133621e-02 -4.366174340248107910e-01 -1.653698533773422241e-01 4.152978211641311646e-02 3.994099795818328857e-01 -8.136933296918869019e-02 -1.180289089679718018e-01 -4.501918703317642212e-02 -2.109691500663757324e-03 5.747452750802040100e-02 -9.329286962747573853e-02 -1.277725845575332642e-01 -2.095710337162017822e-01 -6.658822298049926758e-02 2.060621045529842377e-02 5.567706376314163208e-02 -1.759438216686248779e-02 -1.722783409059047699e-02 -9.454979002475738525e-02 1.617268472909927368e-01 3.707266226410865784e-02 6.577894091606140137e-02 -8.162628859281539917e-02 1.510693281888961792e-01 6.962139904499053955e-02 1.632862687110900879e-01 -1.933611929416656494e-01 5.676780268549919128e-02 1.087742522358894348e-01 8.290559053421020508e-02 -3.152986243367195129e-02 -1.361825503408908844e-02 1.423088610172271729e-01 1.125948205590248108e-01 -1.506030261516571045e-01 2.057876996695995331e-02 -1.289958655834197998e-01 -4.689198732376098633e-02 -6.488862633705139160e-02 8.450564742088317871e-02 -2.001627236604690552e-01 -1.084788963198661804e-01 -1.741728372871875763e-02 4.059484973549842834e-02 9.446147084236145020e-02 -3.949271738529205322e-01 2.128405719995498657e-01 1.570424735546112061e-01 2.047230955213308334e-03 2.779563516378402710e-02 6.261684466153383255e-03 1.055342704057693481e-01 -4.635492339730262756e-02 4.455449432134628296e-02 -1.661149114370346069e-01 -1.673507876694202423e-02 -9.636138379573822021e-02 1.022881418466567993e-01 -6.436978466808795929e-03 -1.059072688221931458e-01 -7.091681659221649170e-02 -7.821323350071907043e-03 -2.607665359973907471e-01 1.081776916980743408e-01 -1.071654707193374634e-01 -4.702102765440940857e-02 5.291311740875244141e+00 -9.520237147808074951e-02 -9.479821473360061646e-02 -9.545235335826873779e-02 2.753146588802337646e-01 1.147194430232048035e-01 4.195683822035789490e-02 -8.950456976890563965e-02 -1.014223620295524597e-01 1.498999893665313721e-01 -1.894245028495788574e+00 9.315796941518783569e-02 -1.445445269346237183e-01 -4.970232769846916199e-02 8.218877017498016357e-02 1.537644267082214355e-01 1.524517536163330078e-01 -6.102536246180534363e-02 -1.481470614671707153e-01 1.400626748800277710e-01 -4.541060328483581543e-02 1.404828131198883057e-01 -6.442561000585556030e-02 -6.587652117013931274e-02 6.317215412855148315e-02 -6.039447337388992310e-02 3.949883282184600830e-01 -1.043492555618286133e-02 1.722214818000793457e-01 3.276595845818519592e-02 2.765487320721149445e-02 2.486718003638088703e-04 -1.678363978862762451e-01 -9.565120190382003784e-02 2.924436889588832855e-02 1.206476315855979919e-01 -3.408783376216888428e-01 -1.686597056686878204e-02 -3.228149842470884323e-03 -3.275925666093826294e-02 -5.964691191911697388e-02 -1.719447225332260132e-02 -8.441510051488876343e-02 -1.132340356707572937e-01 4.501232504844665527e-02 3.710199892520904541e-02 -3.992864489555358887e-01 7.435110956430435181e-02 6.990125030279159546e-02 1.115387082099914551e-01 -1.983542740345001221e-01 3.791768103837966919e-02 -7.628956437110900879e-02 -4.723488166928291321e-02 4.593443572521209717e-01
3.182553127408027649e-02 -8.825062960386276245e-02 -1.301090866327285767e-01 -5.170222744345664978e-02 -8.395650386810302734e-01 2.996613457798957825e-02 -4.629629477858543396e-02 -1.623617559671401978e-01 1.149416416883468628e-01 -1.184521466493606567e-01 -6.725322008132934570e-01 -3.966689982917159796e-04 7.618021965026855469e-01 -9.888173639774322510e-02 3.398093208670616150e-02 -8.612810820341110229e-02 -6.780472397804260254e-02 3.421249240636825562e-02 -4.111405462026596069e-02 6.107942014932632446e-02 -6.849432587623596191e-01 3.862611949443817139e-02 -1.800447404384613037e-01 -8.212577104568481445e-01 -1.122548580169677734e-01 2.040224671363830566e-01 7.061609998345375061e-03 5.497817322611808777e-02 4.569351673126220703e-02 -1.066894009709358215e-01 1.257833931595087051e-02 6.323772668838500977e-02 -6.244979333132505417e-03 -5.480007529258728027e-01 1.282393813133239746e+00 -3.952672239392995834e-03 -8.697304874658584595e-02 -1.935586147010326385e-02 -5.041874572634696960e-02 -6.173433735966682434e-02 1.724031120538711548e-01 1.598596870899200439e-01 8.026088774204254150e-02 -7.709874212741851807e-02 9.452788159251213074e-03 -7.220264077186584473e-01 1.799619793891906738e-01 1.869858615100383759e-02 -2.444278299808502197e-01 1.049709543585777283e-01 3.196952119469642639e-02 1.375227607786655426e-02 -4.259011521935462952e-02 7.161679118871688843e-02 -7.729904353618621826e-02 -3.580359742045402527e-02 5.444847047328948975e-02 2.299149782629683614e-04 -8.373576402664184570e-02 -1.646312177181243896e-01 1.249476801604032516e-02 -1.875474490225315094e-02 1.660430729389190674e-01 -9.399710595607757568e-02 -7.984410226345062256e-02 -2.244659066200256348e-01 -9.904461354017257690e-02 -9.980424493551254272e-02 -6.460966914892196655e-02 7.064298726618289948e-03 3.529864549636840820e-02 4.723435267806053162e-02 8.807988464832305908e-02 1.263597141951322556e-02 -5.039827525615692139e-02 2.548344731330871582e-01 1.251078844070434570e-01 -1.933448314666748047e-01 -2.636426687240600586e-02 -6.913270801305770874e-02 -2.052519023418426514e-01 -4.482471197843551636e-02 4.124454571865499020e-04 -1.066463664174079895e-01 -2.881586551666259766e-01 -4.309987183660268784e-03 3.158079087734222412e-01 1.323293894529342651e-01 -1.825498044490814209e-01 6.355652213096618652e-02 -3.063343092799186707e-02 1.174803152680397034e-01 1.018360555171966553e-01 1.228809058666229248e-01 -1.656979322433471680e-02 -1.336003690958023071e-01 -3.918614983558654785e-02 6.071068346500396729e-03 -3.645815327763557434e-02 1.387565582990646362e-01 -1.022410690784454346e-01 -4.669502004981040955e-02 -7.414723932743072510e-02 -1.079343408346176147e-01 7.574094086885452271e-02 -8.461435139179229736e-02 -1.869684457778930664e-02 8.392253890633583069e-03 -9.709569811820983887e-02 -6.765040755271911621e-02 1.594695597887039185e-01 5.889213830232620239e-02 -3.683837130665779114e-02 -6.035433709621429443e-02 -1.487866491079330444e-01 3.520834818482398987e-02 1.517768017947673798e-02 3.237909451127052307e-02 -6.827047467231750488e-02 -7.285497337579727173e-02 8.899239450693130493e-02 -7.898964732885360718e-02 -6.538101285696029663e-02 1.320028305053710938e-01 -4.112122207880020142e-02 4.236171022057533264e-02 -3.486702740192413330e-01 8.621694892644882202e-02 1.192728728055953979e-01 -8.541427552700042725e-03 9.176615625619888306e-02 9.569565206766128540e-02 1.549053639173507690e-01 -5.164424329996109009e-02 -1.484244465827941895e-01 -1.139187067747116089e-01 5.073082447052001953e-02 -3.379562795162200928e-01 2.081891298294067383e-01 1.576450169086456299e-01 1.353427469730377197e-01 4.106803238391876221e-02 -1.654145307838916779e-03 -5.080130882561206818e-03 2.168555557727813721e-01 1.856555640697479248e-01 -8.469930291175842285e-02 -1.686747670173645020e-01 6.468841433525085449e-02 5.596772953867912292e-02 7.675413787364959717e-02 -8.459917455911636353e-02 -4.169148951768875122e-02 1.020868644118309021e-01 1.863874942064285278e-01 7.842540740966796875e-01 4.822108894586563110e-03 -2.975782565772533417e-02 -1.111116334795951843e-01 6.501231342554092407e-02 -1.172181442379951477e-01 3.515201508998870850e-01 1.121886968612670898e-01 -6.641823053359985352e-02 -2.240013517439365387e-02 -2.366503700613975525e-02 -3.736448939889669418e-03 -5.249074697494506836e-01 7.211135234683752060e-03 -7.995615899562835693e-02 -1.676348745822906494e-01 -4.891531541943550110e-02 3.003034181892871857e-02 9.404347091913223267e-02
-5.133619531989097595e-02 1.470564603805541992e-01 2.294523827731609344e-02 6.846100836992263794e-02 -1.922913789749145508e-01 -1.476146578788757324e+00 -1.481430828571319580e-01 1.782641373574733734e-02 -7.988638244569301605e-03 1.410542875528335571e-01 -9.516204893589019775e-02 7.035304903984069824e-01 8.164888620376586914e-02 -3.267476335167884827e-02 9.684006124734878540e-02 1.161757390946149826e-02 1.723640016280114651e-03 2.941824309527873993e-02 2.772831916809082031e-02 3.378442674875259399e-02 -1.753669679164886475e-01 -3.767354413866996765e-02 -3.371806070208549500e-02 -1.203890517354011536e-01 4.480942338705062866e-02 2.970144525170326233e-02 9.868954122066497803e-02 -4.788492992520332336e-02 -6.936904788017272949e-01 -9.405549615621566772e-02 -1.783397912979125977e+00 3.685464337468147278e-02 -2.653112635016441345e-02 1.252924464643001556e-02 2.062024772167205811e-01 6.906511634588241577e-02 1.686837077140808105e-01 -3.308432698249816895e-01 -9.124871343374252319e-02 1.393581330776214600e-01 -2.533741109073162079e-02 -9.670550376176834106e-02 6.575337797403335571e-02 -8.427237719297409058e-02 -3.420552313327789307e-01 -2.082487642765045166e-01 5.810318514704704285e-02 -5.133796855807304382e-02 -2.143442071974277496e-02 -1.018190383911132812e-01 -2.329188734292984009e-01 4.096547886729240417e-02 -3.164938211441040039e+00 4.645530506968498230e-02 8.426379412412643433e-02 1.225930303335189819e-01 -6.075888499617576599e-02 -2.352766394615173340e-01 2.304390370845794678e-01 -3.407565131783485413e-02 -2.193214558064937592e-02 -1.817098706960678101e-01 1.174302101135253906e-01 6.431246548891067505e-02 -3.981472551822662354e-02 1.695328652858734131e-01 -2.779427217319607735e-03 -9.365182369947433472e-02 -8.054533600807189941e-02 -6.411675363779067993e-02 1.017040461301803589e-01 9.179824590682983398e-02 -1.090722233057022095e-01 5.741364881396293640e-02 -7.332539558410644531e-02 1.770405322313308716e-01 -7.548855990171432495e-02 1.284894905984401703e-02 -1.588377654552459717e-01 1.580356508493423462e-01 -6.520792841911315918e-02 -1.160256788134574890e-01 2.182771079242229462e-02 7.861617207527160645e-02 -2.197401830926537514e-03 -1.178690940141677856e-01 -3.371552750468254089e-02 9.711635112762451172e-02 1.511955708265304565e-01 -9.368693083524703979e-02 4.385526850819587708e-02 5.156105756759643555e-02 -1.531749814748764038e-01 1.873065531253814697e-01 2.789597259834408760e-03 -3.497219830751419067e-02 1.556303258985280991e-02 3.282218798995018005e-02 -4.974133148789405823e-02 -2.024989202618598938e-02 -2.075619101524353027e-01 5.934713408350944519e-02 3.436370193958282471e-02 1.217050403356552124e-01 1.068494934588670731e-02 1.190845519304275513e-01 1.221120357513427734e-01 4.543435946106910706e-02 -6.214721873402595520e-02 2.390244416892528534e-02 -5.023016780614852905e-02 -1.324902176856994629e-01 1.404296159744262695e-01 -2.963120583444833755e-03 2.926569432020187378e-02 5.946476757526397705e-02 2.115207351744174957e-02 -1.148350443691015244e-02 -7.386152446269989014e-02 -2.703539848327636719e+00 -4.197056218981742859e-02 -4.543599113821983337e-02 -9.593363106250762939e-02 -2.447268925607204437e-02 -1.000959873199462891e-01 4.218701738864183426e-03 3.356188163161277771e-02 -2.066514827311038971e-02 4.101695120334625244e-02 1.623019218444824219e+00 -2.971727848052978516e-01 1.298165172338485718e-01 -8.034090697765350342e-02 3.568462654948234558e-02 1.032628118991851807e-01 -1.209750995039939880e-01 6.394910812377929688e-02 -1.318091005086898804e-01 3.918328881263732910e-02 1.303539276123046875e-01 7.669752091169357300e-02 3.829385340213775635e-02 -2.991727739572525024e-02 -2.793285436928272247e-02 -1.841312646865844727e-02 -2.206385135650634766e-01 -1.385095268487930298e-01 9.685975313186645508e-02 1.465441584587097168e-01 1.292248815298080444e-01 1.643724553287029266e-02 2.612312436103820801e-01 1.914110332727432251e-01 -1.096102371811866760e-01 1.657215058803558350e-01 2.038852125406265259e-01 1.022561080753803253e-02 -1.050734147429466248e-01 1.603629440069198608e-01 -6.098398566246032715e-02 -7.991508394479751587e-02 1.218897663056850433e-02 -1.106952056288719177e-01 5.215903278440237045e-03 -1.394973043352365494e-02 6.428202986717224121e-01 -1.553614139556884766e-01 -4.851788654923439026e-02 -1.234593838453292847e-01 1.328051462769508362e-02 3.242423385381698608e-02 -3.373889252543449402e-02 -1.432134360074996948e-01 -4.435518383979797363e-01
-1.120722200721502304e-02 -2.966422140598297119e-01 1.640576124191284180e-01 5.052713677287101746e-02 -2.133870571851730347e-01 -8.347418159246444702e-03 1.355929076671600342e-01 -1.302737593650817871e-01 -6.441438198089599609e-02 2.019195072352886200e-02 -1.551468521356582642e-01 -1.034022215753793716e-02 2.775844037532806396e-01 8.316919952630996704e-02 6.760577112436294556e-02 -2.015767805278301239e-02 1.241615265607833862e-01 -3.241210579872131348e-01 1.305493265390396118e-01 9.082996845245361328e-02 -1.212538108229637146e-01 8.063002675771713257e-02 -9.020846337080001831e-02 -1.129334792494773865e-01 -1.717959791421890259e-01 1.910720020532608032e-02 9.490863084793090820e-01 -1.175353117287158966e-02 2.706396579742431641e-02 2.196191996335983276e-01 1.247805077582597733e-02 1.817442476749420166e-01 1.010720133781433105e-01 -5.097941681742668152e-02 -6.171143800020217896e-02 -3.352940082550048828e-02 7.152358442544937134e-02 3.272934351116418839e-03 7.848486900329589844e-01 -1.921666860580444336e-01 -9.278839081525802612e-02 7.105228304862976074e-02 -1.757847368717193604e-01 -5.386968851089477539e-01 -1.067234054207801819e-01 -2.315820604562759399e-01 1.556027913466095924e-03 -7.768326401710510254e-01 -2.149268388748168945e-01 9.984399378299713135e-02 -1.500084698200225830e-01 1.796254888176918030e-02 4.555858671665191650e-02 2.794177234172821045e-01 8.577576279640197754e-02 -1.826074719429016113e-02 1.286672353744506836e-01 1.276965718716382980e-02 4.045190662145614624e-02 -4.290343821048736572e-02 3.319345042109489441e-02 -4.748253896832466125e-02 -3.965782374143600464e-02 4.039660096168518066e-03 -1.127920746803283691e-01 -2.941224165260791779e-02 -9.607654064893722534e-02 1.778601109981536865e-02 -4.194147512316703796e-02 8.251536488533020020e-01 2.003125473856925964e-02 -8.347794413566589355e-02 2.318505048751831055e-01 6.039524823427200317e-02 8.495487570762634277e-01 3.643403947353363037e-02 -1.532060056924819946e-01 -2.245060503482818604e-01 7.043034303933382034e-03 1.839209161698818207e-02 6.751958280801773071e-02 -5.957562103867530823e-02 -1.647416502237319946e-02 -4.071140289306640625e-02 -8.997611701488494873e-02 2.134816795587539673e-01 -6.624381989240646362e-02 1.857172697782516479e-01 9.042463265359401703e-03 8.425387740135192871e-02 -1.987410476431250572e-03 5.156420543789863586e-02 -1.643516868352890015e-01 1.071554236114025116e-02 -3.492823541164398193e-01 -2.234430015087127686e-01 4.799538478255271912e-02 5.242024064064025879e-01 6.877712160348892212e-02 -1.584211140871047974e-01 -9.021323174238204956e-02 5.958588719367980957e-01 -2.308293879032135010e-01 1.614783890545368195e-02 -1.519643515348434448e-01 8.595217764377593994e-02 4.922381415963172913e-02 9.842655062675476074e-02 1.450247466564178467e-01 1.371371895074844360e-01 5.429320409893989563e-02 -9.814837016165256500e-03 1.547871083021163940e-01 -1.033111140131950378e-01 1.336503028869628906e-01 -3.906811773777008057e-02 1.194984242320060730e-01 -1.043842080980539322e-02 8.207421302795410156e-01 3.686835244297981262e-02 3.853265568614006042e-02 6.888635754585266113e-01 -1.168177798390388489e-01 -4.541507363319396973e-02 -3.476677834987640381e-02 1.202572807669639587e-01 -1.670896820724010468e-02 -1.551652252674102783e-01 3.369389474391937256e-02 2.885016612708568573e-03 -4.767050594091415405e-02 -3.545400127768516541e-02 -1.446908563375473022e-01 2.541518211364746094e-01 1.428395062685012817e-01 -1.312437504529953003e-01 1.092511564493179321e-01 -1.097123250365257263e-01 1.336833685636520386e-01 8.226572722196578979e-02 8.939743041992187500e-02 -4.201157949864864349e-03 8.239516019821166992e-01 -1.836640387773513794e-02 -1.965390704572200775e-02 -1.390366256237030029e-01 -7.173179090023040771e-02 -2.593218348920345306e-02 -2.054233849048614502e-01 5.329148843884468079e-02 1.172514036297798157e-01 -1.031844168901443481e-01 9.744336456060409546e-02 3.833439201116561890e-02 -9.167127311229705811e-02 2.646445930004119873e-01 3.418459370732307434e-02 1.377375889569520950e-02 5.826691538095474243e-02 6.482831835746765137e-01 -5.669006146490573883e-03 -2.501481212675571442e-02 1.324123442173004150e-01 -4.635867103934288025e-02 -6.218270212411880493e-02 -6.244027614593505859e-02 1.766579896211624146e-01 2.536825835704803467e-02 9.814189374446868896e-02 -2.695050090551376343e-02 -2.021702378988265991e-02 -6.678776144981384277e-01 -1.353936493396759033e-01 -8.007722347974777222e-02
-2.146721035242080688e-01 -2.454924769699573517e-02 2.895631082355976105e-02 3.199998755007982254e-03 2.816149294376373291e-01 3.004637718200683594e+00 -1.472860574722290039e-01 2.500423789024353027e-01 3.440880775451660156e-02 -1.684596538543701172e-01 5.733668208122253418e-01 9.087714552879333496e-02 -3.928661644458770752e-01 3.164831176400184631e-02 -4.844111204147338867e-02 -7.793805003166198730e-02 -1.077755317091941833e-01 1.308436039835214615e-02 -8.274830877780914307e-02 -5.886888504028320312e-02 4.609708115458488464e-02 1.760680042207241058e-02 -5.151466652750968933e-02 4.537083208560943604e-01 -3.105492703616619110e-02 6.787665933370590210e-02 6.103688478469848633e-02 -1.445235908031463623e-01 1.033752262592315674e-01 9.259442985057830811e-02 8.783973753452301025e-02 2.281609736382961273e-02 -2.779845893383026123e-01 3.409130871295928955e-02 -2.369648963212966919e-01 1.521697500720620155e-03 -1.927993893623352051e-01 -7.451547682285308838e-02 -3.185068443417549133e-02 3.229808434844017029e-02 1.611677855253219604e-01 -8.069157600402832031e-02 -9.554271399974822998e-02 -3.820247948169708252e-02 2.882660627365112305e+00 4.437054693698883057e-01 -1.646490842103958130e-01 6.444089114665985107e-03 3.319512605667114258e-01 -1.704015284776687622e-01 -4.301452636718750000e-02 -1.003070827573537827e-02 1.573017120361328125e+00 -7.107733935117721558e-02 -1.138718724250793457e+00 -4.161624982953071594e-02 -2.258499711751937866e-02 -6.903710216283798218e-02 -2.171551585197448730e-01 -4.758118838071823120e-02 5.934844911098480225e-02 -6.444063503295183182e-03 3.024618700146675110e-02 3.337800130248069763e-02 -1.569322049617767334e-01 -1.515478044748306274e-01 3.378019481897354126e-02 -7.180778682231903076e-02 -1.705067157745361328e-01 -1.211856957525014877e-02 4.165970161557197571e-02 1.018141135573387146e-01 3.924276679754257202e-02 1.117987651377916336e-02 9.819561615586280823e-03 -9.168750792741775513e-02 4.925822094082832336e-02 -1.374575942754745483e-01 1.368658840656280518e-01 -2.829906903207302094e-02 2.379262074828147888e-02 2.246875464916229248e-01 5.376123636960983276e-02 2.561710961163043976e-02 9.838396310806274414e-02 1.498123165220022202e-02 -8.465455472469329834e-02 -4.107868671417236328e-02 -1.862185597419738770e-01 9.452711790800094604e-02 1.798549480736255646e-02 1.219985261559486389e-01 2.156113274395465851e-02 -1.829255931079387665e-02 -1.190599873661994934e-01 -8.008262515068054199e-02 -7.014784216880798340e-02 -1.645791530609130859e-02 -1.214603781700134277e+00 -1.230293363332748413e-01 4.050787165760993958e-02 7.956343144178390503e-02 -1.544102746993303299e-02 -6.818548310548067093e-03 1.465186774730682373e-01 3.479121625423431396e-02 7.178158313035964966e-02 -2.718201838433742523e-02 1.582569032907485962e-01 -8.792567066848278046e-03 -1.888181567192077637e-01 -2.527221441268920898e-01 4.386680945754051208e-02 5.086449906229972839e-02 2.957013435661792755e-02 -1.205513719469308853e-03 -8.954360336065292358e-02 1.360542625188827515e-01 -2.957936190068721771e-02 2.820682525634765625e+00 8.370437659323215485e-03 8.195182681083679199e-02 -5.606627091765403748e-02 1.114610433578491211e+00 -4.513280093669891357e-02 -8.230623602867126465e-02 -1.143044084310531616e-01 -5.262628942728042603e-02 2.429247088730335236e-02 -1.175149306654930115e-01 1.700859516859054565e-02 -2.468686178326606750e-02 1.302822530269622803e-01 2.622574102133512497e-03 -8.458547294139862061e-02 -5.253966897726058960e-03 -5.402350425720214844e-02 5.158784985542297363e-02 -1.361036300659179688e-01 -1.802833527326583862e-01 2.111938782036304474e-02 1.301629543304443359e-01 -6.942732259631156921e-03 1.252762228250503540e-01 -4.083819314837455750e-02 2.043018341064453125e+00 3.887585178017616272e-02 -2.370283603668212891e-01 -1.247652061283588409e-02 -9.270112216472625732e-02 -1.130064874887466431e-01 2.098601758480072021e-01 -2.935897093266248703e-03 2.609687857329845428e-02 1.514346804469823837e-02 -3.710224926471710205e-01 2.168360725045204163e-02 1.828038543462753296e-01 7.385183125734329224e-02 -4.648778587579727173e-02 -1.085234731435775757e-01 5.460124462842941284e-02 -7.960204780101776123e-02 3.142312541604042053e-02 8.524827659130096436e-02 -6.692762672901153564e-02 -1.861629076302051544e-02 -2.906526997685432434e-02 1.341305077075958252e-01 1.720968782901763916e-01 -9.495963156223297119e-02 1.701600267551839352e-03 4.875225946307182312e-02 -1.573756486177444458e-01
4.628371447324752808e-02 2.762263715267181396e-01 5.383582785725593567e-02 -4.186134412884712219e-02 2.524852156639099121e-01 -1.112552545964717865e-02 -3.689922019839286804e-02 1.598229110240936279e-01 5.037888139486312866e-02 -1.638502478599548340e-01 1.195327565073966980e-01 7.932058721780776978e-02 -1.932583153247833252e-01 -7.121401280164718628e-02 -1.258232593536376953e-01 -2.124475315213203430e-02 6.271064281463623047e-02 2.844532728195190430e-01 -3.751409798860549927e-02 -5.387284606695175171e-02 -3.888356313109397888e-02 -1.204750835895538330e-01 8.976727724075317383e-02 1.241499260067939758e-01 7.661538571119308472e-02 -4.311752319335937500e-02 -8.908452391624450684e-01 -8.536995388567447662e-03 -4.767671599984169006e-02 -3.530298173427581787e-01 -4.871913418173789978e-02 -2.127656340599060059e-01 -1.710062175989151001e-01 3.951490670442581177e-02 -5.410298332571983337e-02 3.346109762787818909e-02 -3.592790663242340088e-02 6.319579482078552246e-02 -6.988372802734375000e-01 2.552777528762817383e-01 -1.225522719323635101e-02 -6.576810032129287720e-02 1.528265178203582764e-01 4.744800925254821777e-01 1.308997124433517456e-01 1.777665168046951294e-01 -1.271654814481735229e-01 9.133276939392089844e-01 1.490193605422973633e-01 -1.398539915680885315e-02 1.406729668378829956e-01 5.539993569254875183e-02 -1.000315845012664795e-01 -2.020022720098495483e-01 -9.007368236780166626e-02 1.351291537284851074e-01 4.105318337678909302e-02 8.838591724634170532e-02 -3.981221094727516174e-02 -1.197016462683677673e-01 -7.526353001594543457e-02 1.756208986043930054e-01 2.180816829204559326e-01 5.055372603237628937e-03 1.194730848073959351e-01 9.051370620727539062e-02 1.266171187162399292e-01 1.099667400121688843e-01 9.090385586023330688e-02 -8.389574289321899414e-01 -6.478182971477508545e-02 7.004217058420181274e-02 4.297316819429397583e-02 -9.043018519878387451e-02 -8.469883799552917480e-01 -5.250878259539604187e-02 1.159288808703422546e-01 1.447966098785400391e-01 -9.477168321609497070e-03 -5.228179320693016052e-02 6.875030696392059326e-02 -7.460276782512664795e-02 -5.053021013736724854e-02 1.358894854784011841e-01 1.597451269626617432e-01 -9.722608327865600586e-02 1.911806613206863403e-01 -1.421942859888076782e-01 -1.951060444116592407e-01 -4.059495031833648682e-02 -4.064873978495597839e-02 4.141248296946287155e-03 9.971887618303298950e-02 4.253469780087471008e-02 2.823281884193420410e-01 1.682081371545791626e-01 -5.693378672003746033e-02 -5.512472391128540039e-01 -5.630275979638099670e-02 -1.837124861776828766e-02 7.132402062416076660e-02 -5.729727149009704590e-01 2.458183169364929199e-01 -1.805323213338851929e-01 1.294541805982589722e-01 -1.708520054817199707e-01 -9.491337090730667114e-02 -1.113185286521911621e-01 -9.238885715603828430e-03 -3.330658748745918274e-02 -6.809356063604354858e-02 -1.174507010728120804e-02 -2.491261214017868042e-01 1.588493026793003082e-02 -2.039792239665985107e-01 -1.136259883642196655e-01 5.218122527003288269e-02 -3.555433452129364014e-02 -7.267061471939086914e-01 -1.032312214374542236e-01 5.272169783711433411e-02 -8.613060116767883301e-01 2.632659673690795898e-02 1.022897213697433472e-01 -1.232399642467498779e-01 -1.251606643199920654e-01 -6.926327198743820190e-02 3.991685062646865845e-02 -5.912766978144645691e-02 -1.446095947176218033e-02 9.989303350448608398e-02 1.204857900738716125e-01 9.079238399863243103e-03 -1.970784813165664673e-01 -6.245232000946998596e-02 1.497464627027511597e-01 -9.180845320224761963e-02 -2.187722735106945038e-02 -1.383863016963005066e-02 -1.591281443834304810e-01 -2.631918191909790039e-01 7.585690915584564209e-02 -7.799167633056640625e-01 -5.857926607131958008e-02 1.529635302722454071e-02 1.031888350844383240e-01 7.272489368915557861e-02 7.949302345514297485e-02 -3.882769495248794556e-02 -2.913260459899902344e-02 -2.987664937973022461e-01 -5.877643357962369919e-03 -9.415395557880401611e-03 -6.072570383548736572e-02 6.743682920932769775e-02 -2.331438362598419189e-01 -3.262534737586975098e-02 -5.083088949322700500e-02 9.841643273830413818e-02 -5.931434035301208496e-01 4.974237456917762756e-02 -7.942470721900463104e-03 1.932539232075214386e-02 6.068922951817512512e-02 -1.099139153957366943e-01 -4.068918153643608093e-02 -1.785843074321746826e-01 -2.702540904283523560e-02 -1.152053549885749817e-01 -1.474259048700332642e-02 -2.021671831607818604e-02 6.849820017814636230e-01 -1.232705451548099518e-02 7.263784855604171753e-02
-1.805845648050308228e-02 -7.893069833517074585e-02 -1.837822943925857544e-01 -1.454237252473831177e-01 6.730577349662780762e-02 -1.403255164623260498e-01 -6.080347299575805664e-02 -2.406124919652938843e-01 3.785586357116699219e-02 -2.451321184635162354e-01 1.147596761584281921e-01 -5.235015414655208588e-03 5.483430344611406326e-03 -1.150421023368835449e+00 9.023187309503555298e-02 1.249900579452514648e+00 1.524522062391042709e-02 -1.521441899240016937e-02 4.062785208225250244e-02 3.843827173113822937e-02 -4.146807268261909485e-02 5.606890469789505005e-02 6.086667627096176147e-02 6.345637608319520950e-03 -2.563901431858539581e-02 1.411123573780059814e-01 -3.461002185940742493e-02 1.400228738784790039e+00 9.136063605546951294e-02 1.191757712513208389e-02 2.153816819190979004e-02 7.360945641994476318e-02 2.339368164539337158e-01 1.117867697030305862e-02 1.268076449632644653e-01 -1.734303832054138184e-01 2.325531095266342163e-03 6.053970381617546082e-02 1.966772601008415222e-02 -1.287665367126464844e-01 1.522571295499801636e-01 3.098180890083312988e-02 8.683278411626815796e-02 2.532520331442356110e-02 -1.109165474772453308e-01 -1.085023656487464905e-01 2.410935163497924805e-01 1.531143486499786377e-02 -3.234015107154846191e-01 6.479810178279876709e-02 3.639142587780952454e-02 2.419191645458340645e-03 -4.899807274341583252e-02 2.474307864904403687e-01 2.366346679627895355e-02 -1.129731982946395874e-01 4.671814851462841034e-03 -5.460687726736068726e-02 -4.081620275974273682e-01 -9.053221344947814941e-02 -4.334858432412147522e-02 1.115555986762046814e-01 1.565753072500228882e-01 -1.483709271997213364e-02 -8.019745349884033203e-02 -2.273498289287090302e-02 -5.305196717381477356e-02 2.491420134902000427e-02 -1.819799989461898804e-01 -8.911612443625926971e-03 3.676222264766693115e-02 9.240920543670654297e-01 1.171716973185539246e-01 4.731496423482894897e-02 4.032964818179607391e-03 1.873825341463088989e-01 1.717387698590755463e-02 -2.368509173393249512e-01 -1.219935342669487000e-01 -1.587745696306228638e-01 4.613377153873443604e-02 5.176082253456115723e-02 -6.680169701576232910e-01 1.798206195235252380e-02 -1.523376554250717163e-01 1.237627193331718445e-01 6.076708808541297913e-02 -5.518855154514312744e-02 -2.015920877456665039e-01 -4.855106770992279053e-02 -7.985108494758605957e-01 7.165464758872985840e-02 -8.523762226104736328e-02 -1.757438108325004578e-02 1.536267343908548355e-02 -3.015636280179023743e-02 6.038608774542808533e-02 1.072391495108604431e-02 1.619350723922252655e-02 8.484805375337600708e-02 5.975351855158805847e-02 3.457472100853919983e-02 -2.468092888593673706e-01 3.707107901573181152e-02 1.338459458202123642e-02 -6.218786537647247314e-02 -9.953875094652175903e-02 5.734074711799621582e-01 -1.369463838636875153e-02 1.788133680820465088e-01 7.946399599313735962e-02 -6.235323846340179443e-02 -1.668915301561355591e-01 1.070104166865348816e-01 -9.107677638530731201e-02 -6.784485280513763428e-02 4.373036697506904602e-02 1.139558032155036926e-01 -9.777060151100158691e-02 -6.798071414232254028e-02 9.526605159044265747e-02 -5.054073035717010498e-02 -5.239136144518852234e-02 5.094758421182632446e-02 -1.587977260351181030e-01 5.139617919921875000e-01 -1.859824806451797485e-01 -4.202258959412574768e-02 -6.612616032361984253e-02 1.473392825573682785e-02 -2.157236449420452118e-02 -4.190137609839439392e-02 1.010034605860710144e-01 -1.401481628417968750e-01 -1.707911342382431030e-01 -1.345875710248947144e-01 1.894082725048065186e-01 -3.549640625715255737e-02 2.477755546569824219e-01 -3.404576331377029419e-02 -5.182205885648727417e-02 7.624332904815673828e-01 -3.787263482809066772e-02 -1.260987877845764160e+00 1.487072855234146118e-01 -4.648960195481777191e-03 -4.045282676815986633e-02 -1.530893146991729736e-01 1.012327447533607483e-01 1.683587431907653809e+00 2.048115879297256470e-01 -8.594139665365219116e-02 1.048855632543563843e-01 9.925995022058486938e-02 1.317657977342605591e-01 -7.518303394317626953e-02 1.094127655029296875e+00 1.304122209548950195e-01 8.629964292049407959e-02 -2.256004139780998230e-03 -1.799219697713851929e-01 8.739237487316131592e-02 -1.426420450210571289e+00 -1.690945744514465332e+00 1.115786284208297729e-01 -2.720083110034465790e-03 1.179075893014669418e-02 -1.754545867443084717e-01 -2.704172162339091301e-03 -1.754714921116828918e-02 -2.569171190261840820e-01 -2.653921209275722504e-02 6.451078504323959351e-02 3.059718757867813110e-02
-7.711309939622879028e-02 6.516707688570022583e-02 2.477629035711288452e-01 3.433089330792427063e-02 -1.247728914022445679e-01 -2.025364398956298828e+00 4.188662394881248474e-02 8.675380796194076538e-02 1.066292375326156616e-01 -1.809073090553283691e-01 -8.445990085601806641e-02 6.856034398078918457e-01 2.352559193968772888e-02 3.842127975076436996e-03 2.769341133534908295e-02 -2.486320957541465759e-02 7.582850754261016846e-02 -1.524872612208127975e-02 3.154708771035075188e-03 1.144032105803489685e-01 -1.418465096503496170e-02 -6.651185452938079834e-02 8.252968639135360718e-02 -6.191232800483703613e-02 1.152602806687355042e-01 -3.816056251525878906e-02 -4.020092263817787170e-02 3.659254685044288635e-02 -6.157730221748352051e-01 -8.616799488663673401e-03 -1.968325376510620117e+00 4.535367712378501892e-02 -6.098371744155883789e-02 -1.146200671792030334e-01 -3.146714717149734497e-02 1.013838965445756912e-02 2.098133321851491928e-03 -1.382361501455307007e-01 -2.540960535407066345e-02 2.074239589273929596e-02 -4.786091297864913940e-02 -1.114900335669517517e-01 1.433454900979995728e-01 7.378311455249786377e-02 -5.252483487129211426e-01 -1.764656305313110352e-01 1.400976032018661499e-01 4.756687581539154053e-02 1.997737884521484375e-01 -6.078904867172241211e-02 -1.448164582252502441e-01 9.506367146968841553e-02 -5.083540439605712891e+00 7.616593688726425171e-02 2.103337347507476807e-01 9.503900259733200073e-02 3.268830105662345886e-02 -3.572211563587188721e-01 7.884814403951168060e-03 -8.856432512402534485e-03 -2.152001298964023590e-02 1.096037309616804123e-02 -1.113966330885887146e-01 3.629128634929656982e-02 7.226710021495819092e-02 1.951633244752883911e-01 3.095714375376701355e-03 -1.060363203287124634e-01 -4.247343167662620544e-02 6.023673713207244873e-02 1.113080307841300964e-01 2.651284076273441315e-02 -1.963948644697666168e-02 1.082849428057670593e-01 8.195905387401580811e-02 3.087940067052841187e-02 -7.885756343603134155e-02 -9.591167420148849487e-02 -4.157654568552970886e-02 2.541594207286834717e-01 3.964096680283546448e-02 -3.633346408605575562e-02 3.946992009878158569e-02 1.182758808135986328e-01 -1.154880672693252563e-01 -1.251890361309051514e-01 2.420783042907714844e-02 1.842973008751869202e-02 -1.162497028708457947e-01 2.784182690083980560e-02 -6.070144101977348328e-02 1.828730106353759766e-01 6.565777212381362915e-02 3.371631205081939697e-01 1.372773759067058563e-02 2.532577328383922577e-02 5.023856088519096375e-02 -3.429224714636802673e-02 2.221457362174987793e-01 -8.059129118919372559e-02 -5.877474322915077209e-02 6.667011231184005737e-02 -6.212958134710788727e-03 1.095744743943214417e-01 4.989502578973770142e-02 -6.739386171102523804e-02 3.005789965391159058e-02 -7.971100509166717529e-02 -2.750981785356998444e-02 -1.899492368102073669e-02 -1.470029354095458984e-01 3.768839314579963684e-02 2.921493165194988251e-02 -2.836427837610244751e-02 -1.946865208446979523e-02 5.571746826171875000e-02 6.559786945581436157e-02 -1.565105468034744263e-01 5.664111301302909851e-02 -3.266582965850830078e+00 -5.728472396731376648e-02 -4.405559971928596497e-02 -8.777345716953277588e-02 -2.640888392925262451e-01 1.084754765033721924e-01 6.481974385678768158e-03 1.282891184091567993e-01 -1.104690954089164734e-01 -1.137557774782180786e-01 1.821862339973449707e+00 9.528507292270660400e-02 1.401296854019165039e-01 2.320615202188491821e-02 -4.970378428697586060e-02 -1.241765767335891724e-01 5.866465717554092407e-02 5.532355979084968567e-02 6.918881833553314209e-02 4.901264235377311707e-02 1.481647510081529617e-02 4.596301540732383728e-02 -1.397709641605615616e-02 -4.719469696283340454e-02 7.127407193183898926e-02 -7.743220310658216476e-03 -1.508363932371139526e-01 4.815106838941574097e-02 -5.219868198037147522e-02 4.863446578383445740e-02 -1.606412045657634735e-02 -4.402248561382293701e-02 2.410921603441238403e-01 -1.256876736879348755e-01 4.173461720347404480e-02 1.582603715360164642e-02 1.350665986537933350e-01 4.963302984833717346e-02 -5.399002507328987122e-02 1.446573138236999512e-01 2.607299946248531342e-03 3.043635003268718719e-02 8.119714260101318359e-02 -6.730392575263977051e-02 -1.341534256935119629e-01 -1.744066625833511353e-01 3.926087319850921631e-01 -1.286208331584930420e-01 -5.588797852396965027e-02 8.102351427078247070e-02 -4.651597887277603149e-02 1.143298763781785965e-02 7.045312225818634033e-02 -1.420848653651773930e-03 -8.827409744262695312e-01
-1.878279447555541992e-01 2.241053134202957153e-01 2.183023281395435333e-02 7.321300357580184937e-02 -6.165260076522827148e-02 -4.222209453582763672e-01 5.909188091754913330e-02 -7.937709093093872070e-01 -1.292122304439544678e-01 2.676398754119873047e-01 4.692448675632476807e-02 -2.946932017803192139e-01 -7.844964414834976196e-02 -1.613582018762826920e-03 5.095623731613159180e-01 -1.355182081460952759e-01 1.305852364748716354e-02 1.263636499643325806e-01 4.220915734767913818e-01 2.346308976411819458e-01 1.666433811187744141e-01 -8.702173084020614624e-02 6.278675794601440430e-02 -1.416998505592346191e-01 -4.474691450595855713e-01 -8.663658984005451202e-03 9.570454806089401245e-02 1.144151240587234497e-01 2.347820848226547241e-01 2.026061862707138062e-01 7.141367346048355103e-02 3.505223691463470459e-01 7.744283080101013184e-01 1.333350539207458496e-01 -3.563007712364196777e-01 4.223000258207321167e-02 3.570187545847147703e-04 2.152412533760070801e-01 7.271461188793182373e-02 -3.939444124698638916e-01 -1.207886114716529846e-01 -2.963397502899169922e-01 -1.919712722301483154e-01 -9.764210134744644165e-02 -2.739727199077606201e-01 9.967095404863357544e-02 -5.271651968359947205e-02 -1.574317812919616699e-01 -9.691808223724365234e-01 2.676317393779754639e-01 2.940293550491333008e-01 -1.542567461729049683e-01 3.940653204917907715e-01 -4.622175171971321106e-02 2.279554009437561035e-01 -2.079293429851531982e-01 -1.929010748863220215e-01 -1.253840327262878418e-01 6.936095654964447021e-02 -7.041668146848678589e-02 -2.428029477596282959e-01 5.806898325681686401e-02 -2.104609608650207520e-01 -2.057297825813293457e-01 -3.714784681797027588e-01 1.189886331558227539e-01 1.457098126411437988e-01 9.131006896495819092e-02 -2.318389713764190674e-02 7.686337828636169434e-02 -1.791140884160995483e-01 -1.030417904257774353e-01 1.107853353023529053e-01 -3.841606676578521729e-01 2.008100412786006927e-02 2.807472273707389832e-02 -1.095459535717964172e-01 1.599463820457458496e-02 2.422657562419772148e-03 3.257328271865844727e-01 -1.380814015865325928e-01 -8.018264174461364746e-02 1.348426789045333862e-01 4.283773899078369141e-02 8.396933227777481079e-02 2.920406162738800049e-01 1.085270270705223083e-01 -2.655998058617115021e-02 2.933508455753326416e-01 -1.148946303874254227e-02 1.686673015356063843e-01 -7.647437602281570435e-02 -1.270538419485092163e-01 -1.730102896690368652e-01 -2.518413364887237549e-01 -2.532383799552917480e-01 2.720347046852111816e-01 -5.071974545717239380e-02 3.537642657756805420e-01 -1.033915504813194275e-01 -5.289204418659210205e-02 5.617547407746315002e-02 -1.373441517353057861e-01 3.502652645111083984e-01 -1.715172678232192993e-01 2.856818139553070068e-01 4.022232294082641602e-01 -1.710947155952453613e-01 1.462187618017196655e-02 -4.450560361146926880e-02 -3.955724835395812988e-01 2.513515949249267578e-02 4.142957329750061035e-01 8.227537572383880615e-02 1.318776458501815796e-01 1.677605509757995605e-01 1.613997109234333038e-02 -9.993764013051986694e-02 -9.544210624881088734e-04 1.657911986112594604e-01 4.444238245487213135e-01 -4.095267131924629211e-02 6.685768812894821167e-02 -1.703708618879318237e-01 3.058025240898132324e-01 -4.446884244680404663e-02 1.159223690629005432e-01 -8.239490538835525513e-02 -1.533998250961303711e-01 -1.659582704305648804e-01 -4.588082805275917053e-02 -4.219374358654022217e-01 -1.980617046356201172e-01 6.044016778469085693e-02 1.877515465021133423e-01 2.544223330914974213e-02 -4.176909476518630981e-02 -9.447962045669555664e-02 -1.632237434387207031e-02 -4.611638188362121582e-02 2.619433701038360596e-01 3.308725357055664062e-02 2.614614740014076233e-02 -4.546584188938140869e-02 4.400565475225448608e-02 -1.333040744066238403e-01 3.995567560195922852e-02 -1.895935982465744019e-01 -1.762213259935379028e-01 1.761859655380249023e-02 1.208426877856254578e-01 4.475218057632446289e-01 -8.230765908956527710e-02 3.969646990299224854e-02 -3.228314518928527832e-01 8.232586830854415894e-02 3.700489178299903870e-02 3.841069340705871582e-01 4.667850211262702942e-02 -1.885963231325149536e-02 1.608254574239253998e-02 -1.406090408563613892e-01 2.716523781418800354e-02 3.933810070157051086e-02 9.968651831150054932e-02 -1.482256650924682617e-01 1.209112033247947693e-01 2.589157819747924805e-01 6.967538595199584961e-02 2.411882579326629639e-01 1.669130027294158936e-01 2.325837686657905579e-02 2.694959938526153564e-01 -3.460789620876312256e-01
6.841092370450496674e-03 -2.965945377945899963e-02 2.095949351787567139e-01 8.709640055894851685e-02 -1.488827466964721680e-01 -3.270924806594848633e+00 -3.208084776997566223e-02 -3.254412673413753510e-03 6.743660569190979004e-02 1.279507484287023544e-02 -1.257076412439346313e-01 2.885825037956237793e-01 8.121816813945770264e-02 -6.750221550464630127e-02 -5.585125833749771118e-02 8.993076160550117493e-03 -1.396766398102045059e-02 -3.730740398168563843e-02 -5.522336810827255249e-02 -8.182417601346969604e-02 4.828929156064987183e-02 -1.048965007066726685e-01 2.137242071330547333e-02 -1.075211167335510254e-01 -2.568045258522033691e-02 7.160883396863937378e-02 -4.462095722556114197e-02 6.509102880954742432e-02 -3.442184925079345703e-01 1.115199625492095947e-01 -2.042077302932739258e+00 -1.336312890052795410e-01 -5.318894609808921814e-02 -5.572346970438957214e-02 3.590684011578559875e-02 1.710885912179946899e-01 1.069863438606262207e-01 -4.404631443321704865e-03 -5.304769426584243774e-02 4.971974343061447144e-02 -7.056362926959991455e-02 2.042984589934349060e-02 1.014785468578338623e-02 -8.617084473371505737e-02 -7.671729922294616699e-01 -2.551465928554534912e-01 -3.825819492340087891e-02 8.602660894393920898e-02 -7.893976569175720215e-02 -7.144143432378768921e-02 -4.818728566169738770e-02 -1.068947091698646545e-01 -7.110378742218017578e+00 1.120042428374290466e-01 2.580109834671020508e-01 4.265298321843147278e-02 1.005312204360961914e-01 -4.335104227066040039e-01 4.328332468867301941e-02 8.409903198480606079e-02 1.919273138046264648e-01 1.237898692488670349e-01 -8.497682213783264160e-02 2.348150685429573059e-02 -2.756099589169025421e-02 1.843962222337722778e-01 7.585114333778619766e-03 -1.359115689992904663e-01 -8.625594526529312134e-02 4.173202812671661377e-02 3.873019665479660034e-02 -3.968511149287223816e-02 -3.435711935162544250e-02 1.526408940553665161e-01 -7.282122224569320679e-02 3.741572797298431396e-02 -1.090662702918052673e-01 -1.022123731672763824e-02 -1.828614994883537292e-02 1.193514466285705566e-01 -7.166692614555358887e-02 -1.483264118432998657e-01 -5.474063754081726074e-02 8.667877875268459320e-03 6.183445081114768982e-02 -6.823585182428359985e-02 -5.143821239471435547e-02 2.812109701335430145e-02 1.031987592577934265e-01 1.467693895101547241e-01 -2.318329736590385437e-02 1.079668626189231873e-01 -1.487421244382858276e-01 1.014579609036445618e-01 1.079736948013305664e-01 1.197897717356681824e-01 -6.814982742071151733e-02 4.603546112775802612e-02 3.561389148235321045e-01 -8.837901055812835693e-02 -8.983232080936431885e-02 -1.123523805290460587e-02 -3.319683298468589783e-02 7.551861554384231567e-02 -1.520609259605407715e-01 -6.505643576383590698e-02 2.321305871009826660e-02 1.445512939244508743e-02 7.557950913906097412e-02 -4.784036055207252502e-02 -1.209969446063041687e-01 1.008161902427673340e-01 1.286173239350318909e-02 4.512035474181175232e-02 -6.256485730409622192e-02 2.202629446983337402e-01 -2.044841088354587555e-02 -1.326987799257040024e-02 2.903720922768115997e-02 -4.669673442840576172e+00 -4.521486908197402954e-02 1.971531892195343971e-03 7.729257643222808838e-02 -3.142684102058410645e-01 -1.519387066364288330e-01 1.003924533724784851e-01 3.588350489735603333e-02 8.290817588567733765e-02 -9.015037864446640015e-02 2.207278490066528320e+00 7.379682362079620361e-02 1.615546829998493195e-02 1.089223921298980713e-01 -4.834477975964546204e-02 -1.043152287602424622e-01 -3.694685548543930054e-02 2.444211579859256744e-02 5.899615958333015442e-02 -4.485137388110160828e-02 9.955420345067977905e-02 4.212752729654312134e-02 7.694275677204132080e-02 -8.166623115539550781e-02 2.330957539379596710e-02 2.560582756996154785e-02 -3.569878637790679932e-01 -1.713957078754901886e-02 -1.207727864384651184e-01 -3.256799653172492981e-02 -4.016795381903648376e-02 -7.518748939037322998e-02 2.292800098657608032e-01 -7.301751524209976196e-02 -1.420420706272125244e-01 -9.420584142208099365e-02 2.611071169376373291e-01 -4.234008118510246277e-02 -7.013928890228271484e-02 2.993203327059745789e-02 2.975771948695182800e-02 9.978974238038063049e-03 9.355735965073108673e-03 -5.318263173103332520e-02 -5.713949352502822876e-02 -1.392416357994079590e-01 4.572858810424804688e-01 4.414580017328262329e-02 -1.202665418386459351e-01 -6.535042077302932739e-02 1.225044298917055130e-02 1.353270560503005981e-01 -6.971656531095504761e-02 4.147616773843765259e-02 -5.329836606979370117e-01
