# 70 70
7.873459458351135254e-01 -3.275214433670043945e-01 -4.719806909561157227e-01 1.125151515007019043e+00 1.386073529720306396e-01 -8.611280322074890137e-01 -1.840689629316329956e-01 -1.020161747932434082e+00 -1.372273325920104980e+00 -5.046252608299255371e-01 -1.080790519714355469e+00 -8.138961791992187500e-01 -4.347128391265869141e+00 -9.900104999542236328e-01 -6.230124831199645996e-01 -3.012356519699096680e+00 4.271112918853759766e+00 -6.220023632049560547e-01 3.733790159225463867e+00 3.475972414016723633e+00 4.467623710632324219e+00 1.233776450157165527e+00 -7.345738261938095093e-02 -9.554692506790161133e-01 1.300668358802795410e+00 2.072093725204467773e+00 -8.208982348442077637e-01 -8.844739198684692383e-01 1.327344179153442383e+00 -1.183352589607238770e+00 1.142172217369079590e+00 6.151817440986633301e-01 -6.507781147956848145e-01 2.538751125335693359e+00 -4.208582639694213867e-01 -5.685338020324707031e+00 2.206542968750000000e+00 -1.389069408178329468e-01 1.495572090148925781e+00 -1.380743741989135742e+00 -8.994811773300170898e-01 -1.588539183139801025e-01 -7.889297008514404297e-01 5.220113396644592285e-01 -1.286822557449340820e+00 -5.249306559562683105e-01 2.838799476623535156e+00 -1.351283073425292969e+00 -3.816475272178649902e-01 -1.167406558990478516e+00 5.441761016845703125e-01 1.034775376319885254e+00 -9.838731884956359863e-01 -9.799115061759948730e-01 -1.304990649223327637e+00 2.266042709350585938e+00 -2.561635494232177734e+00 -1.180783629417419434e+00 -8.430080413818359375e-01 -4.172250926494598389e-01 -1.119516491889953613e+00 9.020960927009582520e-01 1.164454460144042969e+00 3.631064176559448242e+00 3.198441743850708008e+00 -1.144993185997009277e+00 -1.493771076202392578e+00 -8.960638940334320068e-02 -1.148564577102661133e+00 -6.458054542541503906e+00
2.857945263385772705e-01 -7.475222945213317871e-01 1.227274537086486816e+00 1.330306172370910645e+00 1.820687949657440186e-02 -1.661525726318359375e+00 -7.104558348655700684e-01 -1.531203031539916992e+00 -9.116986989974975586e-01 -2.815239131450653076e-01 5.650362968444824219e+00 -2.466243654489517212e-01 -5.098899841308593750e+00 4.873946666717529297e+00 2.022607922554016113e-01 4.939236164093017578e+00 2.043369293212890625e+00 -1.857816338539123535e+00 2.182740688323974609e+00 2.203805923461914062e+00 3.048884153366088867e+00 1.319213867187500000e+00 -1.849767804145812988e+00 -9.701290726661682129e-02 2.086658477783203125e+00 2.218001842498779297e+00 -1.042059779167175293e+00 2.437921285629272461e+00 -5.592454671859741211e-01 -3.287908554077148438e+00 2.266914844512939453e+00 5.502944588661193848e-01 -8.565539121627807617e-01 2.165455102920532227e+00 -7.665024995803833008e-01 -4.021255493164062500e+00 1.817645907402038574e+00 1.475049257278442383e+00 3.829713165760040283e-01 -8.890473246574401855e-01 -9.601409435272216797e-01 -9.943504929542541504e-01 -2.495426177978515625e+00 1.646562218666076660e-01 -4.233530461788177490e-01 1.661645323038101196e-01 3.424494743347167969e+00 3.139607906341552734e+00 -6.642047166824340820e-01 -7.341359257698059082e-01 -1.160800814628601074e+00 8.584297299385070801e-01 1.133182287216186523e+00 -1.425258040428161621e+00 -1.937128782272338867e+00 2.022445678710937500e+00 -1.952796697616577148e+00 6.103015542030334473e-01 -1.097928524017333984e+00 -1.049522161483764648e-01 7.018757343292236328e+00 5.549831390380859375e-01 8.940532207489013672e-01 3.182441949844360352e+00 2.383897542953491211e+00 -1.865346074104309082e+00 -6.180300712585449219e-01 -1.639450788497924805e+00 -1.410042166709899902e+00 -8.444620132446289062e+00
2.738201618194580078e-01 -9.584263563156127930e-01 -2.214050292968750000e+00 1.058038592338562012e+00 1.507581472396850586e+00 -3.731290996074676514e-01 1.361207246780395508e+00 -6.567076444625854492e-01 -1.491579294204711914e+00 1.106912419199943542e-01 1.173683404922485352e+00 1.506950020790100098e+00 2.553770780563354492e+00 -5.433122515678405762e-01 1.876554131507873535e+00 -2.043778449296951294e-02 -1.709615066647529602e-02 2.013829708099365234e+00 7.238911986351013184e-01 -4.668693244457244873e-01 -2.665074169635772705e-01 1.265677452087402344e+00 1.312299251556396484e+00 9.396858811378479004e-01 -7.322626709938049316e-01 1.873053789138793945e+00 1.326601386070251465e+00 -3.221330344676971436e-01 2.343890428543090820e+00 1.585630536079406738e+00 -3.561764061450958252e-01 -2.585178911685943604e-01 2.871525883674621582e-01 5.221643447875976562e-01 -6.373344063758850098e-01 7.704604864120483398e-01 9.876609444618225098e-01 1.316565871238708496e-01 2.439956426620483398e+00 -9.634492397308349609e-01 -1.418200135231018066e-01 2.194082736968994141e+00 7.140116691589355469e-01 -2.952084541320800781e-01 -4.040591716766357422e-01 -3.045438826084136963e-01 3.420233964920043945e+00 -6.797749996185302734e-01 1.255930185317993164e+00 -1.396860003471374512e+00 1.587894201278686523e+00 -1.876922696828842163e-01 2.271282196044921875e+00 -8.220052123069763184e-01 2.187498331069946289e+00 1.724117994308471680e-01 -6.062143445014953613e-01 7.454099059104919434e-01 2.092031687498092651e-01 2.276637315750122070e+00 9.899987578392028809e-01 1.139578461647033691e+00 6.540210247039794922e-01 -1.327302902936935425e-01 9.313851594924926758e-02 -2.708948850631713867e-01 2.858022451400756836e-01 1.537517011165618896e-01 -9.849004745483398438e-01 8.397101759910583496e-01
-4.930847585201263428e-01 -4.005489051342010498e-01 3.805484771728515625e-01 1.674583673477172852e+00 3.287956118583679199e-01 2.519632875919342041e-01 4.125766456127166748e-01 5.187876224517822266e-01 -1.855990767478942871e+00 -3.335505723953247070e-01 2.308665513992309570e+00 -1.207070648670196533e-01 -3.704257905483245850e-01 9.873401522636413574e-01 -7.777715921401977539e-01 -1.606828421354293823e-01 2.744621038436889648e+00 -4.162376821041107178e-01 1.298078894615173340e+00 2.650943756103515625e+00 2.048930644989013672e+00 1.247910618782043457e+00 -3.258499205112457275e-01 -4.397700726985931396e-01 5.267211198806762695e-01 7.059317827224731445e-01 1.664826393127441406e+00 1.479917764663696289e-01 2.233810186386108398e+00 2.208869457244873047e+00 2.100099086761474609e+00 1.708835005760192871e+00 6.952598690986633301e-01 2.333482980728149414e+00 2.142240405082702637e-01 -2.218105554580688477e+00 3.356123566627502441e-01 2.243835449218750000e+00 2.003921031951904297e+00 2.028264701366424561e-01 3.605526685714721680e-01 -4.909370243549346924e-01 1.641979455947875977e+00 -4.585600495338439941e-01 -8.743117749691009521e-02 -6.287059187889099121e-01 3.306938171386718750e+00 1.381348222494125366e-01 3.872393965721130371e-01 -5.054745674133300781e-01 8.724901676177978516e-01 1.162844538688659668e+00 -5.328164100646972656e-01 2.068893909454345703e-01 -1.784114167094230652e-02 2.778968334197998047e+00 -8.325132727622985840e-01 1.451549530029296875e-01 2.395636588335037231e-01 2.826165199279785156e+00 -7.080549597740173340e-01 -1.931204795837402344e-01 2.039160966873168945e+00 2.882164716720581055e+00 2.178076267242431641e+00 2.017030566930770874e-01 -4.530335962772369385e-02 3.281578719615936279e-01 4.623987972736358643e-01 -1.192348861694335938e+01
4.631470441818237305e-01 -9.779424071311950684e-01 -3.097404027357697487e-03 1.237833619117736816e+00 -4.699861705303192139e-01 -4.287643730640411377e-01 1.865065097808837891e-01 -1.028472185134887695e+00 -1.068036913871765137e+00 -1.352060884237289429e-01 -1.353564620018005371e+00 -1.194898605346679688e+00 -4.297002315521240234e+00 -2.229397535324096680e+00 6.286383271217346191e-01 -2.636244297027587891e+00 1.812748670578002930e+00 -8.559185862541198730e-01 2.057393789291381836e+00 2.086274147033691406e+00 1.802119374275207520e+00 1.331830143928527832e+00 -6.933913230895996094e-01 -2.353059768676757812e+00 1.540261745452880859e+00 2.173819065093994141e+00 -2.044341802597045898e+00 -1.025789260864257812e+00 2.748576402664184570e-01 -1.521149754524230957e+00 7.235661745071411133e-01 1.969636917114257812e+00 -6.966885924339294434e-01 1.358633279800415039e+00 -7.790951728820800781e-01 -3.774596691131591797e+00 8.107122778892517090e-01 1.453729748725891113e+00 5.408405661582946777e-01 -1.051747202873229980e+00 -4.512505531311035156e-01 -1.577660679817199707e+00 -1.968204736709594727e+00 4.157504737377166748e-01 -1.122843503952026367e+00 -5.845776200294494629e-02 2.277731895446777344e+00 -1.600888133049011230e+00 -4.223251640796661377e-01 -4.135450720787048340e-01 2.513853907585144043e-01 4.756993651390075684e-01 -7.686863839626312256e-02 -1.043478369712829590e+00 -8.898595571517944336e-01 1.562013030052185059e+00 -4.240901470184326172e+00 -1.026751637458801270e+00 -3.275634348392486572e-01 3.072320818901062012e-01 -1.692287445068359375e+00 1.026885807514190674e-01 7.325416803359985352e-01 1.766699314117431641e+00 1.667898654937744141e+00 -3.690871298313140869e-01 -6.273949146270751953e-02 -1.128533363342285156e+00 -1.702725529670715332e+00 -6.967896938323974609e+00
3.886521756649017334e-01 -6.768779754638671875e-01 7.544011473655700684e-01 1.291994810104370117e+00 -1.051264047622680664e+00 8.097818493843078613e-01 -7.488338351249694824e-01 -5.198023915290832520e-01 -1.291165113449096680e+00 1.486149430274963379e-01 -2.064846611022949219e+01 -1.143527626991271973e+00 -1.905160713195800781e+01 -1.724584579467773438e+01 -7.494390755891799927e-02 -1.348328971862792969e+01 -3.176673054695129395e-01 6.025883182883262634e-02 3.404897451400756836e-01 1.139489650726318359e+00 -2.044125925749540329e-03 1.023013353347778320e+00 -3.977702617645263672e+00 -4.179030284285545349e-02 1.568198800086975098e+00 1.963267207145690918e+00 -1.445435523986816406e+00 -5.660386562347412109e+00 8.087068200111389160e-01 -2.360257625579833984e+00 7.982525825500488281e-01 1.441910862922668457e-01 -9.811215102672576904e-03 7.626553177833557129e-01 -3.000998497009277344e+00 -2.661836624145507812e+01 -1.619018316268920898e+00 2.872638106346130371e-01 3.803147673606872559e-01 -1.421850085258483887e+00 -6.113549470901489258e-01 -2.830018699169158936e-01 -9.754697799682617188e+00 1.097054004669189453e+00 -4.298371315002441406e+00 -8.506248593330383301e-01 3.703286170959472656e+00 -5.411939144134521484e+00 -1.757566809654235840e+00 4.939253628253936768e-01 2.018631808459758759e-02 5.116811394691467285e-01 1.544034242630004883e+00 -3.054655313491821289e+00 1.771616041660308838e-01 -3.959853649139404297e-01 -3.978615760803222656e+00 -6.168527126312255859e+00 -1.505959868431091309e+00 -4.700751602649688721e-01 -6.142877101898193359e+00 1.624619960784912109e-01 7.925121784210205078e-01 -8.528845012187957764e-02 1.841176599264144897e-01 2.572288215160369873e-01 -1.556441664695739746e+00 -1.778875350952148438e+00 -4.144325554370880127e-01 -2.393625831604003906e+01
8.779448866844177246e-01 -6.611993312835693359e-01 9.819116592407226562e-01 2.027852535247802734e+00 -9.760761857032775879e-01 -6.937705278396606445e-01 -4.127115309238433838e-01 -1.910420417785644531e+00 -7.133402824401855469e-01 3.105646669864654541e-01 -6.526820182800292969e+00 2.993503510951995850e-01 -9.305916786193847656e+00 -5.149780750274658203e+00 8.335623890161514282e-02 -5.371179580688476562e+00 1.527803063392639160e+00 -9.547521471977233887e-01 6.089321374893188477e-01 2.248684883117675781e+00 2.008080244064331055e+00 1.917026281356811523e+00 -3.580037832260131836e+00 -6.660152077674865723e-01 7.464296221733093262e-01 1.561370611190795898e+00 -1.922785758972167969e+00 -2.232259273529052734e+00 5.676344633102416992e-01 -2.612102031707763672e+00 6.977435946464538574e-01 1.663689494132995605e+00 -7.561507821083068848e-01 1.311141014099121094e+00 -3.098626375198364258e+00 -1.250244235992431641e+01 -5.761823803186416626e-02 1.701132774353027344e+00 3.604403883218765259e-02 -2.664934158325195312e+00 -3.088595390319824219e+00 -5.967239737510681152e-01 -4.958515167236328125e+00 3.512194156646728516e-01 -7.715889215469360352e-01 -1.430179476737976074e+00 3.061830282211303711e+00 -3.785743713378906250e+00 2.039780765771865845e-01 1.773116290569305420e-01 2.330905497074127197e-01 3.150375783443450928e-01 -7.388551831245422363e-01 -1.835904479026794434e+00 -7.565369009971618652e-01 2.598421096801757812e+00 -7.258749961853027344e+00 -2.838155984878540039e+00 -2.078015089035034180e+00 7.246465682983398438e-01 -3.868992805480957031e+00 1.573490649461746216e-01 1.172085762023925781e+00 2.721489429473876953e+00 2.104534387588500977e+00 -1.197802305221557617e+00 -1.107557788491249084e-01 -1.465424746274948120e-01 -1.925158977508544922e+00 -1.508279037475585938e+01
4.556531012058258057e-01 -4.532901644706726074e-01 -6.314457654953002930e-01 1.611016511917114258e+00 -3.490841388702392578e-01 -6.004086136817932129e-01 -2.904274463653564453e-01 -9.296813979744911194e-03 -1.494104504585266113e+00 4.096496701240539551e-01 -8.336112499237060547e-01 -1.195131421089172363e+00 -3.298366785049438477e+00 -1.259248852729797363e+00 -5.848881006240844727e-01 -2.607353448867797852e+00 1.724393725395202637e+00 -1.343978643417358398e+00 2.542780637741088867e+00 2.408635616302490234e+00 1.988964438438415527e+00 1.488590121269226074e+00 -1.603506207466125488e-01 -1.519371390342712402e+00 7.491627335548400879e-02 1.886390089988708496e+00 -1.667801141738891602e+00 -8.750402331352233887e-01 3.511404693126678467e-01 -1.079713225364685059e+00 6.434127092361450195e-01 2.695655524730682373e-01 -5.893979668617248535e-01 1.044432044029235840e+00 -1.738698780536651611e-01 -3.627234220504760742e+00 2.601083517074584961e+00 1.221387982368469238e+00 7.132573127746582031e-01 -1.052550315856933594e+00 -5.197530984878540039e-01 -1.019652962684631348e+00 -7.240769267082214355e-01 7.100535035133361816e-01 -1.449410319328308105e+00 -1.822632700204849243e-01 1.852340459823608398e+00 -1.181084394454956055e+00 -9.075601696968078613e-01 -9.931001067161560059e-01 1.240893006324768066e-01 2.512059509754180908e-01 -1.927078604698181152e+00 -9.766676425933837891e-01 -1.327337622642517090e+00 1.184073686599731445e+00 -3.581861495971679688e+00 -1.296307295560836792e-01 -1.069453358650207520e+00 6.160759329795837402e-01 -1.127064466476440430e+00 5.627392530441284180e-01 5.149837732315063477e-01 1.869531512260437012e+00 2.236331224441528320e+00 -1.798661231994628906e+00 -5.595967769622802734e-01 -3.215880990028381348e-01 -5.695992708206176758e-01 -5.018548488616943359e+00
3.334712982177734375e-01 -1.744616478681564331e-01 -4.359165728092193604e-01 -4.287141799926757812e+00 8.155855536460876465e-02 1.222731620073318481e-01 2.438666671514511108e-01 -1.325587779283523560e-01 -7.639374732971191406e-01 8.620640635490417480e-01 1.587369561195373535e+00 -2.539618909358978271e-01 -2.103358030319213867e+00 -1.550861597061157227e+00 5.874769762158393860e-02 -8.311045169830322266e-01 1.336804181337356567e-01 1.184911727905273438e+00 1.853920817375183105e+00 9.607264995574951172e-01 -1.280782699584960938e+00 -3.914859056472778320e+00 1.630862474441528320e+00 -8.089349605143070221e-03 2.109119415283203125e+00 2.007588624954223633e+00 1.350493580102920532e-01 6.247648000717163086e-01 -4.036023616790771484e+00 1.337701320648193359e+00 5.275118350982666016e+00 -1.594726324081420898e+00 4.630229622125625610e-02 -3.924382925033569336e-01 2.123033255338668823e-01 6.552316665649414062e+00 2.716444969177246094e+00 2.439237594604492188e+00 -1.163926005363464355e+00 -3.671656847000122070e-01 1.618216000497341156e-02 1.269597411155700684e-01 9.765009880065917969e-01 3.684263527393341064e-01 -3.228671252727508545e-01 5.543753132224082947e-02 1.789898276329040527e+00 4.008361101150512695e-01 -3.283789753913879395e-01 -1.012565612792968750e+00 5.552927851676940918e-01 3.808164596557617188e+00 9.868593811988830566e-01 -1.433469057083129883e-01 6.186527609825134277e-01 -1.454690843820571899e-01 -1.369917750358581543e+00 1.318562269210815430e+00 1.286282390356063843e-01 -1.265835642814636230e+00 1.005639314651489258e+00 1.927612349390983582e-02 -1.774018168449401855e+00 -1.360982537269592285e+00 -1.937112331390380859e+00 2.962104976177215576e-01 1.436885446310043335e-01 -1.509345918893814087e-01 -1.162609159946441650e-01 -2.723772048950195312e+00
7.432270646095275879e-01 -7.429022789001464844e-01 7.930031418800354004e-02 1.468876957893371582e+00 -1.312964916229248047e+00 -1.475586175918579102e+00 8.710327148437500000e-01 9.198736548423767090e-01 -9.829276204109191895e-01 6.080917716026306152e-01 -1.435166239738464355e+00 -8.752462267875671387e-01 -4.137544631958007812e+00 -2.165102005004882812e+00 -1.387268751859664917e-01 -1.112077236175537109e+00 1.570222735404968262e+00 -9.066128134727478027e-01 1.343960523605346680e+00 2.181401014328002930e+00 1.717759728431701660e+00 1.991850614547729492e+00 -5.797578692436218262e-01 -1.229502797126770020e+00 1.757751822471618652e+00 1.978737235069274902e+00 -1.955112814903259277e+00 -3.080009460449218750e+00 3.475372493267059326e-01 -1.135282278060913086e+00 -3.911786377429962158e-01 1.004013061523437500e+00 -4.094018340110778809e-01 1.563189506530761719e+00 -6.850836873054504395e-01 -4.090653896331787109e+00 1.937312722206115723e+00 9.947358965873718262e-01 8.192783594131469727e-01 -3.944968879222869873e-01 -2.250683546066284180e+00 -1.290034532546997070e+00 -1.433435320854187012e+00 3.973662555217742920e-01 -2.842478513717651367e+00 -9.875652194023132324e-01 1.601561546325683594e+00 -1.878848791122436523e+00 1.653897404670715332e+00 -8.274393081665039062e-01 6.255351305007934570e-01 2.559146285057067871e-01 -8.565759062767028809e-01 -1.221200942993164062e+00 -1.103330135345458984e+00 1.985979199409484863e+00 -8.229565024375915527e-01 6.775564700365066528e-02 -6.150651574134826660e-01 6.342254877090454102e-01 -1.517687678337097168e+00 1.079325079917907715e+00 5.743278861045837402e-01 1.790588498115539551e+00 2.171727895736694336e+00 6.721556782722473145e-01 -1.241469830274581909e-01 -1.649661302566528320e+00 6.398385167121887207e-01 -6.540662288665771484e+00
6.332327127456665039e-01 -7.860502004623413086e-01 -9.861364960670471191e-01 1.106666922569274902e+00 1.311788201332092285e+00 -6.767117381095886230e-01 1.587327718734741211e+00 4.618955850601196289e-01 -1.241190075874328613e+00 7.232626527547836304e-02 1.525845766067504883e+00 1.319813251495361328e+00 4.653473854064941406e+00 4.757206439971923828e-01 2.589513778686523438e+00 -6.599139571189880371e-01 1.297422885894775391e+00 5.585397481918334961e-01 -1.312515258789062500e+00 4.756914973258972168e-01 1.039657711982727051e+00 1.321955800056457520e+00 -1.471007823944091797e+00 2.864998877048492432e-01 -1.132345557212829590e+00 1.095158219337463379e+00 1.487838745117187500e+00 4.051214158535003662e-01 2.996212244033813477e+00 1.125755906105041504e+00 -1.688898205757141113e-01 8.218355774879455566e-01 1.159597039222717285e+00 1.005837082862854004e+00 -1.574890688061714172e-02 4.259770214557647705e-01 -9.366180896759033203e-01 3.307521939277648926e-01 2.398703575134277344e+00 3.083411231637001038e-02 2.130890935659408569e-01 1.670117139816284180e+00 1.127286911010742188e+00 4.256793260574340820e-01 -1.038005724549293518e-01 -1.912039518356323242e-01 1.254346966743469238e+00 -1.381019353866577148e-01 1.108335852622985840e+00 -3.453809022903442383e+00 1.767532110214233398e+00 2.148405164480209351e-01 -2.906417846679687500e-01 6.749289631843566895e-01 8.013915419578552246e-01 1.106631517410278320e+00 -6.512731909751892090e-01 3.212916105985641479e-02 -7.149782031774520874e-02 1.292269825935363770e+00 -8.405787348747253418e-01 1.816808819770812988e+00 2.108680725097656250e+00 1.064509391784667969e+00 1.085700392723083496e+00 -7.772528529167175293e-01 -2.307247161865234375e+00 1.046063184738159180e+00 6.260225772857666016e-01 3.286388516426086426e-01
1.178280711174011230e+00 -1.684804201126098633e+00 -1.719046980142593384e-01 -1.240972727537155151e-01 2.212336063385009766e+00 2.758627235889434814e-01 1.024284958839416504e+00 -7.612507939338684082e-01 -1.177969217300415039e+00 -3.237505555152893066e-01 -1.266774088144302368e-01 1.166379570960998535e+00 -2.804237842559814453e+00 -7.389649748802185059e-01 3.110866069793701172e+00 -8.611378669738769531e-01 5.846544742584228516e+00 2.207090139389038086e+00 2.182368516921997070e+00 3.977867126464843750e+00 4.868043899536132812e+00 -2.896645069122314453e-01 -6.168085932731628418e-01 3.919932544231414795e-01 -3.533304214477539062e+00 1.893338918685913086e+00 1.204060554504394531e+00 7.655715942382812500e-01 2.428902387619018555e+00 2.156565427780151367e+00 -1.446514010429382324e+00 -2.526907444000244141e+00 6.628268361091613770e-01 4.438795566558837891e+00 -3.478328287601470947e-01 -3.167264461517333984e+00 2.387704372406005859e+00 -7.505720853805541992e-01 1.849519014358520508e+00 -4.206836521625518799e-01 7.016164064407348633e-01 3.262595891952514648e+00 1.832849383354187012e-01 9.266849756240844727e-01 -1.090133190155029297e-01 -1.460515111684799194e-01 3.476375102996826172e+00 3.531111776828765869e-01 8.091685175895690918e-01 -2.332201957702636719e+00 1.028186321258544922e+00 -1.097474813461303711e+00 1.922936677932739258e+00 -5.084213241934776306e-02 2.104906558990478516e+00 3.769317388534545898e+00 -1.203855350613594055e-01 -1.286933869123458862e-01 -3.208955228328704834e-01 -2.331502199172973633e+00 -3.866608142852783203e-01 1.543306231498718262e+00 1.636379599571228027e+00 4.360286235809326172e+00 4.886235713958740234e+00 3.640891239047050476e-02 -1.048480629920959473e+00 -2.160720676183700562e-01 -3.757919967174530029e-01 -9.914726614952087402e-01
2.326534509658813477e+00 -5.317022800445556641e-01 1.953949570655822754e+00 -6.206963658332824707e-01 4.849802553653717041e-01 2.956115603446960449e-01 2.914115786552429199e-01 -5.379164218902587891e-01 3.860782682895660400e-01 1.597780585289001465e+00 -2.282471895217895508e+00 1.651550829410552979e-01 3.748819828033447266e+00 -2.064301013946533203e+00 -4.008078277111053467e-01 -2.318783521652221680e+00 -2.310591697692871094e+00 -2.732194066047668457e-01 -2.124485254287719727e+00 -1.572733402252197266e+00 -1.940990447998046875e+00 -3.820474445819854736e-01 5.263060092926025391e+00 -3.769372105598449707e-01 -1.728003621101379395e+00 2.937100887298583984e+00 -1.753070205450057983e-01 3.373297452926635742e-01 -4.621739864349365234e+00 -8.054617881774902344e+00 -7.078914046287536621e-01 -1.365869641304016113e+00 -2.077517271041870117e+00 -1.991640090942382812e+00 -7.592982053756713867e-01 1.782458877563476562e+01 -2.258452892303466797e+00 -6.211531162261962891e-01 -6.473847389221191406e+00 -3.290084004402160645e-01 -9.346442222595214844e-01 9.970172494649887085e-02 -3.544783115386962891e+00 1.082545042037963867e+00 4.282942712306976318e-01 3.719255685806274414e+00 -1.230763912200927734e+00 1.498358011245727539e+00 -1.598801463842391968e-01 1.175562143325805664e+00 -7.189024448394775391e+00 -5.648948550224304199e-01 9.005276858806610107e-02 -7.395946383476257324e-01 -2.300718426704406738e-01 -2.147469043731689453e+00 4.438458442687988281e+00 2.742145061492919922e-01 -2.052223920822143555e+00 -4.121016502380371094e+00 2.611337900161743164e+00 -4.868543624877929688e+00 -5.839448928833007812e+00 -2.544170618057250977e+00 -1.611198306083679199e+00 1.620321571826934814e-01 -4.004205763339996338e-01 -1.616597533226013184e+00 -2.820061147212982178e-01 -6.559003353118896484e+00
8.311098814010620117e-01 -1.057313442230224609e+00 -5.420058965682983398e-01 1.069307684898376465e+00 1.764169931411743164e-01 -7.863615155220031738e-01 -1.163893640041351318e-01 -8.938128948211669922e-01 -1.397143244743347168e+00 6.544984877109527588e-02 3.871664106845855713e-01 -8.001262694597244263e-02 -4.263588428497314453e+00 -7.783130407333374023e-01 1.067626237869262695e+00 -1.111318230628967285e+00 1.979170441627502441e+00 -1.099779963493347168e+00 2.946790218353271484e+00 1.734822273254394531e+00 1.818720817565917969e+00 1.654197216033935547e+00 4.128099977970123291e-01 -2.757329493761062622e-02 -3.771143853664398193e-01 2.196992158889770508e+00 1.032401323318481445e+00 2.527910172939300537e-01 1.736117452383041382e-01 1.068340897560119629e+00 2.519842088222503662e-01 2.174830585718154907e-01 -2.324169874191284180e-01 1.370864510536193848e+00 -2.623750567436218262e-01 -4.194317817687988281e+00 3.485305786132812500e+00 1.587767153978347778e-01 6.740294098854064941e-01 -3.462314605712890625e-01 -2.492762207984924316e-01 -2.987259626388549805e-01 2.179590016603469849e-01 3.546262681484222412e-01 1.381119713187217712e-02 -4.465385898947715759e-02 2.154985427856445312e+00 -1.322376370429992676e+00 -4.792528450489044189e-01 -4.851181805133819580e-01 1.077650666236877441e+00 1.187801510095596313e-01 1.488757967948913574e+00 -2.103102356195449829e-01 -1.011037304997444153e-01 1.664430379867553711e+00 -9.913223981857299805e-01 3.272079527378082275e-01 -2.508274912834167480e-01 4.168758392333984375e-01 -1.283772826194763184e+00 6.209058761596679688e-01 6.237434744834899902e-01 2.220630645751953125e+00 1.807944655418395996e+00 -9.509196281433105469e-01 -7.778300642967224121e-01 -4.276010990142822266e-01 3.442389070987701416e-01 -1.111149668693542480e+00
-5.877087824046611786e-03 -1.207240462303161621e+00 -1.141395688056945801e+00 1.978077888488769531e+00 1.437559962272644043e+00 4.803675413131713867e-01 1.333890795707702637e+00 3.514934480190277100e-01 -1.266882061958312988e+00 3.036302030086517334e-01 8.396708369255065918e-01 6.157757043838500977e-01 -4.038384556770324707e-01 -6.158837080001831055e-01 6.798978447914123535e-01 -7.391736507415771484e-01 1.999879002571105957e+00 2.113732576370239258e+00 -8.465498089790344238e-01 1.031527161598205566e+00 1.655795335769653320e+00 1.756315946578979492e+00 9.153754115104675293e-01 8.401132225990295410e-01 -1.051717996597290039e+00 2.270144939422607422e+00 1.035058021545410156e+00 -1.466775536537170410e-01 8.245345354080200195e-01 1.686208367347717285e+00 -1.951206207275390625e+00 2.714681327342987061e-01 -4.502877891063690186e-01 1.349728584289550781e+00 -4.066860675811767578e-02 -2.447839975357055664e+00 -7.388396561145782471e-02 -1.984272241592407227e+00 1.774274468421936035e+00 -2.327408641576766968e-01 5.329095572233200073e-02 1.512528181076049805e+00 1.006044745445251465e-01 4.910960793495178223e-01 -8.424202203750610352e-01 -1.856203973293304443e-01 2.050247669219970703e+00 -3.017328083515167236e-01 8.410264849662780762e-01 -1.487361311912536621e+00 8.846237063407897949e-01 -7.136111855506896973e-01 4.342026710510253906e-01 -4.777883589267730713e-01 2.097508192062377930e+00 1.196134328842163086e+00 -3.740301430225372314e-01 4.159893691539764404e-01 2.355199009180068970e-01 1.107947230339050293e+00 -2.814577221870422363e-01 1.238367319107055664e+00 8.697589039802551270e-01 1.301848411560058594e+00 1.570742845535278320e+00 -2.138646878302097321e-02 1.010377526283264160e+00 -8.652896881103515625e-01 -4.847125411033630371e-01 1.598969697952270508e-01
5.092748999595642090e-01 -8.663648366928100586e-01 -9.055393338203430176e-01 -2.783629894256591797e+00 1.368007302284240723e+00 -2.535939812660217285e-01 6.751925349235534668e-01 -2.195898890495300293e-01 -1.478900074958801270e+00 -1.315315663814544678e-01 -1.092522263526916504e+00 2.001411914825439453e+00 9.726009517908096313e-02 -1.702858686447143555e+00 1.709273099899291992e+00 -1.401289224624633789e+00 -1.082856059074401855e+00 2.436221122741699219e+00 1.758265137672424316e+00 1.336803197860717773e+00 -1.985135555267333984e+00 -2.650516510009765625e+00 5.520492792129516602e-01 1.477055191993713379e+00 9.062176346778869629e-01 1.769926667213439941e+00 2.067941427230834961e+00 -4.333269596099853516e-01 8.182942271232604980e-01 2.518799781799316406e+00 9.388997554779052734e-01 -1.197883248329162598e+00 4.135575890541076660e-01 1.492157220840454102e+00 -1.209083497524261475e-01 1.836450338363647461e+00 1.834562420845031738e+00 1.661704421043395996e+00 1.626097679138183594e+00 -2.736794650554656982e-01 -5.711757391691207886e-02 2.446568250656127930e+00 7.236063480377197266e-01 3.465638160705566406e-01 -2.811419367790222168e-01 4.713855683803558350e-01 2.285971164703369141e+00 -8.013350963592529297e-01 5.516965389251708984e-01 -2.307884216308593750e+00 1.269874930381774902e+00 2.084931373596191406e+00 2.320815563201904297e+00 -2.085027545690536499e-01 2.731892824172973633e+00 9.865292310714721680e-01 -4.636000990867614746e-01 -4.803451150655746460e-02 1.299308091402053833e-01 1.356740236282348633e+00 -2.983217537403106689e-01 9.718165397644042969e-01 -1.892237067222595215e-01 -1.850322604179382324e+00 -1.786316633224487305e+00 1.375451311469078064e-02 -3.035449385643005371e-01 4.552104324102401733e-02 -1.204068288207054138e-01 -9.459978342056274414e-01
5.251754522323608398e-01 -8.571721911430358887e-01 -5.557893514633178711e-01 1.021363019943237305e+00 -6.916761398315429688e-01 -8.527068048715591431e-02 8.138340115547180176e-01 -9.542695879936218262e-01 -1.258558869361877441e+00 1.435351073741912842e-01 9.761334955692291260e-02 -1.219548225402832031e+00 -3.494438409805297852e+00 -1.330101609230041504e+00 1.031077980995178223e+00 -1.322221875190734863e+00 2.739930152893066406e+00 -1.739714741706848145e+00 2.407596588134765625e+00 1.886827468872070312e+00 2.292696714401245117e+00 1.292189478874206543e+00 4.867216646671295166e-01 1.621932238340377808e-01 1.199024558067321777e+00 1.965054512023925781e+00 -6.432184576988220215e-02 -7.724183797836303711e-01 8.134571313858032227e-01 5.484847426414489746e-01 -5.710218548774719238e-01 1.154599785804748535e-01 -2.445086091756820679e-01 1.254098773002624512e+00 -6.407771706581115723e-01 -4.132649898529052734e+00 3.737793207168579102e+00 6.306505799293518066e-01 7.337850928306579590e-01 -4.509805738925933838e-01 -7.465270757675170898e-01 -9.513519406318664551e-01 -1.388357486575841904e-04 5.634355545043945312e-01 8.831092715263366699e-02 5.385318398475646973e-01 3.100494384765625000e+00 -1.402972579002380371e+00 2.582848966121673584e-01 -1.174214839935302734e+00 6.021007299423217773e-01 -6.372429132461547852e-01 -3.173238337039947510e-01 -5.371585488319396973e-01 -8.479506969451904297e-01 1.084457874298095703e+00 -7.338230013847351074e-01 -5.500635504722595215e-01 -1.277348864823579788e-02 3.534961044788360596e-01 -9.430655241012573242e-01 7.019703984260559082e-01 7.363924980163574219e-01 2.402619600296020508e+00 2.084399223327636719e+00 4.152752161026000977e-01 8.249055594205856323e-02 -6.340361833572387695e-01 -5.902148485183715820e-01 -2.381090402603149414e+00
4.912263154983520508e-01 -6.626465916633605957e-01 -6.765475869178771973e-01 1.877580046653747559e+00 -9.506493806838989258e-01 -1.891340911388397217e-01 1.128208041191101074e+00 -1.175311326980590820e+00 -1.558083534240722656e+00 9.555101394653320312e-02 -6.391464471817016602e-01 -1.045286417007446289e+00 -3.353493690490722656e+00 -1.895084381103515625e+00 -1.934835314750671387e-01 -2.135284423828125000e+00 1.379937887191772461e+00 -1.275996208190917969e+00 1.681736111640930176e+00 2.048285484313964844e+00 1.819825649261474609e+00 1.903630018234252930e+00 1.980033218860626221e-01 -1.468786835670471191e+00 1.026642441749572754e+00 2.119847297668457031e+00 -1.416112542152404785e+00 -9.920958280563354492e-01 1.040625452995300293e+00 -1.009056687355041504e+00 -2.329318970441818237e-01 1.858435273170471191e+00 -9.704211950302124023e-01 1.302706360816955566e+00 -4.460187852382659912e-01 -3.475649118423461914e+00 1.832157373428344727e+00 1.696772098541259766e+00 5.762310624122619629e-01 -1.652021527290344238e+00 5.492837429046630859e-01 -8.457480072975158691e-01 -5.335044860839843750e-01 2.639989554882049561e-01 -5.184857249259948730e-01 -5.718499422073364258e-01 1.677858710289001465e+00 -1.077169537544250488e+00 4.243056774139404297e-01 -8.083354234695434570e-01 4.411093294620513916e-01 4.684217274188995361e-01 -9.225473999977111816e-01 -1.083290457725524902e+00 -1.009456396102905273e+00 1.638518691062927246e+00 -2.514724016189575195e+00 -1.198883771896362305e+00 5.796794593334197998e-02 9.022644162178039551e-01 -7.124173045158386230e-01 4.901565313339233398e-01 7.235392928123474121e-01 1.935898900032043457e+00 1.509899616241455078e+00 -9.026880264282226562e-01 -2.375039607286453247e-01 -6.403719782829284668e-01 -9.291518330574035645e-01 -4.529411315917968750e+00
5.947448611259460449e-01 -1.026179075241088867e+00 -9.935515522956848145e-01 -1.202976107597351074e+00 4.904220998287200928e-01 -2.973393499851226807e-01 2.095061540603637695e-01 -4.103439450263977051e-01 -1.334414958953857422e+00 1.187259256839752197e-01 -1.214213892817497253e-01 1.423898458480834961e+00 -7.698380947113037109e+00 -5.723190307617187500e-01 2.016715288162231445e+00 4.862016998231410980e-03 4.856882572174072266e+00 9.016206264495849609e-01 4.349427700042724609e+00 2.681428194046020508e+00 4.925991058349609375e+00 -1.598518133163452148e+00 -6.298889964818954468e-02 1.066004157066345215e+00 -3.478694915771484375e+00 2.369461297988891602e+00 1.566722273826599121e+00 -4.152988791465759277e-01 -9.055346846580505371e-01 2.246347904205322266e+00 -2.142532348632812500e+00 -1.075531840324401855e+00 2.766453325748443604e-01 1.923878788948059082e+00 -6.702916622161865234e-01 -2.814860343933105469e+00 5.778939247131347656e+00 -3.299198627471923828e+00 9.814172983169555664e-02 -3.340457379817962646e-01 -4.852417111396789551e-01 1.590009033679962158e-01 5.063242316246032715e-01 2.755394876003265381e-01 -1.122860550880432129e+00 1.920351982116699219e+00 1.123468399047851562e+00 -6.061714291572570801e-01 5.774811506271362305e-01 -1.880315423011779785e+00 4.675567746162414551e-01 -3.202683448791503906e+00 1.354897737503051758e+00 3.819090127944946289e-02 6.954637169837951660e-01 2.132074117660522461e+00 3.168767988681793213e-01 6.898075342178344727e-02 6.537759304046630859e-01 -1.410311102867126465e+00 -8.480563759803771973e-01 3.572763502597808838e-01 -8.747655898332595825e-02 4.329686164855957031e+00 3.496959924697875977e+00 3.420308232307434082e-01 -3.639070093631744385e-01 -6.387349963188171387e-02 5.025766789913177490e-02 1.174190640449523926e+00
1.337014794349670410e+00 -8.279783725738525391e-01 -6.186302304267883301e-01 -1.127219438552856445e+00 1.273300528526306152e+00 3.862070292234420776e-02 4.401738345623016357e-01 4.922039806842803955e-03 -1.120040774345397949e+00 -1.860908269882202148e-01 1.162266880273818970e-01 2.616241693496704102e+00 -7.751378536224365234e+00 9.099332988262176514e-02 -3.104985356330871582e-01 -1.377878904342651367e+00 5.331124305725097656e+00 1.008148670196533203e+00 3.214969635009765625e+00 2.306478023529052734e+00 3.998294591903686523e+00 -8.523463010787963867e-01 -2.183643877506256104e-01 3.471483886241912842e-01 -1.720779418945312500e+00 2.036497354507446289e+00 3.114240646362304688e+00 -2.329923361539840698e-01 -8.980818986892700195e-01 2.815317630767822266e+00 -1.861779212951660156e+00 -2.995554924011230469e+00 3.739426434040069580e-01 1.589383721351623535e+00 1.804017722606658936e-01 -3.658559083938598633e+00 3.317390918731689453e+00 -5.191918611526489258e-01 9.346480369567871094e-01 -4.032412171363830566e-02 -3.144429326057434082e-01 2.920265674591064453e+00 1.239909052848815918e+00 1.307558894157409668e+00 1.393772959709167480e-01 2.272531092166900635e-01 2.058646678924560547e+00 -6.633210778236389160e-01 3.419032394886016846e-01 -1.978911876678466797e+00 9.169450402259826660e-01 -1.424756050109863281e+00 1.005190610885620117e+00 -2.703894861042499542e-02 1.588669657707214355e+00 1.914265990257263184e+00 -3.785697817802429199e-01 -2.008504718542098999e-01 8.025794476270675659e-02 -2.678506851196289062e+00 -1.371746957302093506e-01 1.264939546585083008e+00 3.536489903926849365e-01 3.190031528472900391e+00 3.153572082519531250e+00 -6.964328885078430176e-01 -1.303768754005432129e+00 1.057587638497352600e-01 -6.856514215469360352e-01 1.998402029275894165e-01
1.983445435762405396e-01 -1.189594030380249023e+00 3.082460165023803711e-01 2.050397634506225586e+00 -3.372634351253509521e-01 -1.370318531990051270e+00 -1.936995863914489746e+00 -2.424404859542846680e+00 -1.456621170043945312e+00 -3.036678731441497803e-01 -3.319487333297729492e+00 -6.405168771743774414e-01 -8.284430503845214844e+00 -3.008800029754638672e+00 -7.081979513168334961e-01 -3.640624761581420898e+00 2.369722366333007812e+00 -8.257162570953369141e-02 1.830886960029602051e+00 3.028196573257446289e+00 3.325417041778564453e+00 1.747873306274414062e+00 -2.216531038284301758e+00 -7.826474905014038086e-01 1.738870859146118164e+00 2.609818935394287109e+00 -2.240240097045898438e+00 -1.464697480201721191e+00 4.374360740184783936e-01 -1.583606719970703125e+00 1.436110377311706543e+00 1.222625732421875000e+00 -1.535483002662658691e+00 2.213042497634887695e+00 -1.549004554748535156e+00 -9.413602828979492188e+00 9.203349947929382324e-01 1.339756131172180176e+00 8.240124583244323730e-01 -8.695697188377380371e-01 -1.061617374420166016e+00 9.627981483936309814e-02 -3.196012020111083984e+00 4.947208762168884277e-01 -1.393303394317626953e+00 -2.601869106292724609e-01 3.619116306304931641e+00 -1.535408973693847656e+00 -1.090928077697753906e+00 -3.074736595153808594e-01 -8.015765547752380371e-01 1.089409232139587402e+00 3.060453414916992188e+00 -2.066376209259033203e+00 -9.622933715581893921e-02 2.191170215606689453e+00 -4.112153053283691406e+00 -2.318703651428222656e+00 -1.598145365715026855e+00 2.762389779090881348e-01 -9.273082613945007324e-01 7.407015562057495117e-02 1.343074321746826172e+00 3.375331401824951172e+00 2.351682186126708984e+00 -1.899593830108642578e+00 -1.763462066650390625e+00 -9.331087470054626465e-01 -1.321705818176269531e+00 -1.298289299011230469e+01
8.145302534103393555e-01 -1.368536591529846191e+00 5.604664087295532227e-01 1.404251575469970703e+00 9.990434050559997559e-01 6.835953891277313232e-02 9.700559377670288086e-01 -1.111924350261688232e-01 -5.932165384292602539e-01 1.796075142920017242e-02 7.843838930130004883e-01 6.781887412071228027e-01 -1.044820070266723633e+00 1.696812868118286133e+00 2.280431509017944336e+00 1.373497724533081055e+00 5.074749469757080078e+00 6.595261096954345703e-01 2.534342288970947266e+00 3.974036693572998047e+00 3.989619970321655273e+00 2.245904922485351562e+00 -1.601477742195129395e+00 5.140557885169982910e-01 8.381597399711608887e-01 1.648603796958923340e+00 7.031171917915344238e-01 8.465281873941421509e-02 2.745271444320678711e+00 -5.662406682968139648e-01 5.358310043811798096e-02 1.294692516326904297e+00 3.609952330589294434e-01 3.931532382965087891e+00 7.681551575660705566e-01 -2.796573162078857422e+00 1.004663944244384766e+00 6.803935170173645020e-01 2.158121109008789062e+00 5.136417746543884277e-01 -4.745371267199516296e-02 1.566193699836730957e+00 -5.718193650245666504e-01 3.931015431880950928e-01 -3.448424041271209717e-01 -9.749016761779785156e-01 4.701816558837890625e+00 -6.213963497430086136e-03 -3.697207272052764893e-01 -1.270273804664611816e+00 1.073150753974914551e+00 1.840510487556457520e+00 4.517949223518371582e-01 8.940415978431701660e-01 -1.557753235101699829e-01 3.358063459396362305e+00 1.351118803024291992e+00 -6.717240214347839355e-01 -3.702923953533172607e-01 4.864158332347869873e-01 -5.501233935356140137e-01 1.333270072937011719e+00 1.189502358436584473e+00 5.063376426696777344e+00 3.769513130187988281e+00 -1.849689483642578125e-01 -9.676082730293273926e-01 -1.816772967576980591e-01 8.445814251899719238e-01 -5.362344264984130859e+00
-9.018481969833374023e-01 -1.283778071403503418e+00 3.457233667373657227e+00 2.462630033493041992e+00 -5.206218361854553223e-01 -6.359239220619201660e-01 -1.944970011711120605e+00 -6.521286964416503906e-01 -1.481795430183410645e+00 -1.279382824897766113e+00 -1.374028873443603516e+01 -1.319190144538879395e+00 -1.570124244689941406e+01 -6.402570247650146484e+00 -1.616053104400634766e+00 -2.469628810882568359e+00 1.378316879272460938e+00 -1.836476802825927734e+00 1.003866314888000488e+00 3.004556894302368164e+00 1.913826107978820801e+00 2.867547273635864258e+00 2.112221002578735352e+00 -1.134249925613403320e+00 1.491543173789978027e+00 -1.077909469604492188e-01 -6.280621290206909180e-01 1.436851620674133301e+00 9.141290783882141113e-01 8.342800736427307129e-01 2.388195276260375977e+00 -1.237504959106445312e+00 -2.965659797191619873e-01 2.139648914337158203e+00 2.349657535552978516e+00 -2.314181137084960938e+01 9.736743569374084473e-02 6.092109084129333496e-01 5.531152486801147461e-01 7.923951148986816406e-01 -7.753994464874267578e-01 -1.626752257347106934e+00 7.827378511428833008e-01 -3.274240791797637939e-01 8.581782579421997070e-01 -3.861786127090454102e-01 8.310013413429260254e-01 2.778855323791503906e+00 -7.548359036445617676e-01 -4.476013481616973877e-01 -2.415187358856201172e+00 1.668544530868530273e+00 -1.669363677501678467e-01 7.434430718421936035e-01 -1.665369749069213867e+00 1.876386880874633789e+00 5.403195858001708984e+00 -4.244818687438964844e+00 3.885765671730041504e-01 1.268813848495483398e+00 3.223386108875274658e-01 -1.217748761177062988e+00 9.645990729331970215e-01 2.301816463470458984e+00 2.284748792648315430e+00 -1.052926182746887207e+00 1.492545127868652344e+00 -8.047607541084289551e-01 -7.915799021720886230e-01 -7.540783405303955078e+00
-3.255806565284729004e-01 5.445978045463562012e-01 5.151515483856201172e+00 3.820430636405944824e-01 -2.232969045639038086e+00 -3.132381141185760498e-01 -3.166619539260864258e-01 -4.589859247207641602e-01 1.001787781715393066e+00 2.237339735031127930e+00 -7.166512298583984375e+01 -8.001638650894165039e-01 -3.359526824951171875e+01 -6.630305480957031250e+01 -4.451745003461837769e-02 -3.741011428833007812e+01 -1.016626596450805664e+00 -1.288870215415954590e+00 -9.868013858795166016e-01 -3.349688649177551270e-01 -9.553464651107788086e-01 1.500150561332702637e-01 -1.759330558776855469e+01 8.733760565519332886e-02 -1.544909775257110596e-01 -3.111253380775451660e-01 -9.182723164558410645e-01 -7.977316856384277344e+00 -1.308146119117736816e-01 -1.833592951297760010e-01 -2.178594470024108887e-01 -3.199901580810546875e-01 -7.657253742218017578e-02 -3.645001947879791260e-01 -4.108458042144775391e+00 -7.068063354492187500e+01 1.299675226211547852e+00 -5.965702533721923828e-01 -2.697595059871673584e-01 -3.318425118923187256e-01 -4.970245957374572754e-01 -7.585688829421997070e-01 -1.579315471649169922e+01 -1.162675857543945312e+00 -1.249218463897705078e+00 5.222730040550231934e-01 1.463258564472198486e-01 -7.304113388061523438e+00 -8.565343022346496582e-01 4.008760452270507812e-01 -7.278712987899780273e-01 1.412148475646972656e-01 -9.305425733327865601e-02 -9.174677133560180664e-01 -8.700104951858520508e-01 -3.082066178321838379e-01 -1.291592478752136230e+00 -6.102889060974121094e+00 -4.787347018718719482e-01 -2.245288848876953125e+00 -2.309944534301757812e+01 -1.342090487480163574e+00 -5.776008963584899902e-01 -9.428038001060485840e-01 -7.412849068641662598e-01 -3.351787030696868896e-01 -3.049229621887207031e+00 -5.776200294494628906e-01 -4.527545273303985596e-01 -1.756201934814453125e+01
1.009297490119934082e+00 -1.146047592163085938e+00 -3.879448473453521729e-01 -3.668742179870605469e-01 5.434737801551818848e-01 -5.140377879142761230e-01 5.079359412193298340e-01 -1.886369585990905762e-01 -7.805224657058715820e-01 5.493372082710266113e-01 1.705972701311111450e-01 1.204389929771423340e+00 -5.715052604675292969e+00 3.330482169985771179e-02 1.246474385261535645e+00 -1.895413279533386230e+00 5.971378803253173828e+00 -1.478464454412460327e-01 3.398373126983642578e+00 3.736552238464355469e+00 4.698201179504394531e+00 -8.737119436264038086e-01 -6.089822649955749512e-01 9.260414540767669678e-02 -9.595957398414611816e-01 1.739173769950866699e+00 2.455373287200927734e+00 -2.380781173706054688e-01 7.799887061119079590e-01 1.914485573768615723e+00 -5.629403591156005859e-01 -3.482263326644897461e+00 3.274212479591369629e-01 3.594925880432128906e+00 1.519335359334945679e-01 -5.018396377563476562e+00 2.666805028915405273e+00 -8.183047175407409668e-01 2.061522483825683594e+00 -2.399478703737258911e-01 -9.603344202041625977e-01 1.820866703987121582e+00 1.310456275939941406e+00 1.059104204177856445e+00 -5.178695917129516602e-01 -1.049619913101196289e-01 3.053166151046752930e+00 -8.155106306076049805e-01 3.323706388473510742e-01 -2.243737697601318359e+00 9.650294780731201172e-01 -4.805228859186172485e-02 -1.548241853713989258e+00 -6.211810931563377380e-02 -5.339472368359565735e-02 2.839803934097290039e+00 -7.992486953735351562e-01 -4.384481608867645264e-01 4.943172037601470947e-01 -3.436549425125122070e+00 -5.144736766815185547e-01 1.931372165679931641e+00 1.203795194625854492e+00 3.947270870208740234e+00 4.402709484100341797e+00 -5.026730895042419434e-01 -6.464061737060546875e-01 2.389406859874725342e-01 -3.608804345130920410e-01 -1.718252539634704590e+00
-2.942384481430053711e-01 5.252808332443237305e-02 2.959874153137207031e+00 1.073750615119934082e+00 -1.091213226318359375e+00 -3.111611604690551758e-01 -3.329346477985382080e-01 -4.178805649280548096e-01 -1.785941600799560547e+00 -1.228841781616210938e+00 -5.370589065551757812e+01 -6.741109490394592285e-01 -2.688347434997558594e+01 -4.318767929077148438e+01 -8.421332240104675293e-01 -3.058676719665527344e+01 6.058636307716369629e-01 -2.006462961435317993e-01 -1.845960766077041626e-01 9.304180741310119629e-02 -7.732890248298645020e-01 1.393219351768493652e+00 -9.566159248352050781e+00 4.364450648427009583e-02 4.751322269439697266e-01 8.533067107200622559e-01 -1.483574271202087402e+00 -7.244515419006347656e+00 1.550706177949905396e-01 -1.796868801116943359e+00 -2.967232763767242432e-01 -2.161781638860702515e-01 -8.915548324584960938e-01 4.246626198291778564e-01 -4.828025817871093750e+00 -5.020585250854492188e+01 9.565979838371276855e-01 -3.438902795314788818e-01 8.172310143709182739e-02 -6.891925930976867676e-01 -5.855559930205345154e-02 8.124841749668121338e-02 -1.304009532928466797e+01 3.775737583637237549e-01 -9.517948031425476074e-01 1.581083774566650391e+00 -1.931991577148437500e-01 -1.037805747985839844e+01 -1.481203436851501465e+00 1.134820938110351562e+00 -1.810391187667846680e+00 3.970656394958496094e-01 4.485412538051605225e-01 -1.847430109977722168e+00 2.511065006256103516e-01 1.172091484069824219e+00 -6.522482872009277344e+00 -7.408465862274169922e+00 -1.304426312446594238e+00 -1.823217272758483887e-01 -1.432045555114746094e+01 -2.155725061893463135e-01 -4.628320336341857910e-01 -2.030710875988006592e-01 1.056813374161720276e-01 -7.163889706134796143e-02 -4.338967800140380859e+00 -2.402659207582473755e-01 -4.485516846179962158e-01 -1.882328414916992188e+01
4.692333042621612549e-01 -1.205228209495544434e+00 -7.338421344757080078e-01 1.180619239807128906e+00 -1.622142195701599121e+00 -1.126201391220092773e+00 1.481595754623413086e+00 -1.358915686607360840e+00 -8.247576355934143066e-01 -1.677325554192066193e-02 -5.206258893013000488e-01 -2.061841249465942383e+00 -3.138743400573730469e+00 -1.860267877578735352e+00 -1.097095161676406860e-01 -1.313449382781982422e+00 1.678500294685363770e+00 -1.748527407646179199e+00 1.831888437271118164e+00 2.204560756683349609e+00 1.953893661499023438e+00 1.357520222663879395e+00 3.176826536655426025e-01 -1.994947314262390137e+00 9.835091829299926758e-01 2.578109264373779297e+00 -1.647965312004089355e+00 -6.532167792320251465e-01 8.025703430175781250e-01 -1.430038332939147949e+00 1.649637222290039062e-01 1.060275912284851074e+00 1.093416288495063782e-01 7.592098116874694824e-01 -7.628138661384582520e-01 -3.356398582458496094e+00 1.469765782356262207e+00 1.734120845794677734e+00 7.003390192985534668e-01 -1.105090618133544922e+00 6.222184300422668457e-01 -1.193435072898864746e+00 -4.719571173191070557e-01 4.829682409763336182e-01 -7.165410518646240234e-01 -5.718201398849487305e-01 2.169965744018554688e+00 -1.629284977912902832e+00 4.051146507263183594e-01 -1.076761007308959961e+00 8.732612729072570801e-01 -1.353589296340942383e-01 -1.183594703674316406e+00 -1.218203157186508179e-01 -1.975261211395263672e+00 2.182863712310791016e+00 -1.425497651100158691e+00 -1.493955969810485840e+00 -4.318242669105529785e-01 9.544756412506103516e-01 -1.600104212760925293e+00 6.273061037063598633e-01 4.557397365570068359e-01 1.284730434417724609e+00 1.750344753265380859e+00 -9.463533163070678711e-01 -3.273665010929107666e-01 -1.072100043296813965e+00 -6.368061900138854980e-01 -5.248301982879638672e+00
7.367151379585266113e-01 -1.049895405769348145e+00 1.958879232406616211e-01 1.416723728179931641e+00 -8.494556546211242676e-01 -1.321592926979064941e+00 -9.895907640457153320e-01 -5.613463521003723145e-01 -1.195165991783142090e+00 1.471141539514064789e-02 -1.444161057472229004e+00 -6.518729329109191895e-01 -4.726580142974853516e+00 -2.800092697143554688e+00 -6.157631278038024902e-01 -3.634838581085205078e+00 2.224833011627197266e+00 -8.625730276107788086e-01 2.457144260406494141e+00 2.449211597442626953e+00 3.040601968765258789e+00 1.561485052108764648e+00 -9.025982022285461426e-01 -1.182846307754516602e+00 5.144259929656982422e-01 2.132641553878784180e+00 -1.919562816619873047e+00 -1.193047523498535156e+00 5.748440623283386230e-01 -9.159350991249084473e-01 5.380830764770507812e-01 1.865589618682861328e+00 -1.863867521286010742e+00 1.511890172958374023e+00 -1.539645195007324219e-01 -4.906385898590087891e+00 1.292245507240295410e+00 1.843994021415710449e+00 2.313894182443618774e-01 -1.720330715179443359e+00 -1.957789063453674316e+00 -1.185475111007690430e+00 -1.850394487380981445e+00 4.982890784740447998e-01 -1.760226249694824219e+00 -1.331451535224914551e+00 2.765346050262451172e+00 -2.002550125122070312e+00 -1.143017768859863281e+00 -2.294749319553375244e-01 1.019571274518966675e-01 1.223973836749792099e-02 -1.412143945693969727e+00 -1.515666007995605469e+00 -7.636902332305908203e-01 2.306646585464477539e+00 -5.295135021209716797e+00 -1.400683522224426270e+00 -5.849339962005615234e-01 1.401643037796020508e+00 -8.969012498855590820e-01 4.484208226203918457e-01 9.328044652938842773e-01 1.988186359405517578e+00 2.517653465270996094e+00 -1.152308583259582520e+00 8.510676026344299316e-02 7.435157895088195801e-02 -2.496523857116699219e+00 -9.365051269531250000e+00
4.332853555679321289e-01 -7.375505566596984863e-01 -4.226139783859252930e-01 9.323329925537109375e-01 -1.641044616699218750e-01 -1.033981561660766602e+00 -8.206485509872436523e-01 2.415463179349899292e-01 -9.652013778686523438e-01 1.338851004838943481e-01 -1.077696084976196289e+00 -1.245713829994201660e+00 -3.904687881469726562e+00 -2.394645214080810547e+00 2.958439588546752930e-01 -2.966880798339843750e+00 2.078750371932983398e+00 -8.415504097938537598e-01 2.234699964523315430e+00 2.443834304809570312e+00 2.009532213211059570e+00 9.191108942031860352e-01 -3.770124912261962891e-01 -1.310992956161499023e+00 3.808565139770507812e-01 2.341302394866943359e+00 -2.096019029617309570e+00 -1.299656987190246582e+00 6.699097752571105957e-01 -1.539224028587341309e+00 9.931467175483703613e-01 8.965654373168945312e-01 -6.592426896095275879e-01 1.004312753677368164e+00 -5.530332401394844055e-02 -3.297156572341918945e+00 2.102097272872924805e+00 1.157516837120056152e+00 6.525146961212158203e-01 -1.341967821121215820e+00 -1.921565055847167969e+00 -1.251273512840270996e+00 -1.348806977272033691e+00 7.225544452667236328e-01 -1.050606012344360352e+00 -8.450152873992919922e-01 1.934207677841186523e+00 -8.549690842628479004e-01 -1.691589474678039551e+00 -8.504738807678222656e-01 6.921135187149047852e-01 -2.642643153667449951e-01 -1.508303284645080566e+00 -7.259905934333801270e-01 -9.690867662429809570e-01 1.190750718116760254e+00 -3.783413887023925781e+00 -6.950994133949279785e-01 -6.065650582313537598e-01 2.392428964376449585e-01 -1.112203001976013184e+00 3.418289721012115479e-01 6.848744153976440430e-01 1.765564680099487305e+00 1.881522774696350098e+00 -1.989368319511413574e+00 -7.903510928153991699e-01 1.547397077083587646e-01 -5.281014442443847656e-01 -7.786909103393554688e+00
-4.807788431644439697e-01 -1.008394598960876465e+00 1.367311954498291016e+00 1.933346271514892578e+00 6.229974031448364258e-01 -6.267411112785339355e-01 -1.752921104431152344e+00 -6.183786392211914062e-01 -1.819061636924743652e+00 -8.151422441005706787e-02 -1.188727951049804688e+01 -5.920080542564392090e-01 -1.399805259704589844e+01 -4.385443210601806641e+00 -8.865129351615905762e-01 -2.144852161407470703e+00 1.786071538925170898e+00 -7.736600637435913086e-01 1.317921042442321777e+00 3.400014400482177734e+00 2.171986341476440430e+00 1.687192559242248535e+00 -1.593868732452392578e-01 -1.032908797264099121e+00 7.324934601783752441e-01 8.129611611366271973e-01 -2.687804698944091797e-01 1.858586311340332031e+00 1.219567179679870605e+00 1.746603727340698242e+00 2.277685165405273438e+00 -1.131536006927490234e+00 -1.251411914825439453e+00 2.572922229766845703e+00 6.039605140686035156e-01 -2.268713378906250000e+01 -1.226139664649963379e-01 4.814575612545013428e-01 9.654310941696166992e-01 4.190824925899505615e-01 -7.192966341972351074e-01 -7.955602407455444336e-01 8.370260000228881836e-01 9.199851006269454956e-02 1.100285649299621582e+00 -1.826645493507385254e+00 2.550769090652465820e+00 2.500845670700073242e+00 -1.023048281669616699e+00 -9.249492287635803223e-01 -3.224051952362060547e+00 1.470455408096313477e+00 -6.673021912574768066e-01 7.164248228073120117e-01 -1.063903689384460449e+00 1.461672425270080566e+00 2.820917367935180664e+00 2.229549407958984375e+00 -1.082170009613037109e+00 8.585835248231887817e-02 -8.274011015892028809e-01 -1.008600711822509766e+00 1.496905565261840820e+00 2.452850818634033203e+00 2.156945943832397461e+00 -5.474597215652465820e-01 8.300522565841674805e-01 9.843208640813827515e-02 -5.940644741058349609e-01 -9.404444694519042969e+00
5.776122808456420898e-01 -1.105520725250244141e+00 -4.799208343029022217e-01 1.326620101928710938e+00 -1.173851966857910156e+00 -1.445330142974853516e+00 9.349614381790161133e-01 -7.811584472656250000e-01 -8.583273291587829590e-01 2.166081666946411133e-01 -2.226306051015853882e-01 -1.692988991737365723e+00 -3.457936525344848633e+00 -2.192176580429077148e+00 -7.199862599372863770e-01 -2.297904729843139648e+00 2.347184658050537109e+00 -1.529516339302062988e+00 2.338326692581176758e+00 2.029772996902465820e+00 1.831235408782958984e+00 1.882122039794921875e+00 2.918471395969390869e-01 -2.409604549407958984e+00 3.910631537437438965e-01 2.289618492126464844e+00 -1.554067254066467285e+00 -8.571448922157287598e-01 4.581873416900634766e-01 -9.012962579727172852e-01 3.357114791870117188e-01 1.154364585876464844e+00 -1.796631067991256714e-01 1.621564030647277832e+00 -4.689929485321044922e-01 -3.383736371994018555e+00 2.426517963409423828e+00 2.025059938430786133e+00 9.674867987632751465e-01 -8.612774014472961426e-01 -2.865754067897796631e-01 -1.664262890815734863e+00 -5.900111794471740723e-01 8.740829825401306152e-01 -1.742038965225219727e+00 -7.398361563682556152e-01 2.205752372741699219e+00 -9.817743897438049316e-01 -6.432348489761352539e-01 -1.118308782577514648e+00 1.013725772500038147e-01 7.553383111953735352e-01 -1.455091714859008789e+00 -1.244033336639404297e+00 -1.337304830551147461e+00 1.050960302352905273e+00 -2.873421192169189453e+00 -6.861038208007812500e-01 -6.445386409759521484e-01 9.469310045242309570e-01 -8.064706325531005859e-01 6.677029728889465332e-01 8.405154347419738770e-01 2.082340717315673828e+00 2.250995397567749023e+00 -9.486195445060729980e-01 -5.956610441207885742e-01 -4.127093255519866943e-01 -7.060984373092651367e-01 -4.714270114898681641e+00
1.870441436767578125e-01 -1.084663391113281250e+00 1.147594213485717773e+00 1.752572178840637207e+00 -3.890398740768432617e-01 -7.619022727012634277e-01 -7.035870552062988281e-01 -4.171219468116760254e-01 -1.401466488838195801e+00 -2.936644852161407471e-01 -7.531657218933105469e+00 -8.861876130104064941e-01 -1.227679443359375000e+01 -2.763643980026245117e+00 -5.753796100616455078e-01 7.235775589942932129e-01 1.824283957481384277e+00 -8.366784453392028809e-01 1.567721724510192871e+00 2.242481708526611328e+00 1.637290358543395996e+00 1.735731601715087891e+00 -6.912958145141601562e+00 -6.556457281112670898e-01 1.071375012397766113e+00 2.170364379882812500e+00 -1.107144832611083984e+00 -2.847392320632934570e+00 3.676701486110687256e-01 -2.040621519088745117e+00 1.248543024063110352e+00 3.283251821994781494e-01 -6.197830438613891602e-01 2.028241634368896484e+00 -2.693793773651123047e+00 -1.643094253540039062e+01 2.747429609298706055e-01 3.187858760356903076e-01 1.307538866996765137e+00 1.925450116395950317e-01 -5.497756600379943848e-01 -1.185889720916748047e+00 -8.197579383850097656e+00 2.139781117439270020e-01 1.089124660938978195e-02 -1.002431154251098633e+00 4.531988620758056641e+00 1.840137481689453125e+00 -4.272492527961730957e-01 -8.759365081787109375e-01 -1.127295851707458496e+00 1.220570921897888184e+00 -3.372100293636322021e-01 -1.011130809783935547e+00 -6.951382756233215332e-01 1.293031096458435059e+00 1.713438272476196289e+00 -5.827516555786132812e+00 -3.229528367519378662e-01 -3.505240678787231445e-01 8.621890544891357422e-01 1.417520642280578613e-01 9.932948946952819824e-01 1.976231217384338379e+00 2.416878938674926758e+00 -1.419538259506225586e-01 -5.032756924629211426e-01 -7.453216910362243652e-01 -4.914202988147735596e-01 -1.254564285278320312e+01
5.484511852264404297e-01 -6.429814100265502930e-01 -9.824721813201904297e-01 6.432878971099853516e-01 7.394766211509704590e-01 -1.134118080139160156e+00 1.332193464040756226e-01 -1.699779182672500610e-01 -1.502591729164123535e+00 3.259837925434112549e-01 5.559543892741203308e-02 1.538330554962158203e+00 -4.169424533843994141e+00 3.850803524255752563e-02 9.029704332351684570e-01 -1.111972808837890625e+00 2.594504833221435547e+00 8.768483996391296387e-01 3.650891780853271484e+00 9.183926582336425781e-01 2.105744123458862305e+00 8.440836668014526367e-01 3.360109925270080566e-01 1.382226228713989258e+00 -9.401331096887588501e-02 1.965250372886657715e+00 3.478984355926513672e+00 1.748190671205520630e-01 -1.502140313386917114e-01 2.128683328628540039e+00 -3.900614082813262939e-01 -1.269244313240051270e+00 7.090927958488464355e-01 1.485245108604431152e+00 3.950286284089088440e-02 -3.587425470352172852e+00 4.340445518493652344e+00 5.273677110671997070e-01 6.784549951553344727e-01 -4.011871516704559326e-01 -3.938308358192443848e-01 2.126080274581909180e+00 1.168702840805053711e+00 8.152770996093750000e-01 -2.787984311580657959e-01 -1.277538239955902100e-01 5.977323278784751892e-02 -4.209864735603332520e-01 -6.318275332450866699e-01 -1.277682304382324219e+00 9.644492268562316895e-01 -1.676735639572143555e+00 1.779136538505554199e+00 -1.493612080812454224e-01 1.693247675895690918e+00 1.495152235031127930e+00 -3.117363750934600830e-01 4.067415371537208557e-03 -6.048489809036254883e-01 -2.379975914955139160e-01 -5.563580989837646484e-01 8.951805830001831055e-01 5.177506804466247559e-01 2.120322227478027344e+00 1.164571404457092285e+00 -7.445803880691528320e-01 -3.900699317455291748e-01 2.444359064102172852e-01 7.273330539464950562e-02 -1.243114024400711060e-01
4.915834963321685791e-01 -1.019457459449768066e+00 -2.015166282653808594e-01 1.002358555793762207e+00 -8.693348169326782227e-01 -1.468483567237854004e+00 1.185593366622924805e+00 -7.727351784706115723e-01 -5.901585817337036133e-01 -3.364098072052001953e-02 -4.773147404193878174e-01 -2.130487442016601562e+00 -3.700258493423461914e+00 -2.155078411102294922e+00 -6.176851391792297363e-01 -2.289123296737670898e+00 2.212425231933593750e+00 -1.433892130851745605e+00 1.634156703948974609e+00 2.152545213699340820e+00 1.890928268432617188e+00 2.466165542602539062e+00 8.653241395950317383e-02 -1.582960486412048340e+00 9.652103185653686523e-01 1.980828881263732910e+00 -1.403801918029785156e+00 -1.352788329124450684e+00 9.079652428627014160e-01 -1.204230308532714844e+00 -2.803951501846313477e-01 1.376980066299438477e+00 -7.473860979080200195e-01 1.044618129730224609e+00 -6.604238152503967285e-01 -3.236757040023803711e+00 2.141355752944946289e+00 2.182927608489990234e+00 6.511201262474060059e-01 -8.875938653945922852e-01 -1.091471686959266663e-01 -1.558162212371826172e+00 -5.396671295166015625e-01 7.724361419677734375e-01 -1.833092212677001953e+00 -2.981161773204803467e-01 1.997530937194824219e+00 -1.801581978797912598e+00 1.292675495147705078e+00 -9.356392621994018555e-01 9.380325078964233398e-01 2.876929342746734619e-01 -1.161607503890991211e+00 -1.199130892753601074e+00 -1.974051475524902344e+00 1.914445161819458008e+00 -1.681229114532470703e+00 -1.715126186609268188e-01 -8.656151294708251953e-01 7.903557419776916504e-01 -2.385959327220916748e-01 8.114073276519775391e-01 8.761796355247497559e-01 1.731901288032531738e+00 1.992324709892272949e+00 -8.705940246582031250e-01 -2.739904224872589111e-01 -6.807814836502075195e-01 -1.437148600816726685e-01 -5.400100231170654297e+00
5.395864248275756836e-01 -1.031812429428100586e+00 -8.820175528526306152e-01 -2.983222305774688721e-01 1.090082764625549316e+00 -5.844128131866455078e-01 -3.914595842361450195e-01 -6.967698931694030762e-01 -1.004800319671630859e+00 2.780606150627136230e-01 4.116002321243286133e-01 9.832263588905334473e-01 -6.436185359954833984e+00 -1.527250707149505615e-01 2.126847952604293823e-02 -1.201357126235961914e+00 4.192104816436767578e+00 1.088632822036743164e+00 3.873970746994018555e+00 2.569877386093139648e+00 3.366557598114013672e+00 -1.065505385398864746e+00 -8.448753505945205688e-02 1.878558099269866943e-01 -2.475623130798339844e+00 2.376211881637573242e+00 3.369183778762817383e+00 6.105960533022880554e-02 -2.802069783210754395e-01 3.007946491241455078e+00 7.533176988363265991e-02 -1.337780833244323730e+00 -7.791677862405776978e-02 2.381710767745971680e+00 -2.715248167514801025e-01 -4.397317409515380859e+00 2.579963922500610352e+00 -9.541584849357604980e-01 1.405903100967407227e+00 3.339987695217132568e-01 -3.923907279968261719e-01 1.124697923660278320e+00 1.437622785568237305e+00 6.364362239837646484e-01 -1.127396076917648315e-01 1.532395631074905396e-01 3.028042554855346680e+00 -7.030471563339233398e-01 3.803078830242156982e-01 -1.580198526382446289e+00 1.048198223114013672e+00 1.929330028360709548e-04 2.177045106887817383e+00 -6.870429962873458862e-02 1.041294336318969727e+00 1.684685468673706055e+00 -4.305785596370697021e-01 4.120694100856781006e-01 -3.342720270156860352e-01 -7.755304574966430664e-01 -2.084620594978332520e-01 6.407263875007629395e-01 4.878360331058502197e-01 3.126685619354248047e+00 3.293991327285766602e+00 -4.473401010036468506e-01 -4.721578061580657959e-01 -2.265097498893737793e-01 -5.688519477844238281e-01 -5.177396535873413086e-01
4.113568365573883057e-01 -8.363524675369262695e-01 -7.904644012451171875e-01 1.761687874794006348e+00 -3.687774538993835449e-01 -5.458520054817199707e-01 1.590518951416015625e+00 -6.542887091636657715e-01 -1.375563383102416992e+00 -8.440662175416946411e-02 -8.050099611282348633e-01 1.157866194844245911e-01 -4.652920246124267578e+00 -1.498310208320617676e+00 7.021638751029968262e-01 -1.365391969680786133e+00 3.768219470977783203e+00 1.221704721450805664e+00 2.414599657058715820e+00 3.108768224716186523e+00 3.222727060317993164e+00 1.631422996520996094e+00 -1.661639511585235596e-01 1.447594046592712402e+00 -2.679517507553100586e+00 1.995017409324645996e+00 -5.870521664619445801e-01 -5.267277359962463379e-01 1.311270952224731445e+00 7.906708121299743652e-01 -6.495650410652160645e-01 8.834523558616638184e-01 -5.204160213470458984e-01 1.857192277908325195e+00 -1.563309580087661743e-01 -5.567841053009033203e+00 2.956245899200439453e+00 3.200081884860992432e-01 1.487846374511718750e+00 -1.080215815454721451e-02 1.169867068529129028e-01 2.840264439582824707e-01 -1.677148580551147461e+00 8.225709795951843262e-01 1.933149844408035278e-01 -6.825453042984008789e-01 3.137542724609375000e+00 -1.582604646682739258e+00 -1.762277930974960327e-01 -1.134872317314147949e+00 1.403949975967407227e+00 -8.241834044456481934e-01 2.266239166259765625e+00 -3.851888775825500488e-01 5.249907970428466797e-01 2.647423744201660156e+00 3.494637608528137207e-01 -7.377151846885681152e-01 1.938551962375640869e-01 4.489663243293762207e-01 -1.796211242675781250e+00 1.174693226814270020e+00 7.400326132774353027e-01 2.989281654357910156e+00 3.339261770248413086e+00 3.947097957134246826e-01 -5.428380370140075684e-01 1.680012419819831848e-02 -1.185597538948059082e+00 -2.439457893371582031e+00
3.905067741870880127e-01 -7.276686429977416992e-01 -9.324578642845153809e-01 1.868538737297058105e+00 -8.089587092399597168e-01 -1.193193793296813965e+00 1.584740161895751953e+00 -8.917368650436401367e-01 -1.337290406227111816e+00 -4.521985948085784912e-01 8.387818932533264160e-02 -1.316735386848449707e+00 -2.655592203140258789e+00 -1.760221362113952637e+00 -3.778508305549621582e-01 -2.027262687683105469e+00 1.133363246917724609e+00 -1.770880103111267090e+00 2.381538867950439453e+00 1.156150102615356445e+00 1.097225189208984375e+00 1.764340043067932129e+00 9.745485782623291016e-01 -1.856843352317810059e+00 5.849724411964416504e-01 2.067277669906616211e+00 -1.653195738792419434e+00 -3.908312320709228516e-01 6.098517179489135742e-01 -5.494899153709411621e-01 -3.969840705394744873e-03 1.682386040687561035e+00 -9.793619513511657715e-01 7.968342900276184082e-01 -9.128810167312622070e-01 -3.579699754714965820e+00 2.107666015625000000e+00 1.466387629508972168e+00 4.463105201721191406e-01 -9.566405415534973145e-01 6.754124164581298828e-01 -1.407201290130615234e+00 1.889544576406478882e-01 3.223029673099517822e-01 -1.942522168159484863e+00 2.987135350704193115e-01 2.538592338562011719e+00 -7.566031217575073242e-01 3.516645431518554688e-01 -1.081916928291320801e+00 2.103974372148513794e-01 7.975327372550964355e-01 -1.085614323616027832e+00 -7.570159435272216797e-01 -1.421544909477233887e+00 1.355762124061584473e+00 -1.971805572509765625e+00 -6.683157086372375488e-01 2.410327792167663574e-01 8.325871229171752930e-01 -1.012482523918151855e+00 5.806031227111816406e-01 6.797828674316406250e-01 1.487068414688110352e+00 1.396445155143737793e+00 -4.096867144107818604e-01 2.186682075262069702e-01 -8.512868881225585938e-01 -7.736544609069824219e-01 -3.707523822784423828e+00
1.671393513679504395e-01 -1.926112771034240723e+00 -1.242470979690551758e+00 -1.043462872505187988e+00 1.409673929214477539e+00 2.387348860502243042e-01 9.118974804878234863e-01 -2.505551278591156006e-01 -1.629709482192993164e+00 4.231807887554168701e-01 1.919432431459426880e-01 1.570399165153503418e+00 1.241186022758483887e+00 -7.325246334075927734e-01 5.048932433128356934e-01 -8.591327667236328125e-01 1.826592534780502319e-01 8.351324796676635742e-01 -1.652102544903755188e-02 6.962789893150329590e-01 -4.048764109611511230e-01 -7.801504135131835938e-01 5.894991159439086914e-01 4.720827579498291016e+00 -2.997760474681854248e-01 2.301490783691406250e+00 1.484589219093322754e+00 -5.774519443511962891e-01 -2.923816442489624023e-01 2.600252628326416016e+00 -2.375378370285034180e+00 -1.906400084495544434e+00 5.739848613739013672e-01 2.116322994232177734e+00 -3.199650347232818604e-01 2.747177481651306152e-01 1.017722249031066895e+00 -1.491188049316406250e+00 -1.198743060231208801e-01 -1.000380143523216248e-02 8.763873577117919922e-02 1.325663924217224121e+00 -1.363486886024475098e+00 6.065309513360261917e-03 -6.303982138633728027e-01 -4.486865401268005371e-01 2.097078800201416016e+00 -6.661064624786376953e-01 3.948217630386352539e-01 -2.430403947830200195e+00 1.441053152084350586e+00 -1.885338902473449707e+00 4.571480274200439453e+00 -2.069524675607681274e-01 7.623707652091979980e-01 1.787686228752136230e+00 -1.237517781555652618e-02 6.194680556654930115e-02 6.547840237617492676e-01 2.106570899486541748e-01 -5.081377625465393066e-01 5.754858255386352539e-01 -4.764947593212127686e-01 7.411348633468151093e-04 1.835188269615173340e-01 8.948091417551040649e-02 -3.467780053615570068e-01 1.838285923004150391e-01 -1.935819238424301147e-01 -5.969758033752441406e-01
6.864172816276550293e-01 -1.428446412086486816e+00 -9.353992938995361328e-01 7.783249020576477051e-01 -5.905174612998962402e-01 -1.157582879066467285e+00 -1.669434458017349243e-01 -3.062632679939270020e-01 -1.319466352462768555e+00 3.212149143218994141e-01 -9.016979932785034180e-01 -1.421670317649841309e+00 -2.959788799285888672e+00 -1.560964703559875488e+00 1.275457441806793213e-01 -2.622587442398071289e+00 2.050981760025024414e+00 -1.922162532806396484e+00 2.243105649948120117e+00 2.299942493438720703e+00 2.278284311294555664e+00 9.818400144577026367e-01 -1.131292581558227539e-01 -1.449432015419006348e+00 6.485837697982788086e-01 3.131989002227783203e+00 -1.846002101898193359e+00 -8.235515952110290527e-01 2.314588129520416260e-01 -1.233658313751220703e+00 -1.436145752668380737e-01 7.406824231147766113e-01 8.090034127235412598e-02 7.082589268684387207e-01 -5.115339159965515137e-01 -3.549048900604248047e+00 2.760641574859619141e+00 8.527510762214660645e-01 5.986349582672119141e-01 -1.417025923728942871e+00 -9.204713106155395508e-01 -1.574539899826049805e+00 -1.092276334762573242e+00 7.351535558700561523e-01 -7.619974017143249512e-01 -7.287858724594116211e-01 2.455017805099487305e+00 -1.136035442352294922e+00 -4.233369827270507812e-01 -1.012160778045654297e+00 3.536389768123626709e-01 6.410064101219177246e-01 -1.621469140052795410e+00 -8.220382332801818848e-01 -2.082324981689453125e+00 1.543939232826232910e+00 -2.898955345153808594e+00 -2.280375063419342041e-01 -6.628648638725280762e-01 7.501805424690246582e-01 -1.217901945114135742e+00 8.388916850090026855e-01 5.855634808540344238e-01 2.181411743164062500e+00 2.193273544311523438e+00 -7.943626642227172852e-01 -6.095800995826721191e-01 -2.466237396001815796e-01 -2.347257584333419800e-01 -5.961539268493652344e+00
6.551312804222106934e-01 -7.274885177612304688e-01 1.585253626108169556e-01 1.406550526618957520e+00 -6.010042428970336914e-01 -1.175677180290222168e+00 4.341072216629981995e-02 -1.216364860534667969e+00 -1.349888443946838379e+00 9.224179387092590332e-02 -1.281364321708679199e+00 -1.293181538581848145e+00 -4.349662303924560547e+00 -2.850147724151611328e+00 -8.311063647270202637e-01 -2.831843614578247070e+00 1.950101256370544434e+00 -9.364104866981506348e-01 1.562962174415588379e+00 2.524463891983032227e+00 2.345733165740966797e+00 2.356031656265258789e+00 -6.691525876522064209e-02 -6.531133055686950684e-01 7.617380023002624512e-01 1.735605955123901367e+00 -1.718896508216857910e+00 -1.291067004203796387e+00 9.573363661766052246e-01 -1.225355386734008789e+00 3.483496308326721191e-01 2.087527513504028320e+00 -7.086203694343566895e-01 1.257781863212585449e+00 -7.404088973999023438e-01 -4.100016593933105469e+00 1.701926827430725098e+00 1.879966378211975098e+00 7.335043549537658691e-01 -1.680843353271484375e+00 -1.624889969825744629e-01 -8.125157952308654785e-01 -1.475588917732238770e+00 3.462853729724884033e-01 -1.992419242858886719e+00 -8.110398650169372559e-01 1.829236030578613281e+00 -1.455529928207397461e+00 -7.831535339355468750e-01 -5.205819010734558105e-01 3.717002868652343750e-01 1.860192418098449707e-01 -1.081532120704650879e+00 -1.647658348083496094e+00 -1.092445850372314453e+00 2.494511604309082031e+00 -4.000122547149658203e+00 -1.312592267990112305e+00 -6.098167300224304199e-01 1.452867031097412109e+00 -1.986174941062927246e+00 4.855089485645294189e-01 6.408329606056213379e-01 2.171821832656860352e+00 1.702767133712768555e+00 -7.981082201004028320e-01 -4.513328894972801208e-02 -1.085681200027465820e+00 -1.470557928085327148e+00 -7.680958747863769531e+00
2.141303122043609619e-01 -6.865282654762268066e-01 2.995368003845214844e+00 1.090976357460021973e+00 -3.422558605670928955e-01 -4.368678480386734009e-02 -8.488384485244750977e-01 3.687107861042022705e-01 -6.925271153450012207e-01 -7.025533318519592285e-01 -5.421929168701171875e+01 -7.664186954498291016e-01 -2.673324966430664062e+01 -4.135237884521484375e+01 -7.835523486137390137e-01 -2.992413520812988281e+01 1.688506454229354858e-01 -1.441586911678314209e-01 2.150573134422302246e-01 1.085305571556091309e+00 -4.462665319442749023e-01 9.507940411567687988e-01 -9.451592445373535156e+00 -4.901132583618164062e-01 4.074198901653289795e-01 1.056592226028442383e+00 -1.244432568550109863e+00 -8.085205078125000000e+00 3.927105665206909180e-01 -1.860373497009277344e+00 5.342417359352111816e-01 -6.886277198791503906e-01 -5.684483647346496582e-01 1.148355484008789062e+00 -5.608358383178710938e+00 -5.078450012207031250e+01 1.637868642807006836e+00 -8.906352519989013672e-02 6.342759132385253906e-01 -7.212650179862976074e-01 -5.960717797279357910e-02 -7.887931168079376221e-02 -1.308989048004150391e+01 4.849877953529357910e-01 -7.790910601615905762e-01 -7.152295708656311035e-01 1.129865422844886780e-01 -1.083014106750488281e+01 -1.296863794326782227e+00 7.557469010353088379e-01 -1.532163619995117188e+00 7.001942396163940430e-01 6.267366409301757812e-01 -1.973949193954467773e+00 -7.243246585130691528e-02 8.585361242294311523e-01 -6.981822490692138672e+00 -8.368070602416992188e+00 -4.316065013408660889e-01 -6.554089188575744629e-01 -1.359432792663574219e+01 -9.415012598037719727e-01 4.294103980064392090e-01 -8.602489717304706573e-03 4.070186614990234375e-01 -4.618315771222114563e-02 -3.411369562149047852e+00 -3.051769733428955078e-01 -1.136733740568161011e-01 -1.861900329589843750e+01
2.780227661132812500e-01 -1.329382181167602539e+00 -1.635653257369995117e+00 -2.850837111473083496e-01 1.099620938301086426e+00 -4.414802789688110352e-01 1.160699367523193359e+00 -6.742331981658935547e-01 -1.719461202621459961e+00 -4.736407399177551270e-01 8.120936155319213867e-01 2.426702022552490234e+00 7.204882502555847168e-01 -6.976433992385864258e-01 3.635961055755615234e+00 -3.136061728000640869e-01 5.523686408996582031e-01 2.148563146591186523e+00 7.025929689407348633e-01 4.466758966445922852e-01 1.507493406534194946e-01 -2.452866435050964355e-01 7.060222029685974121e-01 3.415915727615356445e+00 6.396974325180053711e-01 2.095299482345581055e+00 1.746907949447631836e+00 -4.648104608058929443e-01 5.764206647872924805e-01 2.661940336227416992e+00 -2.170374155044555664e+00 -1.538559079170227051e+00 4.138302803039550781e-01 1.492546796798706055e+00 -5.296757221221923828e-01 -5.192614793777465820e-01 2.221004962921142578e+00 -3.078168392181396484e+00 8.902618885040283203e-01 -8.353205770254135132e-02 3.477794229984283447e-01 2.067940473556518555e+00 -7.962268590927124023e-01 1.899309307336807251e-01 -1.478675007820129395e-01 -2.012198120355606079e-01 2.451451063156127930e+00 -2.545615434646606445e-01 -1.459142193198204041e-02 -1.639357686042785645e+00 7.473753094673156738e-01 -1.895872712135314941e+00 6.024297714233398438e+00 -2.068557292222976685e-01 1.390678524971008301e+00 1.002757072448730469e+00 1.335073728114366531e-02 -9.873633831739425659e-02 1.784855872392654419e-01 2.421593815088272095e-01 -1.659443527460098267e-01 7.216224670410156250e-01 6.004370450973510742e-01 5.324711203575134277e-01 5.716991424560546875e-01 3.551681712269783020e-02 1.199291720986366272e-01 -1.301656484603881836e+00 2.429103255271911621e-01 -8.191428184509277344e-01
1.138249278068542480e+00 -5.389372706413269043e-01 4.300560355186462402e-01 1.924613565206527710e-01 -1.535086154937744141e+00 -9.025939702987670898e-01 -2.601399719715118408e-01 -5.905815958976745605e-01 -8.322795033454895020e-01 -1.998416520655155182e-02 1.741853833198547363e+00 3.249809443950653076e-01 -7.529028415679931641e+00 1.247917890548706055e+00 5.804469808936119080e-02 -8.386313319206237793e-01 5.749734401702880859e+00 -2.473273992538452148e+00 4.419091224670410156e+00 4.554862499237060547e+00 4.810896873474121094e+00 -3.878018558025360107e-01 -7.975444197654724121e-02 -1.227992773056030273e+00 6.779477000236511230e-02 1.997926354408264160e+00 1.209223270416259766e+00 6.469413042068481445e-01 5.589572787284851074e-01 9.480327367782592773e-01 6.628789901733398438e-01 -3.122824192047119141e+00 -8.736299723386764526e-02 3.131472826004028320e+00 -5.383345484733581543e-01 -2.820740222930908203e+00 4.225908756256103516e+00 1.909874379634857178e-01 8.942956328392028809e-01 -5.432019829750061035e-01 -6.584681868553161621e-01 8.387418836355209351e-02 1.465150237083435059e+00 9.806851148605346680e-01 -1.028639197349548340e+00 3.966066837310791016e-01 2.358051300048828125e+00 -1.582808047533035278e-01 -7.442681789398193359e-01 -2.575744390487670898e+00 4.844293296337127686e-01 1.040233373641967773e+00 -2.372779130935668945e+00 -6.239395737648010254e-01 -1.537232398986816406e+00 2.940114021301269531e+00 -1.100245714187622070e+00 3.940259292721748352e-02 -5.586097836494445801e-01 -3.101560831069946289e+00 -3.313404023647308350e-01 1.353486776351928711e+00 1.101044416427612305e+00 4.008632659912109375e+00 4.027566909790039062e+00 -6.206946372985839844e-01 -1.893062829971313477e+00 -7.657570242881774902e-01 -3.081714920699596405e-02 -4.484691619873046875e+00
9.232819676399230957e-01 -9.094849824905395508e-01 -1.434919357299804688e+00 1.221229955554008484e-01 2.546457767486572266e+00 -2.656185925006866455e-01 1.409503936767578125e+00 -2.875605821609497070e-01 -1.574422717094421387e+00 -4.813019633293151855e-01 5.736936926841735840e-01 3.123001098632812500e+00 1.220691919326782227e+00 -6.289716064929962158e-02 3.081913948059082031e+00 -7.490877509117126465e-01 2.746916055679321289e+00 1.750008940696716309e+00 1.395676374435424805e+00 1.039422392845153809e+00 1.753725171089172363e+00 1.458250582218170166e-01 -2.746685445308685303e-01 1.681333303451538086e+00 -2.169573545455932617e+00 2.047757863998413086e+00 1.169220209121704102e+00 1.235068514943122864e-01 1.559826612472534180e+00 1.807224631309509277e+00 -1.232934594154357910e+00 1.579223573207855225e-01 7.727127671241760254e-01 2.168001651763916016e+00 3.935660719871520996e-01 -1.316766619682312012e+00 1.622195839881896973e+00 -1.266421914100646973e+00 1.485059976577758789e+00 2.213422507047653198e-01 -5.578314661979675293e-01 2.478626251220703125e+00 -1.297070235013961792e-01 5.088784694671630859e-01 -3.629208803176879883e-01 -8.319061994552612305e-02 2.433538198471069336e+00 -4.853145778179168701e-01 7.667404413223266602e-01 -3.233471393585205078e+00 1.407764911651611328e+00 -1.165181517601013184e+00 2.377569913864135742e+00 2.476111799478530884e-01 1.971652269363403320e+00 1.768636465072631836e+00 -4.246585369110107422e-01 4.770693182945251465e-02 3.142479956150054932e-01 -1.580757796764373779e-01 -3.473178744316101074e-01 1.854493975639343262e+00 6.526933312416076660e-01 1.686900377273559570e+00 1.818385958671569824e+00 1.438703667372465134e-02 -1.282036423683166504e+00 3.996842503547668457e-01 4.332044720649719238e-01 -3.172801733016967773e-01
9.308622479438781738e-01 -5.580583810806274414e-01 1.337412595748901367e+00 -1.302723169326782227e+00 7.033421993255615234e-01 2.339163869619369507e-01 2.282269477844238281e+00 3.739057108759880066e-02 -1.103958964347839355e+00 2.324855476617813110e-01 -1.921804547309875488e+00 2.979397296905517578e+00 -1.481126689910888672e+01 -1.353822708129882812e+00 2.946604251861572266e+00 -1.140376091003417969e+00 4.500741004943847656e+00 2.556688547134399414e+00 8.141775131225585938e-01 2.647412538528442383e+00 4.786545276641845703e+00 -7.596592307090759277e-01 -3.202326774597167969e+00 4.644614219665527344e+00 1.073795914649963379e+00 2.550616979598999023e+00 -4.334374889731407166e-02 -2.876386642456054688e+00 -2.069579362869262695e+00 1.879194617271423340e+00 -2.603102207183837891e+00 1.131321549415588379e+00 -8.087152242660522461e-01 1.257509589195251465e+00 -1.959609866142272949e+00 -6.531360149383544922e+00 7.215490341186523438e-01 -6.549196839332580566e-01 -7.522832751274108887e-01 1.715913265943527222e-01 1.562818527221679688e+00 3.159633874893188477e+00 1.828188300132751465e+00 8.376546502113342285e-01 6.672562360763549805e-01 1.035431921482086182e-01 4.779707908630371094e+00 -3.726647138595581055e+00 6.778445243835449219e-01 -7.937815189361572266e-01 2.323957532644271851e-01 -2.293874979019165039e+00 3.310250997543334961e+00 -6.713749766349792480e-01 3.601520776748657227e+00 1.366587996482849121e+00 3.038677215576171875e+00 -3.180707216262817383e+00 5.078551173210144043e-01 -2.195706605911254883e+00 -3.072796344757080078e+00 -1.557458937168121338e-01 -7.744818329811096191e-01 4.706210613250732422e+00 4.542999267578125000e+00 1.078074812889099121e+00 -1.644414067268371582e-01 -9.987275600433349609e-01 2.030340582132339478e-02 -2.001510381698608398e+00
4.663196206092834473e-01 -5.597147941589355469e-01 1.103545129299163818e-01 1.548718094825744629e+00 -7.801042795181274414e-01 -3.928476274013519287e-01 1.760973632335662842e-01 -4.427128732204437256e-01 -1.120297551155090332e+00 2.182799577713012695e-02 -4.781804382801055908e-01 -2.690467357635498047e+00 -3.898624897003173828e+00 -1.404753684997558594e+00 -5.551994442939758301e-01 -1.947358369827270508e+00 2.295665502548217773e+00 -5.915024876594543457e-01 1.783694624900817871e+00 2.474077701568603516e+00 2.673316240310668945e+00 1.520166158676147461e+00 -2.593343555927276611e-01 -9.507697224617004395e-01 2.393125593662261963e-01 1.906201839447021484e+00 -1.051350712776184082e+00 -2.284345149993896484e+00 7.594526410102844238e-01 -1.218726515769958496e+00 -1.242101565003395081e-01 1.506471991539001465e+00 -6.333826780319213867e-01 1.793312788009643555e+00 -8.074726462364196777e-01 -4.347379684448242188e+00 2.617763996124267578e+00 1.802391290664672852e+00 6.475377678871154785e-01 -5.831421017646789551e-01 -2.205231189727783203e-01 -1.942405819892883301e+00 -6.940459012985229492e-01 1.862119138240814209e-01 -1.348170876502990723e+00 -3.457591831684112549e-01 2.333291053771972656e+00 -1.533833026885986328e+00 -5.309643745422363281e-01 -5.812020301818847656e-01 3.042763769626617432e-01 -2.071220614016056061e-02 -1.789542794227600098e+00 -6.023500561714172363e-01 -1.312388777732849121e+00 1.851589202880859375e+00 -1.821815729141235352e+00 -5.082709789276123047e-01 7.745092362165451050e-02 1.093860149383544922e+00 -9.750423431396484375e-01 9.310410241596400738e-04 7.153546810150146484e-01 2.091873645782470703e+00 1.966515302658081055e+00 -2.186575084924697876e-01 -4.924095273017883301e-01 -7.714020609855651855e-01 -6.655619740486145020e-01 -4.220646858215332031e+00
-8.237592577934265137e-01 -2.062555789947509766e+00 1.863269090652465820e+00 2.518663167953491211e+00 -1.572233557701110840e+00 -4.846749901771545410e-01 -1.599208831787109375e+00 -3.611295223236083984e-01 -2.471146583557128906e+00 -1.347950220108032227e+00 -6.977581501007080078e+00 -2.066410541534423828e+00 -1.158322048187255859e+01 -1.035747528076171875e+00 -1.608529567718505859e+00 6.957337260246276855e-01 9.551697373390197754e-01 -1.488180279731750488e+00 1.275476932525634766e+00 2.695080518722534180e+00 1.819248914718627930e+00 2.444857358932495117e+00 3.034828662872314453e+00 -1.128650307655334473e+00 1.830951333045959473e+00 4.102077186107635498e-01 -4.097029268741607666e-01 6.979728341102600098e-01 6.329578757286071777e-01 3.092850685119628906e+00 2.306444406509399414e+00 -1.007283091545104980e+00 -5.244573354721069336e-01 1.975900292396545410e+00 1.961364269256591797e+00 -2.731243133544921875e+01 6.650687456130981445e-01 7.304148077964782715e-01 2.590042352676391602e-01 -9.232333898544311523e-01 -4.305756688117980957e-01 -1.627156138420104980e+00 2.171656847000122070e+00 -6.959428787231445312e-01 8.273876309394836426e-01 -1.052562952041625977e+00 1.378622651100158691e-01 2.290415048599243164e+00 -1.195849061012268066e+00 3.992786109447479248e-01 -3.000783920288085938e+00 1.462297797203063965e+00 1.979364007711410522e-01 4.590223133563995361e-01 -1.879844307899475098e+00 1.992036819458007812e+00 4.091699600219726562e+00 1.047131299972534180e+00 1.867313981056213379e-01 8.754277825355529785e-01 8.613535165786743164e-01 -1.200409770011901855e+00 6.776611804962158203e-01 2.036332845687866211e+00 1.844699025154113770e+00 -7.444371581077575684e-01 9.766454100608825684e-01 -8.855208754539489746e-01 -4.731376171112060547e-01 -8.835682868957519531e+00
-2.639215290546417236e-01 -1.116669535636901855e+00 6.183751225471496582e-01 1.979460597038269043e+00 2.599022984504699707e-01 8.390678465366363525e-02 -7.252483367919921875e-01 3.223855793476104736e-01 -1.739173889160156250e+00 -5.143384337425231934e-01 1.520331144332885742e+00 -2.964992634952068329e-02 1.887274384498596191e+00 3.452239036560058594e+00 -2.880246043205261230e-01 4.483331367373466492e-02 2.114994764328002930e+00 -8.171743750572204590e-01 1.639296650886535645e+00 3.324008464813232422e+00 2.643823623657226562e+00 1.976645469665527344e+00 -1.670888811349868774e-01 -1.027690529823303223e+00 1.243793129920959473e+00 4.209910631179809570e-01 1.189903855323791504e+00 7.813475728034973145e-01 2.065833806991577148e+00 2.864147663116455078e+00 2.687820911407470703e+00 4.267902076244354248e-01 -1.263639628887176514e-01 2.653201580047607422e+00 -1.349358260631561279e-01 -8.192782402038574219e+00 1.071526169776916504e+00 5.860360264778137207e-01 1.585630297660827637e+00 6.264483332633972168e-01 3.358069360256195068e-01 -9.643149375915527344e-01 1.099648118019104004e+00 -3.205338120460510254e-01 3.154731094837188721e-01 -1.666365265846252441e+00 2.163240671157836914e+00 -2.869811356067657471e-01 -6.503382921218872070e-01 -4.117400050163269043e-01 -2.567697688937187195e-02 1.578387856483459473e+00 -9.839549064636230469e-01 3.938581943511962891e-01 -5.471578240394592285e-01 2.918222427368164062e+00 -1.587955832481384277e+00 1.603339433670043945e+00 -8.853837847709655762e-02 6.833079457283020020e-01 -1.572970449924468994e-01 -9.670487046241760254e-02 1.754940629005432129e+00 3.146806478500366211e+00 3.125536441802978516e+00 2.349795959889888763e-02 -6.801969558000564575e-02 8.386847972869873047e-01 3.353498280048370361e-01 -9.719929695129394531e+00
-2.390270233154296875e-01 8.294278383255004883e-01 5.253452301025390625e+00 1.121951699256896973e+00 -1.688410758972167969e+00 -3.747065365314483643e-01 -5.974774956703186035e-01 -8.056469559669494629e-01 1.166707992553710938e+00 6.067478284239768982e-02 -7.158416748046875000e+01 -2.031166404485702515e-01 -3.096569633483886719e+01 -6.574810791015625000e+01 -3.487066626548767090e-01 -3.681066513061523438e+01 -6.405247449874877930e-01 -1.127371266484260559e-01 -8.443241119384765625e-01 -2.232890389859676361e-02 -7.426322698593139648e-01 6.337796449661254883e-01 -9.639932632446289062e+00 -3.372501581907272339e-02 -1.020433783531188965e+00 -1.006408452987670898e+00 -9.133602976799011230e-01 -5.092640876770019531e+00 -1.056826785206794739e-01 -1.134649753570556641e+00 -3.012285530567169189e-01 -1.122155666351318359e+00 -1.767701864242553711e+00 1.843348294496536255e-01 -3.856570005416870117e+00 -5.406319808959960938e+01 2.359987735748291016e+00 -6.977820396423339844e-01 -1.218807548284530640e-01 -7.279384732246398926e-01 -1.919264197349548340e-01 -2.783514857292175293e-01 -8.910087585449218750e+00 -3.349629044532775879e-01 -6.370151042938232422e-01 4.129408597946166992e-01 -3.375646352767944336e+00 -8.523063659667968750e+00 -1.243349075317382812e+00 1.213869333267211914e+00 -4.350718021392822266e+00 -1.180908158421516418e-01 -1.129167795181274414e+00 -1.404053092002868652e+00 3.446977138519287109e-01 8.853118419647216797e-01 5.607596635818481445e-01 -4.146691799163818359e+00 -1.104476332664489746e+00 -6.810365915298461914e-01 -2.215587234497070312e+01 -9.657636284828186035e-01 -3.622621893882751465e-01 -5.589138865470886230e-01 -2.421849220991134644e-01 -3.595472276210784912e-01 -1.073819279670715332e+00 -9.094671607017517090e-01 -3.268866539001464844e-01 -8.790751457214355469e+00
-1.006575965881347656e+01 -1.025543212890625000e+00 -3.194817304611206055e+00 8.318596333265304565e-02 3.704456388950347900e-01 2.963518165051937103e-02 5.427101254463195801e-01 8.961413055658340454e-02 -1.289887070655822754e+00 -7.397862434387207031e+00 -1.978588551282882690e-01 2.259592562913894653e-01 3.015930414199829102e+00 -6.446515768766403198e-02 4.729858934879302979e-01 -2.488161996006965637e-02 -2.690284490585327148e+00 8.170866966247558594e-02 -1.355928659439086914e+00 -1.568163514137268066e+00 -2.833439350128173828e+00 8.042017370462417603e-02 -6.502406299114227295e-02 8.562443405389785767e-02 -3.705466687679290771e-01 -1.181585311889648438e+01 -3.376898956298828125e+01 -3.194570168852806091e-02 -2.178203582763671875e+00 -1.213586711883544922e+01 -2.798515260219573975e-01 9.621973633766174316e-01 2.236768156290054321e-01 -1.472882747650146484e+00 5.533760413527488708e-02 -5.103976726531982422e+00 -1.548244476318359375e+00 -2.706497013568878174e-01 -3.675465583801269531e+00 -1.616972312331199646e-02 1.029345244169235229e-01 2.524937093257904053e-01 -2.643628597259521484e+00 -8.748847961425781250e+00 -1.379910856485366821e-02 -7.754484653472900391e+00 2.171135425567626953e+00 -2.404723130166530609e-02 4.003047943115234375e-01 -8.970143198966979980e-01 7.066877484321594238e-01 -3.487838804721832275e-01 1.978886127471923828e-01 9.070072323083877563e-03 9.043763577938079834e-02 -1.357667446136474609e+00 -3.516194596886634827e-02 -5.516630411148071289e-02 9.593059122562408447e-02 -4.564974606037139893e-01 -7.673413306474685669e-02 -3.286926746368408203e+00 -3.699309349060058594e+00 -2.363697767257690430e+00 -2.284276485443115234e+00 1.951339840888977051e-02 7.836060225963592529e-02 1.696157753467559814e-01 4.556473717093467712e-02 1.112051248550415039e+00
7.175138592720031738e-01 -1.074331521987915039e+00 -3.534084558486938477e-01 1.363694906234741211e+00 -2.850018143653869629e-01 -1.019537806510925293e+00 -1.443224191665649414e+00 -7.002006173133850098e-01 -1.340713024139404297e+00 -2.271456569433212280e-01 -1.574741840362548828e+00 -8.948450088500976562e-01 -6.249342918395996094e+00 -8.361944556236267090e-01 3.237192928791046143e-01 -2.933413982391357422e+00 5.219199180603027344e+00 -8.374643921852111816e-01 3.604924201965332031e+00 4.063873291015625000e+00 4.352366924285888672e+00 9.235829114913940430e-01 -9.392198324203491211e-01 -1.616193056106567383e+00 1.093867540359497070e+00 2.476347923278808594e+00 -7.345374822616577148e-01 -7.045429944992065430e-01 1.455678462982177734e+00 -1.406993269920349121e+00 9.674847126007080078e-01 5.998430848121643066e-01 -3.824742734432220459e-01 2.574925184249877930e+00 -6.908783912658691406e-01 -6.218591213226318359e+00 2.272918462753295898e+00 1.080390214920043945e-01 1.501937389373779297e+00 -1.394234299659729004e+00 -2.573437988758087158e-01 -4.705029129981994629e-01 -6.211958527565002441e-01 9.259842038154602051e-01 -1.190197348594665527e+00 -2.017680257558822632e-01 2.974708080291748047e+00 -9.996240139007568359e-01 -8.505035042762756348e-01 -9.540766477584838867e-01 -2.423360645771026611e-01 1.016111016273498535e+00 -1.045105218887329102e+00 -1.401659607887268066e+00 -9.529958963394165039e-01 2.673878192901611328e+00 -2.630283594131469727e+00 -1.684982180595397949e+00 -1.149660348892211914e+00 -3.467579185962677002e-01 -2.158539056777954102e+00 1.025764703750610352e+00 1.545696377754211426e+00 4.607953071594238281e+00 3.875400781631469727e+00 -1.364193677902221680e+00 -2.739998340606689453e+00 -3.927395045757293701e-01 -1.343048095703125000e+00 -8.087738990783691406e+00
-1.388011693954467773e+00 -3.857610702514648438e+00 -4.815629959106445312e+00 -1.166989517211914062e+01 -4.315624833106994629e-01 -1.280125677585601807e-01 -6.872003674507141113e-01 -1.229138895869255066e-01 -4.686395168304443359e+00 -4.359765052795410156e+00 -8.185855150222778320e-01 -4.955737590789794922e-01 -1.687137031555175781e+01 -2.704701125621795654e-01 -6.293482780456542969e-01 -1.187368780374526978e-01 -2.171148777008056641e+00 -3.808400034904479980e-01 2.502980947494506836e+00 -1.100493907928466797e+01 -2.095470190048217773e+00 -1.120179367065429688e+01 1.149912327527999878e-01 -6.230819225311279297e-01 -4.222266674041748047e-01 4.425802528858184814e-01 -5.931794643402099609e-01 9.799616783857345581e-02 -6.330413222312927246e-01 6.183295249938964844e-01 -1.192858695983886719e+00 -1.255008697509765625e+00 -3.594368100166320801e-01 -1.111277198791503906e+01 4.945664852857589722e-02 1.312957668304443359e+01 2.631334781646728516e+00 -4.172176495194435120e-02 -8.196176290512084961e-01 -1.413999591022729874e-02 -2.276017516851425171e-01 -5.617896318435668945e-01 -6.863087415695190430e-01 -1.048276662826538086e+00 -1.096527744084596634e-02 -2.084305286407470703e+00 1.035166978836059570e+00 1.962907612323760986e-02 -3.913925588130950928e-01 -3.081398010253906250e+00 7.160561531782150269e-02 -5.544062852859497070e-01 -8.149778842926025391e-01 2.446925081312656403e-02 -3.963929414749145508e-01 -1.009568405151367188e+01 1.508915275335311890e-01 1.036011334508657455e-02 -1.689549386501312256e-01 -7.466567754745483398e-01 -4.662326723337173462e-02 -1.266920328140258789e+00 -3.784525990486145020e-01 -3.800154209136962891e+00 -6.053588390350341797e+00 -8.042201399803161621e-02 -8.342894911766052246e-02 -2.540633380413055420e-01 -8.526020497083663940e-02 2.046856164932250977e+00
1.371344804763793945e+00 -9.921896457672119141e-01 -4.701570272445678711e-01 8.856438100337982178e-02 1.106748580932617188e+00 -2.625393271446228027e-01 4.613901376724243164e-01 -3.828512430191040039e-01 -1.019507288932800293e+00 -6.681663393974304199e-01 -2.285942137241363525e-01 1.409628152847290039e+00 -5.982174873352050781e+00 -4.719512164592742920e-01 1.531935930252075195e-01 -1.532682538032531738e+00 4.918863773345947266e+00 1.475822627544403076e-01 3.093715906143188477e+00 2.799088716506958008e+00 3.659204244613647461e+00 2.436323612928390503e-01 -1.368078589439392090e-01 -5.817704796791076660e-01 -1.495530128479003906e+00 2.121754884719848633e+00 1.329663753509521484e+00 -7.347688674926757812e-01 1.072611331939697266e+00 2.229150056838989258e+00 -1.030845642089843750e+00 -3.636546850204467773e+00 7.005975842475891113e-01 2.741835117340087891e+00 -8.383341878652572632e-02 -5.483455181121826172e+00 3.429795265197753906e+00 -2.280003577470779419e-01 1.498874187469482422e+00 -4.686896502971649170e-01 1.800845563411712646e-01 3.173691272735595703e+00 5.758411288261413574e-01 1.535460472106933594e+00 -3.759856820106506348e-01 6.345511227846145630e-02 3.095989942550659180e+00 -1.019953131675720215e+00 1.463307291269302368e-01 -2.731782674789428711e+00 9.671092033386230469e-01 -4.200903475284576416e-01 2.394455194473266602e+00 -3.743767738342285156e-01 2.034339457750320435e-01 2.498152256011962891e+00 -4.287345409393310547e-01 -2.161993682384490967e-01 -3.193496465682983398e-01 -2.732909917831420898e+00 -9.750693440437316895e-01 1.888401508331298828e+00 7.698146700859069824e-01 3.594181060791015625e+00 3.322725057601928711e+00 -1.052917018532752991e-01 -9.688140749931335449e-01 1.569266915321350098e-01 2.629658766090869904e-02 -7.709870934486389160e-01
-1.133765697479248047e+00 -1.366734623908996582e+00 2.428620815277099609e+00 1.787452459335327148e+00 -1.162749052047729492e+00 -4.933316111564636230e-01 -1.577652931213378906e+00 -6.223770380020141602e-01 -1.164600729942321777e+00 -8.198146224021911621e-01 -1.256947422027587891e+01 -9.961992502212524414e-01 -1.630423164367675781e+01 -7.597688198089599609e+00 -1.342930078506469727e+00 -3.583789110183715820e+00 1.143611550331115723e+00 -1.477598667144775391e+00 5.141129493713378906e-01 2.602311134338378906e+00 1.480243206024169922e+00 2.910751819610595703e+00 2.364166021347045898e+00 -1.099219560623168945e+00 5.191394090652465820e-01 5.157825946807861328e-01 -1.652120202779769897e-01 1.236509561538696289e+00 7.036140561103820801e-01 1.051277160644531250e+00 2.924825668334960938e+00 -1.216731071472167969e+00 -3.838088512420654297e-01 2.051367521286010742e+00 1.730110168457031250e+00 -2.061935424804687500e+01 -5.777347683906555176e-01 1.332144737243652344e+00 3.848524689674377441e-01 4.275656044483184814e-01 -4.580182433128356934e-01 -1.492892384529113770e+00 1.838276505470275879e+00 -5.398517251014709473e-01 5.716246366500854492e-01 -1.799354553222656250e+00 6.813865900039672852e-01 1.340970754623413086e+00 -1.366848945617675781e+00 -9.829013794660568237e-02 -3.124586105346679688e+00 1.340304732322692871e+00 -4.740923270583152771e-02 3.787262737751007080e-01 -1.777969479560852051e+00 2.120429992675781250e+00 6.110150814056396484e+00 -1.262789011001586914e+00 -1.336741000413894653e-01 1.025285840034484863e+00 3.837297260761260986e-01 -1.643572568893432617e+00 6.434424780309200287e-03 1.815909981727600098e+00 2.532567501068115234e+00 -7.040082216262817383e-01 1.617614150047302246e+00 -5.857109427452087402e-01 -4.937733709812164307e-01 -6.626094818115234375e+00
4.020912945270538330e-01 -4.524824321269989014e-01 -9.607295393943786621e-01 1.811175942420959473e+00 -6.170794963836669922e-01 8.575731515884399414e-01 1.786307573318481445e+00 9.976474046707153320e-01 -1.460011839866638184e+00 -3.537351489067077637e-01 7.961415648460388184e-01 3.214932084083557129e-01 3.258865833282470703e+00 2.599898576736450195e-01 3.025795221328735352e-01 1.464129537343978882e-01 1.245743513107299805e+00 -6.036940813064575195e-01 6.988720297813415527e-01 1.687783002853393555e+00 1.721536636352539062e+00 1.666195511817932129e+00 -3.418452441692352295e-01 -3.672320023179054260e-02 4.301467835903167725e-01 1.569475173950195312e+00 7.656606435775756836e-01 -1.024870276451110840e+00 1.249207139015197754e+00 8.246964812278747559e-01 4.707321524620056152e-01 2.899537086486816406e+00 3.803948163986206055e-01 1.212399721145629883e+00 3.753007650375366211e-01 -2.889045476913452148e+00 9.194722771644592285e-01 1.662419199943542480e+00 1.086277246475219727e+00 -1.915910392999649048e-01 5.400395393371582031e-01 2.733875215053558350e-01 1.699329614639282227e+00 9.468288719654083252e-02 -4.195871055126190186e-01 -3.900140523910522461e-01 2.663393259048461914e+00 -1.015162229537963867e+00 1.025673151016235352e+00 -1.272257924079895020e+00 4.819971621036529541e-01 -3.214634954929351807e-02 -6.147923469543457031e-01 -4.423929154872894287e-01 -6.696155667304992676e-01 1.419506788253784180e+00 -1.018487334251403809e+00 -1.155063271522521973e+00 2.157179713249206543e-01 1.705640673637390137e+00 -9.502096772193908691e-01 3.207820653915405273e-01 1.110999226570129395e+00 1.724874258041381836e+00 1.971983671188354492e+00 1.281375288963317871e+00 8.559235334396362305e-01 2.922104299068450928e-01 5.455626845359802246e-01 1.274666637182235718e-01
