# 4 70
-2.834311485290527344e+00 -5.156034469604492188e+00 9.160760045051574707e-01 -1.260231113433837891e+01 -3.604316234588623047e+00 -9.502571105957031250e+00 -5.683306694030761719e+00 -2.844620943069458008e+00 3.455319881439208984e+00 -3.397128582000732422e+00 2.810055017471313477e-01 -6.409780383110046387e-01 -4.055581092834472656e+00 -1.956546664237976074e+00 3.260369300842285156e-01 4.668446540832519531e+00 -2.327823877334594727e+00 -2.937221288681030273e+00 6.217019557952880859e-01 -1.480560153722763062e-01 -4.573518276214599609e+00 -6.316129684448242188e+00 -1.983429145812988281e+01 -1.802763557434082031e+01 -1.152134537696838379e+00 -1.433707237243652344e+01 -2.546529769897460938e+00 -3.457162618637084961e+00 -3.345300912857055664e+00 -1.930200386047363281e+01 -2.508412361145019531e+00 -1.185416603088378906e+01 -5.321348905563354492e-01 -2.719499111175537109e+00 -6.951121687889099121e-01 -3.807922601699829102e+00 -2.423170566558837891e+00 4.673173904418945312e+00 -2.906731128692626953e+00 -3.442006349563598633e+00 -1.467166137695312500e+01 2.185537576675415039e+00 -2.283697366714477539e+00 1.236882567405700684e+00 -3.087285995483398438e+00 -2.591926574707031250e+00 -2.113635253906250000e+01 -1.469591999053955078e+01 -2.030767059326171875e+01 2.260318565368652344e+01 -3.176922082901000977e+00 1.763513565063476562e+01 -1.756232738494873047e+00 -2.152836227416992188e+01 -3.801979541778564453e+00 -2.578616142272949219e+00 -1.437863922119140625e+01 -2.717726707458496094e+00 -1.547153759002685547e+01 -4.197822570800781250e+01 -3.459357976913452148e+00 -2.216350078582763672e+00 -1.500101566314697266e+01 -4.911040961742401123e-01 -3.816996812820434570e+00 -3.010306119918823242e+00 -3.792170047760009766e+00 -4.461395144462585449e-01 -5.516400814056396484e+00 6.414761543273925781e-01
5.441080331802368164e-01 -4.437802505493164062e+01 -1.783621311187744141e+00 -8.893708229064941406e+00 6.126859690994024277e-03 -1.653290271759033203e+00 -2.459399938583374023e+00 6.148551106452941895e-01 -6.947596740722656250e+01 -1.741209179162979126e-01 -7.782522439956665039e-01 1.275278854370117188e+01 -7.119925498962402344e+00 6.613275051116943359e+00 6.938290596008300781e+00 -1.543991470336914062e+01 4.867798805236816406e+00 1.081759333610534668e+00 3.002479362487792969e+01 2.144096946716308594e+01 -6.276490688323974609e+00 -4.554695606231689453e+00 -1.511032962799072266e+01 -4.034601211547851562e+00 1.212407875061035156e+01 -2.663732528686523438e+00 1.352300405502319336e+00 -4.181660711765289307e-01 6.792176961898803711e-01 -1.484079456329345703e+01 4.950987547636032104e-02 -1.854826545715332031e+01 1.520868778228759766e+01 -3.866029083728790283e-01 1.263742923736572266e+01 1.803661346435546875e+01 7.764151692390441895e-01 -2.780304670333862305e+00 7.744399309158325195e-01 8.705842494964599609e-01 -3.345281124114990234e+00 1.666018605232238770e+00 -8.590466499328613281e+00 3.372116565704345703e+00 3.262142181396484375e+01 1.081334352493286133e+00 -2.130754089355468750e+01 -2.307275390625000000e+01 -5.751179695129394531e+00 3.644024848937988281e+00 -1.759168744087219238e+00 -3.182179450988769531e+00 1.847195434570312500e+01 -1.519154453277587891e+01 -6.572781085968017578e+00 4.205085277557373047e+00 -3.301899671554565430e+00 -1.543865501880645752e-01 -3.163504600524902344e+00 -7.002897262573242188e+00 1.162152409553527832e+00 1.575748175382614136e-01 -3.498780822753906250e+01 1.229676723480224609e+01 1.108578968048095703e+01 2.652462720870971680e-01 2.066975355148315430e+00 1.797768974304199219e+01 3.880262756347656250e+01 1.074604988098144531e+01
-3.765485882759094238e-01 1.918644905090332031e+00 3.793655157089233398e+00 1.124089717864990234e+01 -3.262727856636047363e-01 3.942077755928039551e-01 -1.347131878137588501e-01 -3.929761648178100586e-01 -9.797808647155761719e+00 -3.899501860141754150e-01 5.283441543579101562e+00 1.027232885360717773e+00 -1.646307830810546875e+02 -1.039300918579101562e+00 2.450855731964111328e+00 3.353544473648071289e+00 -6.197803020477294922e-01 -3.797953128814697266e-01 -6.769600391387939453e+00 -5.830953598022460938e+00 -2.324752360582351685e-01 4.872130870819091797e+00 1.410200309753417969e+01 1.682596087455749512e+00 -2.108669996261596680e+00 1.628179073333740234e+00 -4.144135117530822754e-01 -3.597796857357025146e-01 -3.161185681819915771e-01 1.436656475067138672e+01 -3.888499438762664795e-01 4.979366302490234375e+00 -2.428011894226074219e+00 -4.104034006595611572e-01 -3.128577232360839844e+00 -3.277707099914550781e-01 -4.103181064128875732e-01 1.212093472480773926e+00 -3.434256911277770996e-01 -3.702833950519561768e-01 2.258347272872924805e+00 8.589050769805908203e-01 -1.146625161170959473e+00 1.963127255439758301e+00 -1.151984500885009766e+01 -4.786422848701477051e-01 1.786065101623535156e+01 1.546172332763671875e+01 5.430619716644287109e+00 -2.630280733108520508e+00 -3.721127212047576904e-01 2.232193708419799805e+00 -2.135689735412597656e+00 1.562244892120361328e+01 7.179866313934326172e+00 -6.430796980857849121e-01 1.062142372131347656e+00 -3.501553535461425781e-01 1.807514429092407227e+00 6.299145221710205078e+00 -3.550065457820892334e-01 -5.290884971618652344e-01 1.427705383300781250e+01 1.885301828384399414e+00 1.458669453859329224e-02 -3.993844687938690186e-01 -3.102483749389648438e-01 -2.965168714523315430e+00 -5.339599227905273438e+01 1.690152883529663086e+00
1.026803720742464066e-02 1.193653964996337891e+01 -9.311048388481140137e-01 -1.803489685058593750e+00 1.600068360567092896e-01 3.618505001068115234e-01 9.181670546531677246e-01 1.619575172662734985e-02 1.288823604583740234e+01 3.238176703453063965e-01 -3.994476795196533203e+00 -6.489387035369873047e+00 4.313811492919921875e+01 -1.686949610710144043e+00 -5.523712635040283203e+00 -1.508567047119140625e+01 -1.309738993644714355e+00 -1.707513332366943359e-01 -4.763353824615478516e+00 -3.429852008819580078e+00 2.272039175033569336e+00 2.448409646749496460e-01 -5.615600585937500000e+00 4.742165207862854004e-01 -2.750978946685791016e+00 -2.610723674297332764e-01 -2.547271549701690674e-01 3.428894579410552979e-01 -5.310672149062156677e-02 -6.114794731140136719e+00 1.999936401844024658e-01 1.727769255638122559e+00 -4.739020824432373047e+00 3.862355649471282959e-01 -2.746421813964843750e+00 -6.060412883758544922e+00 -2.820643037557601929e-02 7.774431724101305008e-03 -5.776624754071235657e-02 -8.915856480598449707e-02 -4.917193651199340820e-01 -1.212257862091064453e+00 3.956808328628540039e+00 -2.772702455520629883e+00 8.773520588874816895e-01 -1.122188270092010498e-01 -1.369163513183593750e+01 -1.056295490264892578e+01 -2.012552022933959961e+00 4.552747011184692383e-01 8.418431282043457031e-01 -5.074943900108337402e-01 -4.975223541259765625e+00 -6.571912765502929688e+00 -4.148540496826171875e+00 -1.110576629638671875e+00 5.877133607864379883e-01 2.448367923498153687e-01 -7.787328958511352539e-02 1.362511992454528809e+00 -1.894022822380065918e-01 2.906681299209594727e-01 -1.105258560180664062e+01 -6.645628452301025391e+00 -3.713608741760253906e+00 1.633866727352142334e-01 -5.779212117195129395e-01 -4.467432975769042969e+00 -1.647375702857971191e+00 -6.683680057525634766e+00
