# 70 1
2.848262200132012367e-03
8.335053920745849609e-03
3.107153624296188354e-02
8.519894327037036419e-04
-2.453567227348685265e-03
-1.781819574534893036e-02
-2.656059572473168373e-03
-1.570313982665538788e-02
6.902218330651521683e-03
2.565533155575394630e-03
-9.757961146533489227e-03
-2.993508707731962204e-03
4.706679843366146088e-03
-3.193656355142593384e-02
-2.739201998338103294e-03
-3.985318914055824280e-02
5.090871127322316170e-04
-3.963867668062448502e-03
1.111403224058449268e-03
5.169313517399132252e-04
5.188600043766200542e-04
8.406867855228483677e-04
-1.189694181084632874e-02
-3.492042422294616699e-03
3.908249083906412125e-03
1.190286222845315933e-02
-1.431113202124834061e-02
-1.843832805752754211e-02
4.938188940286636353e-03
-3.907019738107919693e-03
7.045963313430547714e-03
-2.939346479251980782e-03
-5.439177621155977249e-03
5.308627733029425144e-04
-1.276451535522937775e-02
1.275348011404275894e-03
9.816427482292056084e-04
4.951592069119215012e-03
4.249677062034606934e-03
-2.245843410491943359e-02
-1.310456264764070511e-02
-2.931246301159262657e-03
-3.272204473614692688e-02
3.147594165056943893e-03
-2.285515889525413513e-02
2.289380412548780441e-03
-5.444537964649498463e-04
-3.123717755079269409e-02
-2.854926744475960732e-03
1.189149264246225357e-02
-1.397171290591359138e-03
4.972150549292564392e-03
-3.269467968493700027e-03
-2.073618210852146149e-02
-3.989319317042827606e-03
5.780645878985524178e-04
-3.827426582574844360e-02
-1.783957146108150482e-02
-9.311978705227375031e-03
5.365766119211912155e-03
-2.435533702373504639e-02
4.318153485655784607e-03
5.319812800735235214e-03
5.346281686797738075e-04
5.209196824580430984e-04
-1.652353815734386444e-02
-2.122853323817253113e-02
-8.453616872429847717e-03
-1.645671017467975616e-02
-3.391756443306803703e-03
