# 174
3.289262950420379639e-01
3.149655163288116455e-01
-8.157338201999664307e-02
-1.908646374940872192e-01
-2.483505755662918091e-01
-5.175723508000373840e-02
2.783206105232238770e-01
-8.803045749664306641e-01
-3.160373568534851074e-01
-2.213420122861862183e-01
-2.367741614580154419e-01
-1.915757544338703156e-02
2.825986444950103760e-01
-2.663331925868988037e-01
1.155245065689086914e+00
2.570829093456268311e-01
-2.687311470508575439e-01
4.599511325359344482e-01
1.037187650799751282e-01
2.331251055002212524e-01
-4.986524879932403564e-01
-6.015083789825439453e-01
2.042624354362487793e-01
-2.525757253170013428e-01
-2.370094507932662964e-01
5.446135625243186951e-02
2.584770917892456055e-01
2.119914591312408447e-01
1.874754577875137329e-02
2.074647247791290283e-01
-1.136846840381622314e-02
2.239254117012023926e-01
9.172222614288330078e-01
-4.760863482952117920e-01
2.876405715942382812e-01
2.071372866630554199e-01
1.156612038612365723e-01
7.563643157482147217e-02
1.567680984735488892e-01
-1.282323002815246582e-01
-1.926356740295886993e-02
-1.783245503902435303e-01
-3.435162007808685303e-01
-1.232377365231513977e-01
-1.257780492305755615e-01
-3.353374600410461426e-01
3.655401766300201416e-01
-1.679556518793106079e-01
-7.066550254821777344e-01
-3.983375132083892822e-01
1.853023171424865723e-01
-9.859232604503631592e-02
6.545571237802505493e-02
-1.303090214729309082e+00
1.711551696062088013e-01
-2.217517793178558350e-01
-8.563054203987121582e-01
1.885774545371532440e-02
1.171837896108627319e-01
-3.563254177570343018e-01
1.277340501546859741e-01
1.306896507740020752e-01
9.138540178537368774e-02
-5.241592880338430405e-03
-2.084800004959106445e-01
-2.414843440055847168e-01
7.522857189178466797e-01
-1.668088585138320923e-01
1.803866773843765259e-01
1.847511231899261475e-01
-2.035916447639465332e-01
3.052343726158142090e-01
2.554529011249542236e-01
-1.009178385138511658e-01
1.862700432538986206e-01
6.592670828104019165e-02
3.284961283206939697e-01
6.607790589332580566e-01
2.023424655199050903e-01
-4.830681160092353821e-02
8.643778413534164429e-02
1.620034873485565186e-01
-3.469505906105041504e-01
5.306372642517089844e-01
6.970995068550109863e-01
1.733192354440689087e-01
1.480966210365295410e-01
-2.424142509698867798e-01
-1.971529722213745117e-01
-6.482346355915069580e-02
-2.913760244846343994e-01
-2.560667991638183594e-01
4.394294619560241699e-01
-2.349690347909927368e-01
-3.385622799396514893e-01
-2.131772190332412720e-01
-4.692307487130165100e-02
1.334182173013687134e-01
1.723552644252777100e-01
1.095994934439659119e-01
5.526043102145195007e-02
1.243208423256874084e-01
8.765541315078735352e-01
8.514272421598434448e-02
3.191217184066772461e-01
3.503690958023071289e-01
3.271886408329010010e-01
2.876358926296234131e-01
-2.573512792587280273e-01
2.764832973480224609e-01
7.379082590341567993e-02
2.593662738800048828e-01
1.165472120046615601e-01
-1.635985970497131348e-01
3.003178536891937256e-01
7.824143767356872559e-02
3.098753392696380615e-01
-1.832907944917678833e-01
1.639043837785720825e-01
1.326855085790157318e-02
8.026904612779617310e-02
2.060684859752655029e-01
3.106038831174373627e-02
-1.740483194589614868e-01
1.181673333048820496e-01
2.759521603584289551e-01
-1.164186447858810425e-01
1.404070258140563965e-01
1.021218523383140564e-01
1.669452153146266937e-02
1.726676225662231445e-01
1.961048990488052368e-01
2.716380059719085693e-01
3.845959007740020752e-01
-2.741970419883728027e-01
8.857430517673492432e-02
1.023035496473312378e-01
4.138326272368431091e-03
-5.370995402336120605e-01
3.692009449005126953e-01
2.136660516262054443e-01
2.899957299232482910e-01
1.650284230709075928e-01
-3.343561589717864990e-01
-1.028021648526191711e-01
-1.803263574838638306e-01
1.380047500133514404e-01
2.305870354175567627e-01
-2.324400097131729126e-01
2.431754171848297119e-01
-9.216535687446594238e-01
-5.568849295377731323e-02
-2.779770791530609131e-01
1.979626119136810303e-01
-2.770261764526367188e-01
2.488506883382797241e-01
2.270489782094955444e-01
2.384296208620071411e-01
-2.253498286008834839e-01
8.868151903152465820e-02
-1.610188558697700500e-02
3.655448555946350098e-01
-1.912865489721298218e-01
-3.273657858371734619e-01
2.216472327709197998e-01
-3.779512271285057068e-02
2.398267537355422974e-01
-3.297615349292755127e-01
3.340161144733428955e-01
-1.079555600881576538e-01
-4.602176323533058167e-02
-2.124344706535339355e-01
-9.588442742824554443e-02
1.355359982699155807e-02
