# 174
-4.172320477664470673e-03
1.418046653270721436e-01
3.900055214762687683e-02
7.228606939315795898e-02
1.106748506426811218e-01
4.858231113757938147e-04
-1.841611415147781372e-02
1.716066747903823853e-01
7.504657655954360962e-02
8.323291689157485962e-02
1.380531862378120422e-02
1.319058537483215332e-01
1.649769544601440430e-01
-4.603035375475883484e-02
-1.147198677062988281e-01
2.215891331434249878e-01
8.256962150335311890e-02
-2.204719632863998413e-01
1.241728849709033966e-02
-1.414768844842910767e-01
4.386420920491218567e-02
-1.476204544305801392e-01
-7.990126311779022217e-02
-8.801217377185821533e-02
-2.064844667911529541e-01
1.753266304731369019e-01
-1.751927286386489868e-01
-8.840318769216537476e-03
1.711394786834716797e-01
1.217736601829528809e-01
-7.158147171139717102e-03
2.321948856115341187e-01
7.088018953800201416e-02
6.926315277814865112e-02
-2.130275666713714600e-01
3.047092817723751068e-02
1.028802804648876190e-02
-2.292923033237457275e-01
-1.280427630990743637e-02
1.109731495380401611e-01
2.308365888893604279e-02
-6.977339833974838257e-02
1.104170680046081543e-01
1.671680659055709839e-01
-1.321033574640750885e-02
4.911135137081146240e-02
1.525951474905014038e-01
-2.684676647186279297e-02
4.770601913332939148e-02
3.176623722538352013e-03
1.175096109509468079e-01
3.963642194867134094e-02
1.617853343486785889e-01
-2.132336609065532684e-02
2.252272218465805054e-01
-1.570542156696319580e-01
2.238435484468936920e-02
8.706697821617126465e-02
9.070967137813568115e-02
-3.977164998650550842e-02
1.253556460142135620e-02
1.566141098737716675e-01
-1.909502781927585602e-02
-1.265554875135421753e-01
-8.622185885906219482e-02
6.344909965991973877e-02
-3.830677643418312073e-02
6.221202667802572250e-03
-4.979624412953853607e-03
5.537359416484832764e-02
-2.062168717384338379e-02
6.189848110079765320e-02
-1.032564491033554077e-01
1.038975864648818970e-01
-1.336549371480941772e-01
-1.347112506628036499e-01
1.203006599098443985e-02
-1.476433426141738892e-01
1.500671952962875366e-01
9.825533628463745117e-02
8.668199926614761353e-02
-1.297137737274169922e-01
1.343571096658706665e-01
1.377703100442886353e-01
1.020849719643592834e-01
2.337007783353328705e-02
-1.421908140182495117e-01
1.176778506487607956e-02
-1.312469542026519775e-01
1.067178249359130859e-01
-5.025062337517738342e-02
2.357706278562545776e-01
1.011708658188581467e-02
-4.488016013056039810e-03
-1.427766866981983185e-02
-1.785608194768428802e-02
2.353068292140960693e-01
-2.110688090324401855e-01
-1.236943155527114868e-01
-5.724540445953607559e-03
1.447127163410186768e-01
6.783978641033172607e-02
2.180336415767669678e-01
-1.434553507715463638e-02
8.366908878087997437e-03
-1.621436625719070435e-01
-1.185521408915519714e-01
-2.061254903674125671e-02
1.631111353635787964e-01
-1.471603810787200928e-01
-1.428955346345901489e-01
2.183900773525238037e-01
1.518942266702651978e-01
4.506681859493255615e-02
-2.293404787778854370e-01
1.420122087001800537e-01
-2.000137791037559509e-02
1.471024900674819946e-01
5.358058959245681763e-03
1.139981904998421669e-03
7.040848582983016968e-02
1.428288221359252930e-01
1.014036685228347778e-02
2.162953913211822510e-01
-1.997558772563934326e-02
1.625305861234664917e-01
-4.418533295392990112e-02
6.572809815406799316e-02
1.058137565851211548e-01
-8.891316503286361694e-02
2.268797755241394043e-01
1.211300417780876160e-01
-6.513913720846176147e-02
1.527093350887298584e-01
-2.302701771259307861e-01
6.620141118764877319e-02
-6.839109212160110474e-02
-5.183175206184387207e-03
9.589552134275436401e-02
4.498108755797147751e-03
1.304932683706283569e-01
2.760087139904499054e-03
-8.419273793697357178e-02
3.387864679098129272e-02
-6.515397131443023682e-02
1.331213861703872681e-01
4.578341916203498840e-02
9.078559279441833496e-02
-2.949997037649154663e-02
-1.801268756389617920e-01
1.385395973920822144e-01
-1.070065200328826904e-01
2.145994827151298523e-02
-9.609293937683105469e-02
-6.503310054540634155e-02
-9.323646128177642822e-02
1.680617183446884155e-01
1.050340570509433746e-02
4.915704485028982162e-03
-1.005082651972770691e-01
6.861256062984466553e-02
-1.008638530038297176e-03
-1.508228480815887451e-01
-1.667736023664474487e-01
5.529779568314552307e-02
-6.229412183165550232e-02
6.238365918397903442e-02
1.638541929423809052e-02
-2.131704986095428467e-01
1.753714494407176971e-02
-4.601015150547027588e-02
1.349713653326034546e-01
8.897078037261962891e-02
-1.371315121650695801e-01
