# 174 1
-2.911785384640097618e-03
-2.938101766631007195e-03
1.655695843510329723e-03
1.835744245909154415e-03
2.295345300808548927e-03
-1.812645466998219490e-03
-1.491939299739897251e-03
-1.787102082744240761e-03
2.733728615567088127e-03
2.079439582303166389e-03
-1.860734308138489723e-03
1.853093621321022511e-03
-2.567499876022338867e-03
3.749529365450143814e-03
-1.922351540997624397e-03
3.947200893890112638e-04
2.787894569337368011e-03
2.086002146825194359e-03
1.670083031058311462e-03
2.460074145346879959e-03
1.842493773438036442e-03
1.750262803398072720e-03
2.029553754255175591e-03
5.215869750827550888e-04
3.043311007786542177e-04
-1.550418674014508724e-03
-9.109780075959861279e-04
-2.356344368308782578e-03
-1.730613410472869873e-03
-2.085545798763632774e-03
2.656016498804092407e-03
1.493788207881152630e-03
-2.275833161547780037e-03
1.621876726858317852e-03
-3.840341232717037201e-04
-3.785535518545657396e-04
7.701609283685684204e-04
-1.962299691513180733e-03
2.163755241781473160e-03
8.140100981108844280e-04
-4.568548683892004192e-05
-3.644432290457189083e-04
1.677791471593081951e-03
-3.285822691395878792e-03
2.320853527635335922e-04
-1.207933179102838039e-03
-2.441465388983488083e-03
3.884491277858614922e-03
-2.390120644122362137e-03
3.798486141022294760e-04
3.151404438540339470e-03
-3.256741911172866821e-03
2.742138458415865898e-03
2.475650515407323837e-03
2.025214722380042076e-03
2.400038938503712416e-04
-2.164130331948399544e-03
-2.050635404884815216e-03
-3.816999669652432203e-04
-2.338248770684003830e-03
3.832544607575982809e-04
2.029888099059462547e-03
1.825292943976819515e-03
9.868363849818706512e-04
4.820832109544426203e-04
4.066803085152059793e-04
-2.949725138023495674e-03
-2.282122382894158363e-03
-1.195919976453296840e-04
2.067272434942424297e-04
2.268767450004816055e-03
1.990476856008172035e-03
-2.201174153015017509e-03
-1.769196474924683571e-03
1.615801127627491951e-03
2.160379430279135704e-03
-1.598818576894700527e-03
2.133002737537026405e-03
6.468415958806872368e-04
1.321080722846090794e-03
-2.910102251917123795e-03
-3.256034106016159058e-04
3.836780961137264967e-04
1.830304507166147232e-03
-3.555496456101536751e-03
-1.444172230549156666e-03
2.430363791063427925e-03
-1.595506328158080578e-03
-2.610126393847167492e-04
4.063467960804700851e-03
2.305329544469714165e-03
1.439236919395625591e-03
-2.629594411700963974e-03
2.590971533209085464e-03
2.331706928089261055e-03
1.608805730938911438e-03
-8.860218804329633713e-04
1.302366494201123714e-03
-1.357972389087080956e-03
1.660111360251903534e-03
-3.813817165791988373e-04
5.665489006787538528e-04
-1.505747495684772730e-04
-6.654480821453034878e-04
1.555299619212746620e-03
2.573895500972867012e-03
-6.209912244230508804e-04
2.151772379875183105e-03
-1.751062576659023762e-03
-1.980277011170983315e-03
1.515912474133074284e-03
-2.411149442195892334e-03
-2.648176159709692001e-03
-2.473733853548765182e-03
-1.575829461216926575e-03
1.448789029382169247e-03
1.515737618319690228e-03
-1.484165783040225506e-03
9.228695853380486369e-05
-1.185037894174456596e-03
2.456000773236155510e-03
3.678198845591396093e-04
3.125204704701900482e-03
1.862688222900032997e-03
-1.077162800356745720e-03
5.392560706241056323e-05
3.838491393253207207e-04
-3.896412672474980354e-04
1.658822991885244846e-03
2.495823660865426064e-03
-2.852173638530075550e-04
2.206339268013834953e-03
1.724043162539601326e-03
1.426676870323717594e-03
1.495469594374299049e-03
1.449884264729917049e-03
-3.602030337788164616e-04
-1.564007368870079517e-03
-6.557610322488471866e-05
-6.888488424010574818e-04
-2.080484526231884956e-03
-1.615135464817285538e-03
-4.033295263070613146e-04
4.111774615012109280e-04
2.707067411392927170e-03
-9.945185156539082527e-04
4.588605370372533798e-04
-3.726832801476120949e-03
-3.441335575189441442e-04
-1.669495250098407269e-03
-2.415743889287114143e-03
3.190820105373859406e-03
1.570336753502488136e-03
3.829365596175193787e-04
-2.820532303303480148e-03
-3.291511209681630135e-03
-2.789412857964634895e-03
-1.539489720016717911e-03
-1.332593528786674142e-04
-1.701702480204403400e-03
5.379505455493927002e-04
-1.659735804423689842e-03
-1.869746600277721882e-03
-1.720225991448387504e-04
-3.766808658838272095e-04
-2.925178268924355507e-03
1.406608964316546917e-03
1.712536904960870743e-03
2.132805384462699294e-04
-1.790507580153644085e-03
-1.489139162003993988e-03
1.354740816168487072e-03
1.596794114448130131e-03
-3.623861819505691528e-03
