# 12 174
-1.908104494214057922e-02 -2.741031646728515625e-01 -1.036432310938835144e-01 -9.616267681121826172e-02 -2.395363599061965942e-01 1.548756100237369537e-02 6.409083306789398193e-02 -2.598562836647033691e-01 -2.293555587530136108e-01 -2.501297593116760254e-01 1.510139703750610352e-01 -2.646987736225128174e-01 -3.311645090579986572e-01 1.777286082506179810e-01 2.395355701446533203e-01 -2.066164016723632812e-01 -2.374968975782394409e-01 2.048901021480560303e-01 2.824520468711853027e-01 2.774856388568878174e-01 -8.011185377836227417e-02 2.941035628318786621e-01 2.333593368530273438e-01 1.224542260169982910e-01 1.933746039867401123e-01 -1.623183786869049072e-01 2.664090991020202637e-01 1.017144694924354553e-02 -1.681946218013763428e-01 -2.464536875486373901e-01 1.016703918576240540e-01 -2.172918915748596191e-01 -1.063760668039321899e-01 -2.176144123077392578e-01 1.996344774961471558e-01 -6.756179034709930420e-02 -3.190669044852256775e-02 2.143759280443191528e-01 -2.704358398914337158e-01 -1.443840861320495605e-01 -7.348514348268508911e-02 2.013545632362365723e-01 -2.624958455562591553e-01 -2.534400224685668945e-01 1.131882742047309875e-01 -9.120925515890121460e-02 -3.058874905109405518e-01 5.373404175043106079e-02 -7.697823643684387207e-02 -9.067590534687042236e-02 -3.099458217620849609e-01 -7.568584382534027100e-02 -2.519642412662506104e-01 5.187910422682762146e-02 -2.090977132320404053e-01 3.146219551563262939e-01 -1.054353490471839905e-01 -2.555885016918182373e-01 -1.522405445575714111e-01 9.868816286325454712e-02 2.763460576534271240e-01 -2.500579059123992920e-01 1.103518381714820862e-01 3.132334947586059570e-01 2.169832885265350342e-01 -1.141616851091384888e-01 1.644486486911773682e-01 1.974187344312667847e-01 -1.815250813961029053e-01 -8.710653334856033325e-02 5.834023654460906982e-02 -1.970922052860260010e-01 2.737936079502105713e-01 -2.819864153861999512e-01 2.055928111076354980e-01 1.307387650012969971e-01 2.939392626285552979e-01 2.235266119241714478e-01 -2.276827096939086914e-01 -2.691921591758728027e-01 -2.489693164825439453e-01 1.853153854608535767e-01 -2.704271376132965088e-01 -2.777779400348663330e-01 -2.161225378513336182e-01 -7.250506430864334106e-02 2.864721417427062988e-01 2.886053323745727539e-01 2.794685065746307373e-01 -2.868885993957519531e-01 1.615541279315948486e-01 -2.193753272294998169e-01 -1.025211289525032043e-01 -1.740144342184066772e-01 -1.694865971803665161e-01 5.821554362773895264e-02 -2.193140685558319092e-01 1.966210901737213135e-01 2.481729835271835327e-01 -2.007920145988464355e-01 -2.908500432968139648e-01 -2.039837688207626343e-01 -2.041425108909606934e-01 5.718848481774330139e-02 -9.896551817655563354e-02 2.470036149024963379e-01 1.932213604450225830e-01 6.597892194986343384e-02 -3.295697271823883057e-01 2.910162508487701416e-01 1.509372144937515259e-01 -2.040047347545623779e-01 -3.055535554885864258e-01 -8.225182443857192993e-02 2.144363075494766235e-01 -2.897465229034423828e-01 3.891883790493011475e-02 -3.016935288906097412e-01 1.940165162086486816e-01 -2.905439585447311401e-02 -2.129595875740051270e-01 -2.891515195369720459e-01 2.700303494930267334e-01 -2.019159197807312012e-01 1.196530163288116455e-01 -2.459041625261306763e-01 1.153922080993652344e-01 -1.108569875359535217e-01 -2.888928055763244629e-01 2.637560069561004639e-01 -2.118773013353347778e-01 -2.953677773475646973e-01 1.112412735819816589e-01 -3.014647960662841797e-01 2.158208191394805908e-01 -2.026719748973846436e-01 2.051090896129608154e-01 1.032303646206855774e-01 -2.669177949428558350e-01 1.958430707454681396e-01 -2.727370262145996094e-01 -2.693398296833038330e-02 2.550277113914489746e-01 -9.887078404426574707e-02 2.108576148748397827e-01 -2.786490619182586670e-01 -1.350322812795639038e-01 -2.555598616600036621e-01 1.369675397872924805e-01 2.769443988800048828e-01 -2.731859982013702393e-01 2.911989688873291016e-01 -6.874914467334747314e-02 2.628240287303924561e-01 2.105661332607269287e-01 2.624825835227966309e-01 -2.615053951740264893e-01 2.776847779750823975e-01 1.903367638587951660e-01 2.757395803928375244e-01 -8.421927690505981445e-02 -4.317294433712959290e-02 3.162873685359954834e-01 2.518129646778106689e-01 -9.460452944040298462e-02 1.882787793874740601e-01 -1.883008927106857300e-01 -1.144633442163467407e-01 1.980113238096237183e-01 -4.589664563536643982e-02 8.480817079544067383e-02 -2.579991221427917480e-01 -2.504961788654327393e-01 2.872405946254730225e-01
3.133020401000976562e-01 -9.652164578437805176e-02 1.539827138185501099e-01 -6.458217501640319824e-01 3.160389885306358337e-02 -3.212699890136718750e-01 -3.257648944854736328e-01 -5.819107592105865479e-02 3.326272964477539062e-02 1.236005350947380066e-01 1.883374601602554321e-01 7.674405351281166077e-03 2.525388263165950775e-03 5.596775189042091370e-02 -1.597461998462677002e-01 -2.468114644289016724e-01 2.238886058330535889e-01 2.131478488445281982e-01 -3.377103507518768311e-01 3.995044529438018799e-02 1.345751583576202393e-01 2.171230874955654144e-02 -9.298833459615707397e-02 7.101385593414306641e-01 2.456750273704528809e-01 -5.624737590551376343e-02 8.248534053564071655e-02 1.940941959619522095e-01 -3.712152540683746338e-01 9.926545433700084686e-03 3.015837371349334717e-01 -2.881027162075042725e-01 -6.199374794960021973e-02 1.027191132307052612e-01 3.009923100471496582e-01 2.717188894748687744e-01 1.032966077327728271e-01 2.062128931283950806e-01 3.132143020629882812e-01 1.302851885557174683e-01 6.854087114334106445e-02 -7.811298966407775879e-02 1.322421133518218994e-01 -1.018131226301193237e-01 2.343968749046325684e-01 1.972728073596954346e-01 -3.751609474420547485e-02 3.191027641296386719e-01 -4.530866742134094238e-01 -3.583293259143829346e-01 1.016740724444389343e-01 1.854641139507293701e-01 -2.970740757882595062e-02 -2.381456196308135986e-01 -1.925393640995025635e-01 -4.971799254417419434e-02 -2.024429738521575928e-01 1.434833109378814697e-01 -2.928127646446228027e-01 4.871995151042938232e-01 -3.347326815128326416e-01 -6.279897876083850861e-03 1.800815016031265259e-01 -5.531551688909530640e-02 -1.254780143499374390e-01 1.167439967393875122e-01 1.748715341091156006e-01 -6.820338964462280273e-01 5.106825232505798340e-01 -5.714522600173950195e-01 -1.365603655576705933e-01 1.150375753641128540e-01 -2.320903912186622620e-02 1.102099418640136719e-01 7.061867415904998779e-02 1.139009475708007812e+00 -5.464305877685546875e-01 3.148914873600006104e-02 -4.059897363185882568e-02 1.085516437888145447e-01 1.609284877777099609e-01 -4.444080218672752380e-02 -4.483649507164955139e-03 5.378057062625885010e-02 -1.723702810704708099e-02 2.011691629886627197e-01 -4.864116385579109192e-02 -4.335445165634155273e-01 -2.087581753730773926e-01 9.178159385919570923e-02 -1.213043779134750366e-01 -2.394778430461883545e-01 -2.817215323448181152e-01 1.014459013938903809e+00 -1.485740095376968384e-01 -2.434955090284347534e-01 -2.121364921331405640e-01 1.841140687465667725e-01 -2.293564844876527786e-03 6.413267254829406738e-01 2.075134980259463191e-04 1.098357290029525757e-01 -1.979564428329467773e-01 -3.703796863555908203e-01 -3.006100356578826904e-01 1.439921557903289795e-01 7.532775402069091797e-02 -3.695670068264007568e-01 -1.830072142183780670e-02 6.863755732774734497e-02 7.646558284759521484e-01 -1.805981099605560303e-01 -6.332071870565414429e-02 -1.000643968582153320e-01 2.478244602680206299e-01 6.025868654251098633e-02 1.473143696784973145e-01 8.345849066972732544e-02 -6.302950382232666016e-01 3.118428587913513184e-01 3.525672107934951782e-02 -3.050084691494703293e-03 -5.976479649543762207e-01 -1.739054322242736816e-01 1.922011673450469971e-01 -1.068776696920394897e-01 3.384214043617248535e-01 5.651060491800308228e-02 1.241236180067062378e-01 -1.211528107523918152e-01 -2.670897245407104492e-01 1.541339457035064697e-01 -1.561185717582702637e-01 -4.052671045064926147e-02 2.746785581111907959e-01 9.411472827196121216e-02 -1.283208280801773071e-01 2.641675174236297607e-01 6.401874125003814697e-02 -8.420400023460388184e-01 -7.556799799203872681e-02 3.949216604232788086e-01 -1.678288727998733521e-01 7.238603383302688599e-02 -4.350085929036140442e-02 1.480639874935150146e-01 -8.437506854534149170e-02 -4.325540794525295496e-04 2.121130824089050293e-01 8.650910109281539917e-02 -4.824911057949066162e-02 -8.698774874210357666e-02 -5.520301461219787598e-01 -8.677303791046142578e-02 -2.893333323299884796e-02 -9.292843937873840332e-02 -2.017674222588539124e-02 -5.532353520393371582e-01 -8.084469437599182129e-01 -1.622902750968933105e-01 -7.858648896217346191e-01 4.424036145210266113e-01 -9.161539375782012939e-02 9.551740437746047974e-02 7.143963128328323364e-02 -1.372572481632232666e-01 1.684692203998565674e-01 -2.818268239498138428e-01 1.707016378641128540e-01 -1.739496481604874134e-03 -5.756175890564918518e-02 -1.553655322641134262e-02 1.381383091211318970e-01 -1.558003723621368408e-01
-4.813800454139709473e-01 9.027743339538574219e-02 -4.310920462012290955e-02 -4.530935734510421753e-02 4.418310895562171936e-02 2.948385775089263916e-01 1.312067210674285889e-01 -1.168165206909179688e-01 1.792224943637847900e-01 1.137073636054992676e-01 3.437431156635284424e-01 5.325648561120033264e-02 -5.779838562011718750e-02 -3.251723200082778931e-02 5.153226107358932495e-02 1.608120948076248169e-01 -1.740304827690124512e-01 -1.161781251430511475e-01 1.395427584648132324e-01 7.212448120117187500e-02 -1.623511761426925659e-01 1.097740679979324341e-01 -6.317715346813201904e-02 4.773413762450218201e-02 -1.220949441194534302e-01 4.294962063431739807e-02 7.109896093606948853e-02 -4.234592020511627197e-01 1.262396574020385742e-01 1.583973318338394165e-01 3.704110085964202881e-01 1.942248046398162842e-01 -7.792398333549499512e-02 1.282475888729095459e-01 -2.757567167282104492e-01 8.990748226642608643e-02 -3.478947877883911133e-01 -8.171317726373672485e-02 -3.310157358646392822e-01 3.754696622490882874e-02 -1.504108607769012451e-01 -4.280630499124526978e-02 -1.116739287972450256e-01 -3.744517639279365540e-02 2.818544209003448486e-01 -1.378433895297348499e-03 5.997380241751670837e-02 -2.627018988132476807e-01 4.341315478086471558e-02 -7.129604369401931763e-02 2.210238017141819000e-02 1.100989729166030884e-01 -6.412889808416366577e-02 -5.366613343358039856e-02 1.314030438661575317e-01 6.522475183010101318e-02 -9.001684375107288361e-03 2.689590491354465485e-02 9.566354006528854370e-02 3.742497786879539490e-02 2.087682932615280151e-01 -6.096435338258743286e-02 2.182163149118423462e-01 -1.431844942271709442e-02 1.556538976728916168e-02 2.649159431457519531e-01 -2.531494013965129852e-02 -7.081831246614456177e-02 -8.349315263330936432e-03 2.680756747722625732e-01 1.086795926094055176e-01 1.273211240768432617e-01 -5.540874600410461426e-02 3.785682492889463902e-04 1.827925629913806915e-02 -1.336640715599060059e-01 2.542059123516082764e-01 1.225270032882690430e-01 -1.076470687985420227e-01 -2.659708634018898010e-02 5.456531792879104614e-02 9.380210191011428833e-03 -6.568183004856109619e-02 -9.124406427145004272e-02 1.021481156349182129e-01 -2.424774020910263062e-01 1.421889662742614746e-01 1.939020603895187378e-01 8.525994420051574707e-02 1.716611720621585846e-02 1.980724185705184937e-01 9.329483658075332642e-02 -1.952708810567855835e-01 -3.756767213344573975e-01 -2.360555678606033325e-01 3.390465676784515381e-01 6.478883326053619385e-02 -1.724904775619506836e-01 -8.785525709390640259e-02 -7.815063931047916412e-03 1.107090618461370468e-03 1.048627048730850220e-01 1.059458851814270020e-01 2.812972366809844971e-01 -1.870061904191970825e-01 -8.233287185430526733e-02 -1.160319894552230835e-01 2.886768579483032227e-01 -2.309180982410907745e-02 -5.146627128124237061e-02 -1.271866559982299805e-01 9.007114171981811523e-02 5.011979863047599792e-02 1.516879070550203323e-02 -1.075179800391197205e-01 -7.181231677532196045e-02 -5.951638221740722656e-01 -1.536327898502349854e-01 1.317960321903228760e-01 -1.548980176448822021e-01 2.115119695663452148e-01 -4.167208913713693619e-03 3.547809123992919922e-01 9.471650421619415283e-02 2.119835168123245239e-01 -2.464632131159305573e-02 -8.310393244028091431e-02 6.716791540384292603e-02 5.442431941628456116e-02 -1.657377183437347412e-01 1.348044872283935547e-01 -1.679954975843429565e-01 8.721844106912612915e-02 6.244578585028648376e-02 -1.603669673204421997e-01 1.200655549764633179e-01 -6.904841214418411255e-02 3.561294674873352051e-01 1.082775294780731201e-01 2.438773401081562042e-02 1.203825026750564575e-01 -1.172249987721443176e-01 -9.088805317878723145e-02 2.058492153882980347e-01 -1.572376638650894165e-01 9.925362654030323029e-03 -7.619500160217285156e-02 2.587967216968536377e-01 3.973488882184028625e-02 5.706363543868064880e-02 1.132006570696830750e-01 -1.029184088110923767e-01 3.226219415664672852e-01 5.809058435261249542e-03 -1.874523162841796875e-01 -8.320686966180801392e-02 -1.073153764009475708e-01 2.062056511640548706e-01 -2.338315919041633606e-02 7.414355129003524780e-02 2.096066176891326904e-01 -2.019684463739395142e-01 -3.035952709615230560e-02 1.072461605072021484e-01 2.364788204431533813e-01 -3.944979608058929443e-02 2.839982509613037109e-02 -1.627536863088607788e-01 -6.983362138271331787e-02 2.926192283630371094e-01 1.080482900142669678e-01 4.009862989187240601e-02 -1.529927458614110947e-02 1.160439252853393555e-01
5.559639930725097656e+00 2.652062177658081055e-01 2.036434412002563477e+00 2.099283695220947266e+00 1.339593976736068726e-01 2.174777984619140625e+00 -4.033516407012939453e+00 -7.348321676254272461e-01 1.378441154956817627e-01 -6.069010496139526367e-01 -2.182936817407608032e-01 -9.541982412338256836e-02 7.216148376464843750e-01 -2.045148611068725586e-01 3.366277217864990234e-01 7.615799307823181152e-01 -6.621953248977661133e-01 -6.936352849006652832e-01 2.164927244186401367e+00 -1.336932033300399780e-01 -6.416875123977661133e-02 -7.465499639511108398e-01 2.829163670539855957e-01 -1.815307497978210449e+00 -9.607809782028198242e-01 3.465842306613922119e-01 7.862522602081298828e-01 6.899412631988525391e+00 5.437670946121215820e-01 1.919704973697662354e-01 -5.738769173622131348e-01 1.115818619728088379e+00 1.281405806541442871e+00 -4.003143012523651123e-01 -1.408082246780395508e+00 -3.286978960037231445e+00 6.088866233825683594e+00 -5.976580381393432617e-01 -1.895767688751220703e+00 -6.199979782104492188e-01 -1.285398483276367188e+00 2.795682549476623535e-01 1.519372612237930298e-01 -5.233072638511657715e-01 -6.773978471755981445e-01 -1.402748972177505493e-01 8.869191408157348633e-01 5.697740554809570312e+00 2.873187303543090820e+00 1.182530879974365234e+00 2.064189910888671875e-01 -3.092048168182373047e-01 -9.058527350425720215e-01 2.747264862060546875e+00 5.402797460556030273e-01 -9.855046868324279785e-02 3.697048723697662354e-01 -4.674692451953887939e-01 -1.039858818054199219e+00 -3.178169727325439453e-01 2.243937015533447266e+00 -9.618463516235351562e-01 -2.591581642627716064e-01 -7.885773181915283203e-01 4.127688109874725342e-01 1.675943732261657715e+00 -3.922686278820037842e-01 2.664494752883911133e+00 -2.391690731048583984e+00 1.871790885925292969e+00 -4.273684024810791016e-01 -7.529053092002868652e-01 -3.229366242885589600e-01 -1.135292351245880127e-01 9.654767066240310669e-02 -2.802620410919189453e+00 2.992161512374877930e+00 3.822467923164367676e-01 -3.186362087726593018e-01 -1.809772700071334839e-01 -5.976237654685974121e-01 5.394672751426696777e-01 4.428838193416595459e-01 -7.795424759387969971e-02 1.434135586023330688e-01 3.186667680740356445e+00 3.564412519335746765e-02 2.573762178421020508e+00 2.892375588417053223e-01 -3.397286683320999146e-02 7.894128561019897461e-01 5.437979698181152344e-01 6.793284416198730469e-01 -3.552502155303955078e+00 -4.404864609241485596e-01 8.163098692893981934e-01 3.820580840110778809e-01 -8.298287391662597656e-01 -2.473106794059276581e-02 -7.454239726066589355e-01 2.510914802551269531e-01 -7.048759460449218750e-01 4.719852507114410400e-01 -1.893440127372741699e+00 1.072719812393188477e+00 3.409919738769531250e-01 6.122950911521911621e-01 -2.204071283340454102e+00 8.863686323165893555e-01 -7.709873318672180176e-01 1.083425953984260559e-01 5.311204195022583008e-01 1.171593427658081055e+00 -7.346565127372741699e-01 -4.921424388885498047e-01 4.077472388744354248e-01 5.515136718750000000e+00 7.632538676261901855e-01 7.225770950317382812e-01 -1.574384689331054688e+00 -9.760300070047378540e-02 6.362202167510986328e-01 2.819495677947998047e+00 6.751730442047119141e-01 1.624249964952468872e-01 -3.685216009616851807e-01 1.492350697517395020e+00 7.375419139862060547e-01 -1.637486517429351807e-01 5.621892213821411133e-01 8.220301866531372070e-01 3.513743281364440918e-01 6.480782032012939453e-01 2.141577899456024170e-01 -7.298237085342407227e-01 -7.285254597663879395e-01 3.920512795448303223e-01 -5.426348447799682617e-01 5.067802965641021729e-02 5.812121868133544922e+00 5.655416846275329590e-01 -2.369246721267700195e+00 7.249458432197570801e-01 -1.130334496498107910e+00 -1.275874674320220947e-01 1.783563755452632904e-02 -6.940118074417114258e-01 -2.714377827942371368e-03 -1.359963566064834595e-01 9.078000187873840332e-01 2.706893682479858398e-01 1.438546329736709595e-01 -5.517469048500061035e-01 1.510777473449707031e-01 1.897608302533626556e-02 1.243482530117034912e-01 -1.123075366020202637e+00 2.460114002227783203e+00 6.926704883575439453e+00 2.329377084970474243e-01 2.258079528808593750e+00 4.606209278106689453e+00 -9.325186610221862793e-01 2.914443612098693848e-01 -1.904166817665100098e+00 8.566733598709106445e-01 -1.022064447402954102e+00 7.570656538009643555e-01 -5.495796799659729004e-01 -5.216456890106201172e+00 -2.851897954940795898e+00 -1.970679759979248047e-01 -4.816865026950836182e-01 -2.540674991905689240e-02
-1.064932942390441895e+00 -6.087346374988555908e-02 -1.596698880195617676e+00 2.994649410247802734e-01 3.059188425540924072e-01 4.006778299808502197e-01 2.008677482604980469e+00 3.576670587062835693e-01 9.520526975393295288e-02 -1.107584610581398010e-01 -3.726526796817779541e-01 -1.644309610128402710e-01 -7.976985722780227661e-02 1.537984162569046021e-01 5.711121559143066406e-01 4.829577505588531494e-01 1.044876314699649811e-02 -4.113588929176330566e-01 8.088735938072204590e-01 8.133582025766372681e-02 -1.982395350933074951e-01 -1.492614895105361938e-01 -8.400895632803440094e-03 4.745548069477081299e-01 -5.103406906127929688e-01 2.726074457168579102e-01 -3.755440115928649902e-01 -2.067998170852661133e+00 6.825678944587707520e-01 -1.102425158023834229e-01 -1.509909331798553467e-01 5.070155858993530273e-01 7.747075986117124557e-03 -1.242774799466133118e-01 -6.182118654251098633e-01 -3.706613779067993164e-01 -1.511318325996398926e+00 -3.353062868118286133e-01 -6.413481235504150391e-01 -1.306927949190139771e-02 9.311429262161254883e-01 -3.108867406845092773e-01 2.206159830093383789e-01 4.104372262954711914e-01 -1.467087864875793457e-01 -6.400331854820251465e-01 1.674193330109119415e-02 -3.324699401855468750e+00 -4.955842494964599609e-01 2.637437283992767334e-01 5.399929285049438477e-01 -6.455478072166442871e-01 3.368364572525024414e-01 2.962827980518341064e-01 3.812705576419830322e-01 4.365961253643035889e-01 -1.347773969173431396e-01 4.342119395732879639e-02 1.140425324440002441e+00 -1.071563363075256348e+00 6.060147881507873535e-01 2.195997387170791626e-01 -3.039557933807373047e-01 -6.739433407783508301e-01 -3.275117576122283936e-01 -1.268929362297058105e+00 -4.592797905206680298e-02 -1.090625762939453125e+00 3.990279138088226318e-01 -1.466463040560483932e-02 6.450217366218566895e-01 -9.084648638963699341e-02 -4.414308071136474609e-01 4.306467175483703613e-01 -5.155684947967529297e-01 2.007712870836257935e-01 9.388219714164733887e-01 -3.914145529270172119e-01 4.503227174282073975e-01 3.827472031116485596e-01 -1.105851009488105774e-01 -8.745866268873214722e-02 1.053353175520896912e-01 -3.103148639202117920e-01 1.701001673936843872e-01 -3.992163538932800293e-01 1.435689926147460938e-01 9.797468781471252441e-01 3.087242543697357178e-01 5.188210606575012207e-01 -1.962196528911590576e-01 3.944255709648132324e-01 1.780023276805877686e-01 -1.600254178047180176e+00 4.524529352784156799e-02 -1.847409456968307495e-01 3.015256822109222412e-01 -4.235941469669342041e-01 1.650408208370208740e-01 1.586306571960449219e+00 -2.726194262504577637e-01 -1.739098876714706421e-01 4.244368970394134521e-01 1.013409137725830078e+00 5.365737080574035645e-01 -5.461698174476623535e-01 -3.576158285140991211e-01 9.836285710334777832e-01 1.436107158660888672e-01 -3.610350564122200012e-02 -1.778324693441390991e-01 3.052274882793426514e-01 2.563166618347167969e-01 -4.278839528560638428e-01 -3.747990131378173828e-01 -1.467258781194686890e-01 2.530024647712707520e-01 4.724675044417381287e-02 -1.483978748321533203e+00 3.373818844556808472e-02 -2.519916929304599762e-02 7.530756294727325439e-02 1.026155829429626465e+00 3.500136733055114746e-01 -2.560250461101531982e-01 5.112734436988830566e-01 -3.904581367969512939e-01 -5.922489762306213379e-01 3.285408914089202881e-01 5.943863093852996826e-02 4.498866200447082520e-01 5.101873874664306641e-01 2.559523880481719971e-01 -1.386404633522033691e-01 -4.555238187313079834e-01 -1.759434491395950317e-01 -2.039103060960769653e-01 -3.899408280849456787e-01 2.182167470455169678e-01 -4.117580056190490723e-01 4.103693068027496338e-01 -6.117662787437438965e-01 -5.564242973923683167e-02 -1.459399342536926270e+00 -1.731028221547603607e-02 -3.403590917587280273e-01 8.883500099182128906e-01 3.797584176063537598e-01 -3.247172012925148010e-02 -4.127775728702545166e-01 -2.750764489173889160e-01 -3.328458368778228760e-01 5.934000015258789062e-01 -2.204603105783462524e-01 4.035930335521697998e-02 -1.857483088970184326e-01 2.414999157190322876e-01 1.082770705223083496e+00 -8.349218368530273438e-01 -2.757602334022521973e-01 -2.680800855159759521e-01 -2.164909362792968750e+00 -1.092532426118850708e-01 -4.926527738571166992e-01 -3.953635394573211670e-01 3.839182853698730469e-01 1.140450686216354370e-01 3.402837812900543213e-01 -3.391137123107910156e-01 1.521128863096237183e-01 8.756605386734008789e-01 -2.864654958248138428e-01 1.149522066116333008e-01 2.713392972946166992e-01
2.441423237323760986e-01 -1.735086552798748016e-02 -6.876834481954574585e-02 3.687431216239929199e-01 -2.923291549086570740e-02 -8.981829881668090820e-02 1.600278019905090332e-01 -1.465087570250034332e-02 -7.057304680347442627e-02 -6.046780571341514587e-02 -2.101716846227645874e-01 -6.040905043482780457e-02 5.785621330142021179e-02 8.287353441119194031e-03 8.415870368480682373e-02 -2.561071654781699181e-03 1.260266304016113281e-01 -3.429289907217025757e-02 1.923153847455978394e-01 -9.796646982431411743e-02 -2.351771108806133270e-02 -1.300154477357864380e-01 -6.019133725203573704e-04 -4.531103372573852539e-01 -5.879870057106018066e-02 2.066449075937271118e-02 4.177724942564964294e-02 2.436116784811019897e-01 1.257947552949190140e-02 -1.635096222162246704e-01 -2.459875196218490601e-01 4.877960775047540665e-03 4.222190082073211670e-01 -8.195375651121139526e-02 6.696873903274536133e-02 -3.967848122119903564e-01 2.628522217273712158e-01 -5.401876568794250488e-02 9.555103257298469543e-03 -8.759839087724685669e-02 1.182334497570991516e-01 -2.588336542248725891e-02 9.176234155893325806e-02 -4.863765835762023926e-02 -1.805518567562103271e-01 -2.724874615669250488e-01 -2.178191393613815308e-02 -5.952150747179985046e-02 2.632839679718017578e-01 1.413777098059654236e-02 6.917484104633331299e-02 -3.689509034156799316e-01 -7.025830447673797607e-02 3.115163445472717285e-01 2.292332937940955162e-03 -1.749549619853496552e-02 -2.073804847896099091e-02 9.604717604815959930e-03 1.226325109601020813e-01 -6.730598211288452148e-01 1.462672203779220581e-01 -8.104939758777618408e-02 -1.693129241466522217e-01 -8.832300454378128052e-02 -1.195969246327877045e-02 -4.935843348503112793e-01 -1.115368120372295380e-02 4.751389101147651672e-02 1.825871616601943970e-01 1.570129543542861938e-01 4.218031093478202820e-02 -1.042445078492164612e-01 -7.744770497083663940e-02 6.981392949819564819e-02 5.820593237876892090e-02 -3.276051878929138184e-01 2.198527604341506958e-01 -5.277338786981999874e-04 -8.417424978688359261e-04 9.164270013570785522e-02 -3.352866694331169128e-02 9.551404416561126709e-02 7.485790550708770752e-02 4.473672807216644287e-02 -6.045112386345863342e-02 9.738577157258987427e-02 -1.000055819749832153e-01 2.018809765577316284e-01 8.167599141597747803e-02 6.776687502861022949e-02 -1.323518902063369751e-01 5.151677131652832031e-02 1.189969256520271301e-01 -4.569139778614044189e-01 1.179358214139938354e-01 -1.349257081747055054e-01 6.598270684480667114e-02 3.289404883980751038e-02 9.166170656681060791e-02 9.297911077737808228e-02 -4.082606174051761627e-03 -8.796029537916183472e-02 2.348715439438819885e-02 6.395095586776733398e-02 9.656458348035812378e-02 1.225132495164871216e-01 1.495406925678253174e-01 6.282751262187957764e-02 4.904862120747566223e-02 -5.581164732575416565e-03 7.573512941598892212e-02 4.076436161994934082e-02 1.610233634710311890e-02 8.138144761323928833e-02 -3.433614596724510193e-02 2.446286194026470184e-02 4.330159127712249756e-01 9.233278781175613403e-02 -2.532248198986053467e-01 1.768630743026733398e-02 -1.147760674357414246e-01 1.561900321394205093e-02 1.603004187345504761e-01 2.948126569390296936e-02 -7.029617577791213989e-02 -4.906631633639335632e-02 -4.336084425449371338e-01 -2.264204025268554688e-01 1.973330415785312653e-02 9.552091360092163086e-02 3.243735060095787048e-02 1.565297245979309082e-01 1.612019538879394531e-01 -3.616870194673538208e-02 -1.929287612438201904e-02 -8.559606224298477173e-02 3.888469561934471130e-02 -2.163500487804412842e-01 -2.881316235288977623e-03 2.215948104858398438e-01 -1.928310468792915344e-02 -5.154015868902206421e-02 5.820960551500320435e-02 -4.007319211959838867e-01 6.582129001617431641e-02 -1.274854838848114014e-01 1.797473430633544922e-01 -9.170746803283691406e-02 2.348861098289489746e-02 5.598823726177215576e-02 -7.540931552648544312e-02 2.810418140143156052e-03 4.062157571315765381e-01 -7.223555445671081543e-02 9.863296151161193848e-02 -2.717614173889160156e-03 -4.490274563431739807e-02 2.934933900833129883e-01 2.093738615512847900e-01 -9.944799542427062988e-02 2.483993619680404663e-01 -1.326242089271545410e-01 8.517289161682128906e-02 -1.435259357094764709e-02 -3.985611796379089355e-01 5.953661724925041199e-02 -6.292484700679779053e-02 8.850088343024253845e-03 -4.955507069826126099e-02 -2.485507428646087646e-01 -1.356917340308427811e-02 -5.925977602601051331e-02 4.463119432330131531e-02 6.808288395404815674e-03
1.625125694274902344e+01 -1.066700816154479980e+00 1.031572341918945312e+01 3.345335960388183594e+00 -6.180124878883361816e-01 6.532470583915710449e-01 -1.211689281463623047e+01 -4.637349605560302734e+00 1.870217084884643555e+00 7.885841727256774902e-01 3.774995326995849609e+00 -8.943935036659240723e-01 -8.939168453216552734e-01 -2.823326587677001953e+00 1.220825910568237305e+00 -2.017102003097534180e+00 6.176808476448059082e-02 2.300375461578369141e+00 -7.171571254730224609e-01 7.851369380950927734e-01 1.341133117675781250e+00 5.176990032196044922e-01 -1.649429440498352051e+00 -4.166205883026123047e+00 2.314094781875610352e+00 -3.408198595046997070e+00 4.848188877105712891e+00 1.677171134948730469e+01 -2.757163524627685547e+00 -4.003196656703948975e-01 -2.336583137512207031e-01 -2.001582860946655273e+00 8.294326782226562500e+00 1.002659797668457031e+00 2.491707324981689453e+00 -5.168665409088134766e+00 1.452011680603027344e+01 2.231554985046386719e+00 -9.511339068412780762e-01 -3.414368629455566406e+00 -4.280800819396972656e+00 -8.431369066238403320e-01 -3.798601925373077393e-01 -4.267607212066650391e+00 -2.955627739429473877e-01 2.111986160278320312e+00 -9.733238220214843750e-01 1.627073478698730469e+01 5.937720298767089844e+00 9.523725509643554688e-02 -2.969824671745300293e-01 2.573725461959838867e+00 -4.274595260620117188e+00 4.631207942962646484e+00 -2.128645181655883789e+00 1.220042943954467773e+00 2.208193063735961914e+00 4.771887660026550293e-01 -2.890738010406494141e+00 3.909832477569580078e+00 1.111794948577880859e+00 -4.346400737762451172e+00 1.342958092689514160e+00 1.634427756071090698e-01 5.712194368243217468e-02 1.139514350891113281e+01 -1.979173541069030762e+00 8.196058273315429688e+00 -8.067652702331542969e+00 3.517301797866821289e+00 -7.405865192413330078e+00 5.190423130989074707e-01 -1.150955438613891602e+00 3.117274306714534760e-02 2.709801435470581055e+00 -5.515012741088867188e+00 1.073100686073303223e+00 3.768288373947143555e+00 -3.535762786865234375e+00 6.285278797149658203e-01 -2.063577771186828613e-01 2.941041469573974609e+00 -7.767775058746337891e-01 -1.029106855392456055e+00 1.979357898235321045e-01 1.023087882995605469e+01 1.182047367095947266e+00 -6.822816133499145508e-01 1.862087845802307129e+00 7.290209084749221802e-02 1.712664365768432617e+00 -1.937475085258483887e+00 7.066773176193237305e-01 -3.546866655349731445e+00 2.770008742809295654e-01 7.773553133010864258e-01 -1.749121427536010742e+00 2.732995510101318359e+00 8.424110412597656250e-01 -6.734039783477783203e+00 -8.196225166320800781e-01 7.780709266662597656e-01 -2.294657945632934570e+00 -8.239868164062500000e+00 -3.001596689224243164e+00 4.450118541717529297e+00 2.018334627151489258e+00 -7.273251533508300781e+00 -7.845160365104675293e-01 3.950389027595520020e-01 -2.690194368362426758e+00 -1.802028298377990723e+00 -5.810808539390563965e-01 -3.600194156169891357e-01 2.165307283401489258e+00 -7.701669335365295410e-01 8.416828155517578125e+00 -1.271191000938415527e+00 6.032228469848632812e+00 -1.721286028623580933e-02 1.248225212097167969e+00 -1.160129070281982422e+00 7.975034713745117188e-01 -2.393222093582153320e+00 3.458362102508544922e+00 -4.062322616577148438e+00 3.937777996063232422e+00 3.814899921417236328e+00 -2.806979715824127197e-01 -6.153934597969055176e-01 -2.427325725555419922e+00 -8.146500587463378906e-01 -1.747852325439453125e+00 -1.043650388717651367e+00 1.885790944099426270e+00 8.871381878852844238e-01 -3.705537319183349609e-01 2.609760284423828125e+00 9.808392524719238281e-01 8.535297393798828125e+00 -2.923896312713623047e-01 -3.562970876693725586e+00 -1.153852418065071106e-01 1.704598903656005859e+00 -1.731922268867492676e+00 -1.712081313133239746e+00 -1.522716045379638672e+00 6.127527952194213867e-01 -1.508046150207519531e+00 5.072805881500244141e+00 -4.280979335308074951e-01 -3.651356091722846031e-03 -5.808905124664306641e+00 -1.265243291854858398e+00 -1.778478980064392090e+00 -6.892225146293640137e-01 -5.045274734497070312e+00 1.031029224395751953e+00 1.118378257751464844e+01 1.329170167446136475e-01 6.597818374633789062e+00 1.305381488800048828e+01 1.563578724861145020e+00 3.827679872512817383e+00 -1.723314166069030762e+00 -4.972063302993774414e-01 -5.765964388847351074e-01 -1.269388794898986816e+00 2.261062383651733398e+00 -9.401898384094238281e+00 -6.157860279083251953e+00 -7.871148586273193359e-01 5.311784148216247559e-01 1.461932182312011719e+00
-1.098376750946044922e+01 1.227081775665283203e+00 -1.850174903869628906e+01 2.763356018066406250e+01 -3.272466421127319336e+00 2.607975769042968750e+01 2.541724681854248047e+00 -1.359347105026245117e+00 8.122704625129699707e-01 -1.452825069427490234e+00 -1.064271640777587891e+01 1.374475955963134766e+00 4.272818565368652344e-01 -7.642837166786193848e-01 2.791520118713378906e+00 -9.941452026367187500e+00 -5.354641914367675781e+00 9.028840065002441406e+00 4.103266239166259766e+00 -1.701663017272949219e+00 1.291670417785644531e+01 -5.557737350463867188e-01 1.078749774023890495e-03 -2.466732025146484375e+01 7.330601692199707031e+00 -1.104580688476562500e+01 6.984773874282836914e-01 -1.825594711303710938e+01 -8.321022987365722656e+00 -1.547947764396667480e+00 -1.750783920288085938e+01 -6.003043651580810547e+00 -3.822749137878417969e+00 -9.700680375099182129e-01 8.799938201904296875e+00 5.767926692962646484e+00 -3.597910404205322266e+00 9.664057731628417969e+00 -2.781693696975708008e+00 -1.166426563262939453e+01 -1.122449111938476562e+01 5.301033973693847656e+00 -4.010665416717529297e+00 -3.716270029544830322e-01 -5.375225067138671875e+00 3.216768980026245117e+00 7.817848324775695801e-01 -1.338601684570312500e+01 2.961096191406250000e+01 1.753173637390136719e+01 -2.803383350372314453e+00 3.302746772766113281e+00 5.943583250045776367e-01 -4.146376132965087891e+00 -8.285716056823730469e+00 -8.603549599647521973e-01 7.086678028106689453e+00 -2.356513738632202148e+00 -3.168124198913574219e+00 7.566542625427246094e-01 1.005480098724365234e+01 1.933908581733703613e+00 -6.832168579101562500e+00 2.589958190917968750e+00 8.863224029541015625e+00 -6.268262386322021484e+00 -1.035666370391845703e+01 1.338404846191406250e+01 -1.211169624328613281e+01 2.764905166625976562e+01 1.773118400573730469e+01 -3.617806434631347656e+00 1.326604247093200684e+00 -2.566059350967407227e+00 1.854203820228576660e+00 -2.572385215759277344e+01 1.174637126922607422e+01 5.203639030456542969e+00 -4.361248970031738281e+00 -1.990139961242675781e+00 -2.579484462738037109e+00 5.697953701019287109e+00 -1.391222596168518066e+00 -8.440452814102172852e-01 -1.934908747673034668e+00 -1.847037696838378906e+01 1.389785647392272949e+00 6.848377704620361328e+00 1.596663951873779297e+00 -3.041020393371582031e+00 1.017870426177978516e+01 -9.733504295349121094e+00 1.361646556854248047e+01 -1.432975959777832031e+01 1.330898666381835938e+01 2.102893066406250000e+01 -1.038993263244628906e+01 9.967369079589843750e+00 2.219864606857299805e+00 -5.576486110687255859e+00 2.000567436218261719e+00 -3.446527957916259766e+00 -1.049606037139892578e+01 8.216388702392578125e+00 1.118991947174072266e+01 -3.368759155273437500e-01 -1.838559389114379883e+00 -2.424082994461059570e+00 -2.320377379655838013e-01 -8.071218729019165039e-01 -8.842362403869628906e+00 -9.102069854736328125e+00 -3.859302699565887451e-01 1.463941574096679688e+01 9.312524795532226562e+00 2.439550310373306274e-01 -4.609176158905029297e+00 -5.007386803627014160e-01 7.247038841247558594e+00 -2.569254684448242188e+01 -1.613548398017883301e+00 2.277975715696811676e-02 9.033599853515625000e+00 -9.843807220458984375e+00 -7.339156627655029297e+00 -7.254389524459838867e-01 1.043866920471191406e+01 1.557976341247558594e+01 -4.458380222320556641e+00 5.267902016639709473e-01 -9.846675872802734375e+00 -4.348894119262695312e+00 -2.668505907058715820e+00 2.091214179992675781e+00 8.840205192565917969e+00 -2.106264114379882812e+00 7.556710243225097656e+00 -1.016332054138183594e+01 -8.040384054183959961e-01 2.800482177734375000e+01 -2.243914365768432617e+00 -2.469204330444335938e+01 2.753458976745605469e+00 -3.735265493392944336e+00 -1.208650469779968262e-01 -1.391954302787780762e+00 -1.150614738464355469e+01 -1.929593801498413086e+00 -9.367070198059082031e-01 -4.645043909549713135e-01 1.004949450492858887e+00 2.332797288894653320e+00 5.179825782775878906e+00 1.747718334197998047e+00 -5.483339428901672363e-01 6.121715903282165527e-01 7.493265271186828613e-01 5.583468914031982422e+00 2.410564041137695312e+01 2.892498016357421875e+00 2.656706047058105469e+01 -4.564342498779296875e+00 8.200502991676330566e-01 2.418989419937133789e+00 9.212267875671386719e+00 3.366524934768676758e+00 -1.246943187713623047e+01 1.172118425369262695e+00 1.110530281066894531e+01 2.829268693923950195e+00 -1.912867927551269531e+01 4.044613838195800781e+00 -5.264943599700927734e+00 1.439390927553176880e-01
4.001326084136962891e+00 -7.107408046722412109e-01 2.789211273193359375e+00 -6.382306218147277832e-01 6.409079432487487793e-01 -5.729346275329589844e-01 -1.744923233985900879e+00 -1.613550186157226562e+00 9.041518568992614746e-01 1.238334536552429199e+00 1.669803619384765625e+00 -2.635557651519775391e-01 1.191246658563613892e-01 -9.874528050422668457e-01 6.034566164016723633e-01 -1.020146608352661133e+00 1.204916238784790039e+00 8.048459291458129883e-01 -4.146412312984466553e-01 9.742019325494766235e-02 -2.691102325916290283e-01 1.280828118324279785e-01 -1.044130206108093262e+00 6.854215860366821289e-01 8.034010529518127441e-01 -9.181867241859436035e-01 1.721406221389770508e+00 5.036847591400146484e+00 -9.252520203590393066e-01 3.371441662311553955e-01 -4.854000210762023926e-01 -7.906605005264282227e-01 2.552991390228271484e+00 8.194586038589477539e-01 1.136260867118835449e+00 -6.280983686447143555e-01 3.056635141372680664e+00 5.836760401725769043e-01 -1.797374687157571316e-03 -1.100222349166870117e+00 -1.673467457294464111e-01 -1.143606662750244141e+00 1.089995741844177246e+00 -1.528340935707092285e+00 -2.301576584577560425e-01 3.130299448966979980e-01 2.677520215511322021e-01 3.903670787811279297e+00 1.067921876907348633e+00 -1.460623461753129959e-02 1.672223806381225586e+00 1.253193736076354980e+00 -1.746497511863708496e+00 1.597619295120239258e+00 -8.837033510208129883e-01 5.783036947250366211e-01 1.133106470108032227e+00 1.071647047996520996e+00 -4.016268253326416016e-01 3.154411315917968750e+00 5.364611744880676270e-01 -1.323672533035278320e+00 8.978548049926757812e-01 -1.666010379791259766e+00 -5.202955603599548340e-01 4.427472591400146484e+00 -3.096845149993896484e-01 1.366803407669067383e+00 -1.021360158920288086e+00 -7.447686791419982910e-01 -2.493833541870117188e+00 4.123266041278839111e-01 -1.741623878479003906e+00 1.644434690475463867e+00 1.343375802040100098e+00 -8.565564453601837158e-02 5.670430064201354980e-01 1.531037688255310059e+00 -1.667328715324401855e+00 1.526827216148376465e+00 1.058363795280456543e+00 1.157934665679931641e+00 3.185487687587738037e-01 -9.130374193191528320e-01 6.055990457534790039e-01 3.188582420349121094e+00 1.398026794195175171e-01 -4.471413195133209229e-01 5.588937997817993164e-01 1.350676417350769043e+00 5.453054308891296387e-01 -6.902070045471191406e-01 1.943991333246231079e-01 -2.661887645721435547e+00 -4.886939227581024170e-01 -3.865878582000732422e-01 -5.147378444671630859e-01 1.027711510658264160e+00 7.553144097328186035e-01 -3.057692050933837891e-01 -5.039859414100646973e-01 4.795635044574737549e-01 -9.257441163063049316e-01 -2.253015041351318359e+00 -1.488435149192810059e+00 1.873502731323242188e+00 8.344336152076721191e-01 -6.603300571441650391e-01 5.243454873561859131e-02 2.921107709407806396e-01 -2.420264035463333130e-01 -5.689411759376525879e-01 7.177079319953918457e-01 -1.498206019401550293e+00 5.235874652862548828e-01 4.050197452306747437e-02 2.591166973114013672e+00 1.444787369109690189e-03 -8.054296374320983887e-01 8.991114497184753418e-01 9.087495207786560059e-01 3.012970685958862305e-01 4.696601927280426025e-01 -8.340378403663635254e-01 1.280486226081848145e+00 -1.777462482452392578e+00 2.077488422393798828e+00 4.359491169452667236e-01 1.467259407043457031e+00 -1.143772244453430176e+00 -6.973233222961425781e-01 1.339084863662719727e+00 -7.195005416870117188e-01 -2.767781615257263184e-01 8.132468461990356445e-01 5.729833841323852539e-01 -2.999100685119628906e-01 1.038833975791931152e+00 1.654905796051025391e+00 5.707657337188720703e-01 1.067651510238647461e+00 5.567275285720825195e-01 -8.879690766334533691e-01 3.697092235088348389e-01 -8.274701237678527832e-01 -6.497907638549804688e-01 -5.361492633819580078e-01 1.127739191055297852e+00 -5.261344313621520996e-01 2.005892753601074219e+00 -1.349726915359497070e-01 -1.564199447631835938e+00 -3.408696889877319336e+00 -1.440066099166870117e+00 -7.544037699699401855e-01 -1.462541580200195312e+00 -1.658243894577026367e+00 5.708392858505249023e-01 7.613515257835388184e-01 -1.463401198387145996e+00 3.566785752773284912e-01 1.238432526588439941e+00 -5.257370695471763611e-02 1.565142631530761719e+00 -1.568302661180496216e-01 -8.053147196769714355e-01 3.263825774192810059e-01 -5.453879833221435547e-01 7.300592660903930664e-01 -2.849678516387939453e+00 -8.324240893125534058e-02 -7.329638004302978516e-01 1.237157702445983887e+00 5.636271238327026367e-01
-8.927073478698730469e+00 1.884779453277587891e+00 -1.836678886413574219e+01 2.693646430969238281e+01 -5.776839733123779297e+00 2.682341957092285156e+01 1.358522534370422363e+00 -2.748467624187469482e-01 -3.314954042434692383e+00 -6.749939918518066406e+00 -1.067333984375000000e+01 3.896919786930084229e-01 4.827706515789031982e-01 2.826432943344116211e+00 3.691937923431396484e+00 -9.684357643127441406e+00 -1.006069660186767578e+01 9.096225738525390625e+00 5.147060871124267578e+00 -1.478489518165588379e+00 1.260324764251708984e+01 -6.175624132156372070e-01 4.676204681396484375e+00 -2.512616729736328125e+01 7.113816738128662109e+00 -1.066966629028320312e+01 -2.594079375267028809e-01 -1.587069416046142578e+01 -8.385044097900390625e+00 -3.166879892349243164e+00 -1.619947814941406250e+01 -6.533635139465332031e+00 -2.750884532928466797e+00 -6.010321140289306641e+00 8.918450355529785156e+00 5.276974201202392578e+00 -2.325930356979370117e+00 9.699773788452148438e+00 -3.941589355468750000e+00 -1.130750560760498047e+01 -1.438175296783447266e+01 9.592596054077148438e+00 -6.864181995391845703e+00 6.473761796951293945e-01 -4.890332221984863281e+00 1.981711387634277344e+00 7.699802052229642868e-03 -1.143988895416259766e+01 2.994108200073242188e+01 1.658896827697753906e+01 -6.770064830780029297e+00 2.322873830795288086e+00 1.399778485298156738e+00 -3.786627292633056641e+00 -8.732471466064453125e+00 -1.136726737022399902e+00 6.106318950653076172e+00 -7.315929889678955078e+00 -1.837101221084594727e+00 2.116527408361434937e-01 9.294669151306152344e+00 2.821509599685668945e+00 -6.955688953399658203e+00 5.871644973754882812e+00 1.188121986389160156e+01 -6.521279811859130859e+00 -9.312598228454589844e+00 1.291580581665039062e+01 -1.176013278961181641e+01 2.759707069396972656e+01 1.753661918640136719e+01 -8.485436439514160156e+00 5.923039436340332031e+00 -7.296861648559570312e+00 1.245808482170104980e+00 -2.567550659179687500e+01 1.109070205688476562e+01 3.824233293533325195e+00 -3.246604204177856445e+00 -6.839792251586914062e+00 -7.001126289367675781e+00 5.371323108673095703e+00 -2.311501502990722656e+00 -4.552653729915618896e-01 -4.785466194152832031e+00 -1.832570075988769531e+01 2.300607442855834961e+00 7.594473838806152344e+00 2.680385589599609375e+00 -7.855372428894042969e+00 1.401922702789306641e+01 -9.782432556152343750e+00 1.280454921722412109e+01 -1.320033836364746094e+01 1.201527309417724609e+01 2.194170761108398438e+01 -1.050805950164794922e+01 9.678467750549316406e+00 2.788093805313110352e+00 -6.067858695983886719e+00 2.257060050964355469e+00 -8.047619819641113281e+00 -1.017234802246093750e+01 7.686533927917480469e+00 1.171043109893798828e+01 -1.500972390174865723e+00 -1.438300371170043945e+00 -3.795471429824829102e+00 -3.454882204532623291e-01 -4.042257368564605713e-01 -8.351547241210937500e+00 -9.003693580627441406e+00 -1.816236495971679688e+00 1.547619533538818359e+01 9.406048774719238281e+00 -3.282077312469482422e-01 -3.081289052963256836e+00 -5.079064965248107910e-01 7.024044513702392578e+00 -2.585221290588378906e+01 -6.009993553161621094e+00 -8.800076842308044434e-01 9.096051216125488281e+00 -1.004632854461669922e+01 -7.721997261047363281e+00 7.340071201324462891e-01 1.098489952087402344e+01 1.524677181243896484e+01 -8.971736907958984375e+00 6.111983776092529297e+00 -1.003551673889160156e+01 -7.327385902404785156e+00 -1.942850947380065918e+00 1.837170362472534180e+00 9.054244041442871094e+00 -6.672129154205322266e+00 1.121191883087158203e+01 -1.006822490692138672e+01 -5.452607154846191406e+00 2.659000968933105469e+01 -4.748677253723144531e+00 -2.413672256469726562e+01 7.656261444091796875e+00 -5.434008598327636719e+00 4.622964382171630859e+00 -2.350677013397216797e+00 -1.211471176147460938e+01 -6.443370819091796875e+00 -7.870409637689590454e-02 -1.835984826087951660e+00 5.604786276817321777e-01 7.046133518218994141e+00 5.610522270202636719e+00 7.124495506286621094e+00 3.860726833343505859e+00 5.544692516326904297e+00 1.532554984092712402e+00 6.045390605926513672e+00 2.306174278259277344e+01 7.220088005065917969e+00 2.612489128112792969e+01 -3.117054939270019531e+00 1.477038621902465820e+00 8.021551370620727539e-01 8.801920890808105469e+00 8.145011901855468750e+00 -1.659238433837890625e+01 1.124247908592224121e+00 1.114330482482910156e+01 9.565831422805786133e-01 -1.980466079711914062e+01 3.867126941680908203e+00 -9.980421066284179688e+00 6.873766183853149414e-01
-8.750391006469726562e+00 3.126311779022216797e+00 -5.190486907958984375e+00 2.965551614761352539e+00 -3.130851268768310547e+00 4.923011302947998047e+00 3.754279136657714844e+00 4.234934806823730469e+00 -5.358554840087890625e+00 -5.833711147308349609e+00 -4.910871028900146484e+00 3.882482945919036865e-01 7.512018829584121704e-02 1.259655714035034180e+00 -9.608395099639892578e-01 1.018258333206176758e+00 -6.112766742706298828e+00 -7.521428465843200684e-01 8.872134089469909668e-01 -1.550458788871765137e+00 1.111136525869369507e-01 -3.157434463500976562e-01 6.531980037689208984e+00 -1.528094291687011719e+00 -1.123421788215637207e+00 9.147483110427856445e-01 -4.169658660888671875e+00 -1.048760604858398438e+01 2.398893833160400391e+00 -1.849564433097839355e+00 -3.347312450408935547e+00 6.205247640609741211e-01 -6.562814712524414062e+00 -5.093538761138916016e+00 -8.891237974166870117e-01 3.402813434600830078e+00 -6.610657691955566406e+00 -7.806845307350158691e-01 -7.269360423088073730e-01 1.886110454797744751e-01 -1.529054164886474609e+00 5.898401737213134766e+00 -4.249242782592773438e+00 4.256979942321777344e+00 -3.708920240402221680e+00 -8.867868185043334961e-01 -1.230943918228149414e+00 -8.966598510742187500e+00 6.177139282226562500e-01 3.670633554458618164e+00 -6.992971897125244141e+00 -9.741257429122924805e-01 3.252501010894775391e+00 -3.444317102432250977e+00 1.363465040922164917e-01 -2.707176446914672852e+00 3.585735082626342773e+00 -6.415147304534912109e+00 3.858696937561035156e+00 -5.552615165710449219e+00 1.252871274948120117e+00 4.491240024566650391e+00 -4.122778415679931641e+00 7.713665008544921875e+00 1.872276902198791504e+00 -3.982726573944091797e+00 -2.701106786727905273e+00 1.673406481742858887e+00 -1.707893967628479004e+00 3.902821540832519531e+00 5.439851760864257812e+00 -5.204555034637451172e+00 7.364991664886474609e+00 -7.997979640960693359e+00 -2.172308683395385742e+00 -3.176103353500366211e+00 1.346556782722473145e+00 -2.915207862854003906e+00 2.804749727249145508e+00 -7.557031631469726562e+00 -5.904371738433837891e+00 -1.205376148223876953e+00 -6.248465180397033691e-01 2.411083459854125977e+00 -3.111921072006225586e+00 -6.919977664947509766e+00 -1.092085480690002441e+00 1.748940706253051758e+00 5.243230462074279785e-01 -7.624117374420166016e+00 2.117664575576782227e+00 1.038316249847412109e+00 3.023007392883300781e+00 -2.874964952468872070e+00 3.073846578598022461e+00 3.133408308029174805e+00 8.844243884086608887e-01 -8.472765684127807617e-01 -1.909234762191772461e+00 -3.086047172546386719e+00 2.148385047912597656e+00 -4.277208805084228516e+00 8.049634695053100586e-01 3.680685758590698242e+00 5.688705444335937500e+00 -4.196123123168945312e+00 -3.051687955856323242e+00 2.849860429763793945e+00 -3.253309428691864014e-01 -3.790232911705970764e-02 -2.923398017883300781e-01 3.816446959972381592e-01 -3.304876089096069336e+00 4.324310779571533203e+00 -1.592584967613220215e+00 -6.550996899604797363e-01 -7.953339576721191406e+00 -3.874144554138183594e-01 3.251693964004516602e+00 -3.688995122909545898e+00 -5.248943328857421875e+00 -8.811311721801757812e-01 1.318699598312377930e+00 8.269103765487670898e-01 -5.934590816497802734e+00 3.717930555343627930e+00 -3.069814682006835938e+00 -1.966995149850845337e-01 -7.158882617950439453e+00 7.299030780792236328e+00 1.412839174270629883e+00 -5.492969036102294922e+00 1.042692363262176514e-02 1.036652445793151855e+00 -1.034642100334167480e+00 -4.419345378875732422e+00 3.019319057464599609e+00 -5.138479232788085938e+00 -8.062082290649414062e+00 1.399904370307922363e+00 -4.182492733001708984e+00 -4.674991607666015625e+00 6.031672000885009766e+00 2.596131801605224609e+00 5.028472900390625000e+00 -4.272102415561676025e-01 2.167999267578125000e+00 -5.739014625549316406e+00 -3.133646965026855469e+00 -4.757519245147705078e+00 1.690301537513732910e+00 7.697515487670898438e+00 5.511837005615234375e+00 6.460243701934814453e+00 4.389992713928222656e+00 7.459930419921875000e+00 4.380472660064697266e+00 2.159983873367309570e+00 2.739340662956237793e-01 7.146484851837158203e+00 2.119450807571411133e+00 -3.943916559219360352e+00 2.560733079910278320e+00 -3.506426572799682617e+00 3.188314914703369141e+00 4.637455940246582031e+00 -2.560207366943359375e+00 5.618083953857421875e+00 -8.545042872428894043e-01 7.222312927246093750e+00 9.975053668022155762e-01 1.672203063964843750e+00 -5.973328113555908203e+00 6.372442841529846191e-01
2.181074142456054688e+01 -1.124810504913330078e+01 1.255005550384521484e+01 -2.422193717956542969e+01 9.540937423706054688e+00 -1.968945121765136719e+01 3.544783890247344971e-01 -7.785477638244628906e+00 2.520547866821289062e+00 6.530426502227783203e+00 1.451068520545959473e+00 -3.533556461334228516e+00 -3.286463320255279541e-01 -3.591014862060546875e+00 -1.610714673995971680e+00 2.850131750106811523e+00 1.228678703308105469e+01 -2.102118015289306641e+00 -6.850697040557861328e+00 7.248890876770019531e+00 -1.445329284667968750e+01 9.392048120498657227e-01 -4.600927829742431641e+00 2.614186859130859375e+01 -1.725911259651184082e+00 4.186279773712158203e+00 8.592512130737304688e+00 3.555244445800781250e+01 1.624542593955993652e+00 3.228780031204223633e+00 8.181122779846191406e+00 5.802235603332519531e-01 -4.682741165161132812e+00 6.082154750823974609e+00 -2.964864015579223633e+00 -8.355981826782226562e+00 1.492979431152343750e+01 -2.382952213287353516e+00 6.879642963409423828e+00 5.139830112457275391e+00 1.713710594177246094e+01 -1.040999794006347656e+01 1.162913894653320312e+01 -8.781883239746093750e+00 1.326348543167114258e+00 -4.343032836914062500e+00 1.616562604904174805e+00 2.103103828430175781e+01 -2.828059768676757812e+01 -9.806784629821777344e+00 1.102745437622070312e+01 -7.169080257415771484e+00 -1.010103321075439453e+01 5.377209663391113281e+00 2.078278541564941406e+00 7.200386524200439453e+00 -7.037000179290771484e+00 7.486728668212890625e+00 -5.589245796203613281e+00 -1.296559453010559082e+00 -5.304254055023193359e+00 -1.220659828186035156e+01 5.650389194488525391e+00 -1.152394104003906250e+01 -1.370086669921875000e+01 -3.834603309631347656e+00 9.879313468933105469e+00 -1.495095443725585938e+01 1.519809246063232422e+01 -2.998436355590820312e+01 -8.582914352416992188e+00 7.535155296325683594e+00 -8.387967109680175781e+00 9.954195976257324219e+00 7.692401885986328125e+00 2.810649681091308594e+01 -8.886264801025390625e+00 3.463265419006347656e+00 -4.055346488952636719e+00 8.815749168395996094e+00 7.667937278747558594e+00 2.083252429962158203e+00 4.865249633789062500e+00 -5.844772338867187500e+00 6.299458980560302734e+00 1.925089263916015625e+01 -2.387222051620483398e+00 -6.006111621856689453e+00 -2.436223030090332031e+00 1.140779113769531250e+01 -1.491222190856933594e+01 2.255660057067871094e+00 -1.091406631469726562e+01 1.162802982330322266e+01 -7.398411750793457031e+00 -1.715946197509765625e+01 2.894526004791259766e+00 -3.214823246002197266e+00 2.863041639328002930e+00 1.269997024536132812e+01 -8.465538024902343750e+00 7.648496627807617188e+00 2.859202623367309570e+00 -8.204056739807128906e+00 -3.433151245117187500e+00 9.850642204284667969e+00 1.207982635498046875e+01 5.282995223999023438e+00 2.637388706207275391e+00 2.726139307022094727e+00 1.854367065429687500e+01 1.658853769302368164e+00 6.036716461181640625e+00 -2.194043350219726562e+01 -2.322185039520263672e+00 5.883302688598632812e-01 2.765446090698242188e+01 1.987473964691162109e+00 -1.474022293090820312e+01 1.867504692077636719e+01 5.939828395843505859e+00 3.123759984970092773e+00 -9.086351394653320312e+00 2.879312992095947266e+00 5.099521160125732422e+00 -9.010384559631347656e+00 -1.145968246459960938e+01 -1.954676437377929688e+01 1.208411884307861328e+01 -5.359831333160400391e+00 2.983717441558837891e+00 1.404848575592041016e+01 4.557790279388427734e+00 -6.562139034271240234e+00 -2.079188585281372070e+00 5.625773429870605469e+00 -9.490079879760742188e+00 3.609555006027221680e+00 6.329755306243896484e+00 -2.120455551147460938e+01 8.272711753845214844e+00 2.162437057495117188e+01 -7.959102153778076172e+00 -1.649786829948425293e+00 -4.154472827911376953e+00 3.206138610839843750e+00 9.209509849548339844e+00 6.601456642150878906e+00 3.071905374526977539e+00 1.031613636016845703e+01 -6.762417793273925781e+00 -8.850081443786621094e+00 -8.939224243164062500e+00 -7.911705970764160156e+00 -3.737112045288085938e+00 -5.744422912597656250e+00 -1.073904895782470703e+01 -7.437408447265625000e+00 -2.077595329284667969e+01 -9.377326011657714844e+00 -3.138112068176269531e+01 5.018646717071533203e+00 -4.939325332641601562e+00 7.036800384521484375e+00 -1.460632419586181641e+01 -7.211120605468750000e+00 1.421671485900878906e+01 2.292145043611526489e-01 -4.065901279449462891e+00 -1.868613243103027344e+01 2.036342430114746094e+01 -1.589521503448486328e+01 1.121363067626953125e+01 -1.233404397964477539e+00
